{"learner":{"attributes":{"scikit_learn":"{\"_estimator_type\": \"regressor\"}"},"feature_names":[],"feature_types":[],"gradient_booster":{"model":{"gbtree_model_param":{"num_parallel_tree":"1","num_trees":"800"},"iteration_indptr":[0,1,2,3,4,5,6,7,8,9,10,11,12,13,14,15,16,17,18,19,20,21,22,23,24,25,26,27,28,29,30,31,32,33,34,35,36,37,38,39,40,41,42,43,44,45,46,47,48,49,50,51,52,53,54,55,56,57,58,59,60,61,62,63,64,65,66,67,68,69,70,71,72,73,74,75,76,77,78,79,80,81,82,83,84,85,86,87,88,89,90,91,92,93,94,95,96,97,98,99,100,101,102,103,104,105,106,107,108,109,110,111,112,113,114,115,116,117,118,119,120,121,122,123,124,125,126,127,128,129,130,131,132,133,134,135,136,137,138,139,140,141,142,143,144,145,146,147,148,149,150,151,152,153,154,155,156,157,158,159,160,161,162,163,164,165,166,167,168,169,170,171,172,173,174,175,176,177,178,179,180,181,182,183,184,185,186,187,188,189,190,191,192,193,194,195,196,197,198,199,200,201,202,203,204,205,206,207,208,209,210,211,212,213,214,215,216,217,218,219,220,221,222,223,224,225,226,227,228,229,230,231,232,233,234,235,236,237,238,239,240,241,242,243,244,245,246,247,248,249,250,251,252,253,254,255,256,257,258,259,260,261,262,263,264,265,266,267,268,269,270,271,272,273,274,275,276,277,278,279,280,281,282,283,284,285,286,287,288,289,290,291,292,293,294,295,296,297,298,299,300,301,302,303,304,305,306,307,308,309,310,311,312,313,314,315,316,317,318,319,320,321,322,323,324,325,326,327,328,329,330,331,332,333,334,335,336,337,338,339,340,341,342,343,344,345,346,347,348,349,350,351,352,353,354,355,356,357,358,359,360,361,362,363,364,365,366,367,368,369,370,371,372,373,374,375,376,377,378,379,380,381,382,383,384,385,386,387,388,389,390,391,392,393,394,395,396,397,398,399,400,401,402,403,404,405,406,407,408,409,410,411,412,413,414,415,416,417,418,419,420,421,422,423,424,425,426,427,428,429,430,431,432,433,434,435,436,437,438,439,440,441,442,443,444,445,446,447,448,449,450,451,452,453,454,455,456,457,458,459,460,461,462,463,464,465,466,467,468,469,470,471,472,473,474,475,476,477,478,479,480,481,482,483,484,485,486,487,488,489,490,491,492,493,494,495,496,497,498,499,500,501,502,503,504,505,506,507,508,509,510,511,512,513,514,515,516,517,518,519,520,521,522,523,524,525,526,527,528,529,530,531,532,533,534,535,536,537,538,539,540,541,542,543,544,545,546,547,548,549,550,551,552,553,554,555,556,557,558,559,560,561,562,563,564,565,566,567,568,569,570,571,572,573,574,575,576,577,578,579,580,581,582,583,584,585,586,587,588,589,590,591,592,593,594,595,596,597,598,599,600,601,602,603,604,605,606,607,608,609,610,611,612,613,614,615,616,617,618,619,620,621,622,623,624,625,626,627,628,629,630,631,632,633,634,635,636,637,638,639,640,641,642,643,644,645,646,647,648,649,650,651,652,653,654,655,656,657,658,659,660,661,662,663,664,665,666,667,668,669,670,671,672,673,674,675,676,677,678,679,680,681,682,683,684,685,686,687,688,689,690,691,692,693,694,695,696,697,698,699,700,701,702,703,704,705,706,707,708,709,710,711,712,713,714,715,716,717,718,719,720,721,722,723,724,725,726,727,728,729,730,731,732,733,734,735,736,737,738,739,740,741,742,743,744,745,746,747,748,749,750,751,752,753,754,755,756,757,758,759,760,761,762,763,764,765,766,767,768,769,770,771,772,773,774,775,776,777,778,779,780,781,782,783,784,785,786,787,788,789,790,791,792,793,794,795,796,797,798,799,800],"tree_info":[0,0,0,0,0,0,0,0,0,0,0,0,0,0,0,0,0,0,0,0,0,0,0,0,0,0,0,0,0,0,0,0,0,0,0,0,0,0,0,0,0,0,0,0,0,0,0,0,0,0,0,0,0,0,0,0,0,0,0,0,0,0,0,0,0,0,0,0,0,0,0,0,0,0,0,0,0,0,0,0,0,0,0,0,0,0,0,0,0,0,0,0,0,0,0,0,0,0,0,0,0,0,0,0,0,0,0,0,0,0,0,0,0,0,0,0,0,0,0,0,0,0,0,0,0,0,0,0,0,0,0,0,0,0,0,0,0,0,0,0,0,0,0,0,0,0,0,0,0,0,0,0,0,0,0,0,0,0,0,0,0,0,0,0,0,0,0,0,0,0,0,0,0,0,0,0,0,0,0,0,0,0,0,0,0,0,0,0,0,0,0,0,0,0,0,0,0,0,0,0,0,0,0,0,0,0,0,0,0,0,0,0,0,0,0,0,0,0,0,0,0,0,0,0,0,0,0,0,0,0,0,0,0,0,0,0,0,0,0,0,0,0,0,0,0,0,0,0,0,0,0,0,0,0,0,0,0,0,0,0,0,0,0,0,0,0,0,0,0,0,0,0,0,0,0,0,0,0,0,0,0,0,0,0,0,0,0,0,0,0,0,0,0,0,0,0,0,0,0,0,0,0,0,0,0,0,0,0,0,0,0,0,0,0,0,0,0,0,0,0,0,0,0,0,0,0,0,0,0,0,0,0,0,0,0,0,0,0,0,0,0,0,0,0,0,0,0,0,0,0,0,0,0,0,0,0,0,0,0,0,0,0,0,0,0,0,0,0,0,0,0,0,0,0,0,0,0,0,0,0,0,0,0,0,0,0,0,0,0,0,0,0,0,0,0,0,0,0,0,0,0,0,0,0,0,0,0,0,0,0,0,0,0,0,0,0,0,0,0,0,0,0,0,0,0,0,0,0,0,0,0,0,0,0,0,0,0,0,0,0,0,0,0,0,0,0,0,0,0,0,0,0,0,0,0,0,0,0,0,0,0,0,0,0,0,0,0,0,0,0,0,0,0,0,0,0,0,0,0,0,0,0,0,0,0,0,0,0,0,0,0,0,0,0,0,0,0,0,0,0,0,0,0,0,0,0,0,0,0,0,0,0,0,0,0,0,0,0,0,0,0,0,0,0,0,0,0,0,0,0,0,0,0,0,0,0,0,0,0,0,0,0,0,0,0,0,0,0,0,0,0,0,0,0,0,0,0,0,0,0,0,0,0,0,0,0,0,0,0,0,0,0,0,0,0,0,0,0,0,0,0,0,0,0,0,0,0,0,0,0,0,0,0,0,0,0,0,0,0,0,0,0,0,0,0,0,0,0,0,0,0,0,0,0,0,0,0,0,0,0,0,0,0,0,0,0,0,0,0,0,0,0,0,0,0,0,0,0,0,0,0,0,0,0,0,0,0,0,0,0,0,0,0,0,0,0,0,0,0,0,0,0,0,0,0,0,0,0,0,0,0,0,0,0,0,0,0,0,0,0,0,0,0,0,0,0,0,0,0,0,0,0,0,0,0,0,0,0,0,0,0,0,0,0,0,0,0,0,0,0,0,0,0,0,0,0,0,0,0,0,0,0,0,0,0,0,0,0,0,0,0,0,0,0,0,0,0,0,0,0,0,0,0,0,0,0,0,0,0,0,0,0,0,0,0,0,0,0,0,0,0,0,0,0,0,0,0,0,0,0,0,0,0,0,0,0,0,0,0,0,0,0,0,0,0,0,0,0,0,0,0,0,0,0,0,0,0,0,0,0],"trees":[{"base_weights":[1.173079E-3,-5.013576E-1,7.5748265E-1,-6.423029E-1,1.4509969E-2,4.7935966E-1,1.6309141E0,-8.46054E-1,-3.8724756E-1,-3.2605838E-2,3.6802373E0,1.1310874E0,3.318267E-1,2.4474065E0,1.4062072E0,-1.2955545E-1,-8.7407917E-1,1.5258464E-1,-4.7626185E-1,7.538663E-1,-1.2527983E-1,4.843279E0,-4.2616326E-2,7.33569E-1,1.4617245E0,1.9014958E-1,7.179955E-1,2.2361076E0,3.97368E0,8.099362E-1,1.6116976E0,-1.7370434E-2,8.267056E-2,-5.0739508E-2,-3.8068175E-2,3.3823575E-3,5.547846E-2,-2.9686777E-2,-1.6180659E-2,5.2037567E-2,-9.515434E-3,-9.047559E-3,2.3659239E-2,2.4567373E-1,-9.119213E-2,1.0993221E-1,-6.757507E-2,4.546876E-2,9.427167E-3,1.2227745E-1,5.791973E-2,8.823956E-3,7.337771E-2,9.141827E-3,4.0567327E-2,1.909964E-1,1.067276E-1,1.5602158E-1,2.6284844E-1,6.4660996E-2,2.1521633E-2,7.491723E-2,1.2742026E-1],"categories":[],"categories_nodes":[],"categories_segments":[],"categories_sizes":[],"default_left":[0,0,0,0,0,0,0,0,0,0,0,0,0,0,0,0,0,0,0,0,0,0,0,0,0,0,0,0,0,0,0,0,0,0,0,0,0,0,0,0,0,0,0,0,0,0,0,0,0,0,0,0,0,0,0,0,0,0,0,0,0,0,0],"id":0,"left_children":[1,3,5,7,9,11,13,15,17,19,21,23,25,27,29,31,33,35,37,39,41,43,45,47,49,51,53,55,57,59,61,-1,-1,-1,-1,-1,-1,-1,-1,-1,-1,-1,-1,-1,-1,-1,-1,-1,-1,-1,-1,-1,-1,-1,-1,-1,-1,-1,-1,-1,-1,-1,-1],"loss_changes":[8.919913E6,1.025218E6,2.275913E6,5.755165E5,5.2259356E5,6.8326575E5,4.15145E5,1.236205E5,2.3632744E5,2.1773702E5,1.6625372E5,1.7239912E5,3.17022E5,1.574625E5,2.1741475E5,9.0016E4,9.3965E4,5.6586562E4,7.570756E4,8.5300516E4,8.903989E4,1.3719625E4,2.6830297E4,5.707075E4,2.1368862E5,7.4027E4,7.7696875E4,6.89715E4,6.497E4,8.341097E4,1.4010725E5,0E0,0E0,0E0,0E0,0E0,0E0,0E0,0E0,0E0,0E0,0E0,0E0,0E0,0E0,0E0,0E0,0E0,0E0,0E0,0E0,0E0,0E0,0E0,0E0,0E0,0E0,0E0,0E0,0E0,0E0,0E0,0E0],"parents":[2147483647,0,0,1,1,2,2,3,3,4,4,5,5,6,6,7,7,8,8,9,9,10,10,11,11,12,12,13,13,14,14,15,15,16,16,17,17,18,18,19,19,20,20,21,21,22,22,23,23,24,24,25,25,26,26,27,27,28,28,29,29,30,30],"right_children":[2,4,6,8,10,12,14,16,18,20,22,24,26,28,30,32,34,36,38,40,42,44,46,48,50,52,54,56,58,60,62,-1,-1,-1,-1,-1,-1,-1,-1,-1,-1,-1,-1,-1,-1,-1,-1,-1,-1,-1,-1,-1,-1,-1,-1,-1,-1,-1,-1,-1,-1,-1,-1],"split_conditions":[2.667E0,3.667E0,5.667E0,1.333E0,8E0,3.505338E-1,9.8E1,1.11E1,3.7979475E-1,1.9444445E-2,8.333E0,4.333E0,4E0,7.49975E0,4E0,1.8335E0,6.67E-1,2.5E0,2E0,1.4449089E0,5.667E0,2.333E0,1.3888889E-2,2.8335E0,7.4E0,8.610289E1,4.333E0,3.7E0,8.667E0,5.8133334E-1,8E0,-1.7370434E-2,8.267056E-2,-5.0739508E-2,-3.8068175E-2,3.3823575E-3,5.547846E-2,-2.9686777E-2,-1.6180659E-2,5.2037567E-2,-9.515434E-3,-9.047559E-3,2.3659239E-2,2.4567373E-1,-9.119213E-2,1.0993221E-1,-6.757507E-2,4.546876E-2,9.427167E-3,1.2227745E-1,5.791973E-2,8.823956E-3,7.337771E-2,9.141827E-3,4.0567327E-2,1.909964E-1,1.067276E-1,1.5602158E-1,2.6284844E-1,6.4660996E-2,2.1521633E-2,7.491723E-2,1.2742026E-1],"split_indices":[36,39,39,36,39,17,11,14,17,3,39,39,36,38,36,37,36,38,36,17,39,36,3,38,14,3,39,14,36,3,39,0,0,0,0,0,0,0,0,0,0,0,0,0,0,0,0,0,0,0,0,0,0,0,0,0,0,0,0,0,0,0,0],"split_type":[0,0,0,0,0,0,0,0,0,0,0,0,0,0,0,0,0,0,0,0,0,0,0,0,0,0,0,0,0,0,0,0,0,0,0,0,0,0,0,0,0,0,0,0,0,0,0,0,0,0,0,0,0,0,0,0,0,0,0,0,0,0,0],"sum_hessian":[2.3469202E7,1.4100266E7,9.368936E6,1.1074494E7,3.025772E6,7.106158E6,2.262778E6,6.156423E6,4.918071E6,2.987378E6,3.8394E4,1.311699E6,5.794459E6,4.88336E5,1.774442E6,2.31739E5,5.924684E6,6.96161E5,4.22191E6,3.14908E5,2.67247E6,2.9254E4,9.14E3,5.95614E5,7.16085E5,4.239194E6,1.555265E6,4.28958E5,5.9378E4,4.54791E5,1.319651E6,2.06509E5,2.523E4,2.635089E6,3.289595E6,6.39413E5,5.6748E4,2.385836E6,1.836074E6,2.41522E5,7.3386E4,2.445027E6,2.27443E5,2.895E4,3.04E2,3.369E3,5.771E3,4.50346E5,1.45268E5,1.68747E5,5.47338E5,4.194311E6,4.4883E4,2.31001E5,1.324264E6,2.5841E4,4.03117E5,3.5671E4,2.3707E4,2.0004E5,2.54751E5,1.177203E6,1.42448E5],"tree_param":{"num_deleted":"0","num_feature":"45","num_nodes":"63","size_leaf_vector":"1"}},{"base_weights":[-8.7391294E-5,-4.7752362E-1,7.1814233E-1,-8.756911E-2,-6.6957563E-1,4.5333347E-1,1.5499784E0,-1.2794515E-2,-7.665336E-1,-7.781107E-1,7.747197E-2,1.1268774E0,3.2154837E-1,2.3750088E0,1.3489213E0,3.9716086E-1,-1.930084E-1,-1.3708763E0,-6.369883E-1,-8.9938307E-1,-4.4822392E-1,-2.9078368E-2,3.7712195E0,7.1378297E-1,1.4656678E0,6.0724473E-1,1.1950994E-1,2.0867465E0,3.2986743E0,1.2005774E0,2.1450937E0,1.0811248E-2,4.163287E-2,-1.1232368E-2,7.0639074E-2,-6.031668E-2,-7.568679E-2,2.7789474E-3,-3.6129113E-2,-3.1203521E-2,-4.815105E-2,1.1187517E-2,-2.768409E-2,1.9932775E-2,-8.5001215E-3,2.3224469E-1,2.3814458E-2,1.0012143E-2,4.455894E-2,1.1499447E-1,5.843648E-2,2.507316E-2,4.363139E-2,4.102589E-3,4.3559756E-2,1.8376364E-1,9.900385E-2,1.4099772E-1,1.9072604E-1,3.40727E-2,6.8315275E-2,3.7898045E-2,1.270595E-1],"categories":[],"categories_nodes":[],"categories_segments":[],"categories_sizes":[],"default_left":[0,0,0,0,0,0,0,0,0,0,0,0,0,0,0,0,0,0,0,0,0,0,0,0,0,0,0,0,0,0,0,0,0,0,0,0,0,0,0,0,0,0,0,0,0,0,0,0,0,0,0,0,0,0,0,0,0,0,0,0,0,0,0],"id":1,"left_children":[1,3,5,7,9,11,13,15,17,19,21,23,25,27,29,31,33,35,37,39,41,43,45,47,49,51,53,55,57,59,61,-1,-1,-1,-1,-1,-1,-1,-1,-1,-1,-1,-1,-1,-1,-1,-1,-1,-1,-1,-1,-1,-1,-1,-1,-1,-1,-1,-1,-1,-1,-1,-1],"loss_changes":[8.043778E6,1.0552795E6,2.0632725E6,2.3606256E5,7.65489E5,6.306526E5,3.75172E5,3.0944084E5,3.611022E4,3.297865E5,4.7135988E5,1.6271312E5,3.4299675E5,1.1797975E5,2.147835E5,1.0077922E5,1.4781764E5,1.9081875E3,2.2517906E4,1.05603E5,1.5702669E5,7.0168234E4,9.665656E4,4.772525E4,1.5822362E5,6.909969E4,9.800636E4,5.7213375E4,2.5997125E4,1.318855E5,1.5692662E5,0E0,0E0,0E0,0E0,0E0,0E0,0E0,0E0,0E0,0E0,0E0,0E0,0E0,0E0,0E0,0E0,0E0,0E0,0E0,0E0,0E0,0E0,0E0,0E0,0E0,0E0,0E0,0E0,0E0,0E0,0E0,0E0],"parents":[2147483647,0,0,1,1,2,2,3,3,4,4,5,5,6,6,7,7,8,8,9,9,10,10,11,11,12,12,13,13,14,14,15,15,16,16,17,17,18,18,19,19,20,20,21,21,22,22,23,23,24,24,25,25,26,26,27,27,28,28,29,29,30,30],"right_children":[2,4,6,8,10,12,14,16,18,20,22,24,26,28,30,32,34,36,38,40,42,44,46,48,50,52,54,56,58,60,62,-1,-1,-1,-1,-1,-1,-1,-1,-1,-1,-1,-1,-1,-1,-1,-1,-1,-1,-1,-1,-1,-1,-1,-1,-1,-1,-1,-1,-1,-1,-1,-1],"split_conditions":[2.667E0,1.3091956E1,5.667E0,8.1786334E2,4E0,2.2728333E1,9.4E1,1.2203834E1,3.5155556E-1,1.667E0,8E0,4.333E0,1.2187166E1,7.333E0,1.3943167E1,3.667E0,6E0,1.333E0,1.333E0,1.3531E1,2.6096666E1,2.5873989E-2,8.333E0,3E0,7.4E0,4.333E0,4.667E0,3.7E0,9E0,4E0,3.667E0,1.0811248E-2,4.163287E-2,-1.1232368E-2,7.0639074E-2,-6.031668E-2,-7.568679E-2,2.7789474E-3,-3.6129113E-2,-3.1203521E-2,-4.815105E-2,1.1187517E-2,-2.768409E-2,1.9932775E-2,-8.5001215E-3,2.3224469E-1,2.3814458E-2,1.0012143E-2,4.455894E-2,1.1499447E-1,5.843648E-2,2.507316E-2,4.363139E-2,4.102589E-3,4.3559756E-2,1.8376364E-1,9.900385E-2,1.4099772E-1,1.9072604E-1,3.40727E-2,6.8315275E-2,3.7898045E-2,1.270595E-1],"split_indices":[36,16,39,13,39,13,11,16,37,36,39,39,16,36,16,39,39,39,39,16,13,6,39,36,14,36,36,14,39,36,36,0,0,0,0,0,0,0,0,0,0,0,0,0,0,0,0,0,0,0,0,0,0,0,0,0,0,0,0,0,0,0,0],"split_type":[0,0,0,0,0,0,0,0,0,0,0,0,0,0,0,0,0,0,0,0,0,0,0,0,0,0,0,0,0,0,0,0,0,0,0,0,0,0,0,0,0,0,0,0,0,0,0,0,0,0,0,0,0,0,0,0,0,0,0,0,0,0,0],"sum_hessian":[2.3457472E7,1.409077E7,9.366702E6,4.64971E6,9.44106E6,7.104911E6,2.261791E6,4.188439E6,4.61271E5,8.243413E6,1.197647E6,1.162653E6,5.942258E6,4.43181E5,1.81861E6,1.278979E6,2.90946E6,8.1418E4,3.79853E5,6.027565E6,2.215848E6,1.164071E6,3.3576E4,5.23882E5,6.38771E5,2.461508E6,3.48075E6,3.37776E5,1.05405E5,1.532989E6,2.85621E5,9.03575E5,3.75404E5,2.853245E6,5.6215E4,3.7851E4,4.3567E4,4.1782E4,3.38071E5,1.13168E6,4.895885E6,3.00577E5,1.915271E6,2.88477E5,8.75594E5,2.6538E4,7.038E3,1.34507E5,3.89375E5,1.67677E5,4.71094E5,1.759987E6,7.01521E5,3.315533E6,1.65217E5,2.1248E4,3.16528E5,5.468E4,5.0725E4,3.70974E5,1.162015E6,6.3445E4,2.22176E5],"tree_param":{"num_deleted":"0","num_feature":"45","num_nodes":"63","size_leaf_vector":"1"}},{"base_weights":[-1.2011632E-3,-4.5506963E-1,6.8172103E-1,-5.818668E-1,9.4112465E-3,4.3007347E-1,1.4728578E0,-7.6581925E-1,-3.510796E-1,-3.269505E-2,3.3202655E0,1.011169E0,2.9893476E-1,1.9692037E0,1.0810544E0,-9.640037E-2,-7.939436E-1,1.5521781E-1,-4.3104136E-1,6.899226E-1,-1.17134735E-1,4.3792825E0,-1.0544672E-1,6.550325E-1,1.3079354E0,1.7033269E-1,6.492082E-1,1.8007784E0,2.9872866E0,4.7058138E-1,1.2956016E0,-2.290258E-2,2.0801274E-2,-7.631477E-2,-3.8815565E-2,3.972584E-3,5.0721414E-2,-2.718213E-2,-1.4253357E-2,9.84834E-3,5.974865E-2,-8.410553E-3,2.1474758E-2,2.220453E-1,-9.808467E-2,1.0232778E-1,-6.4187706E-2,4.105409E-2,6.9440054E-3,1.1985004E-1,5.3568393E-2,8.747519E-2,7.852388E-3,8.288349E-2,2.961856E-2,8.575495E-2,1.5410261E-1,1.1765225E-1,1.6693246E-1,5.4716468E-2,1.3480504E-2,5.6230355E-2,8.8560626E-2],"categories":[],"categories_nodes":[],"categories_segments":[],"categories_sizes":[],"default_left":[0,0,0,0,0,0,0,0,0,0,0,0,0,0,0,0,0,0,0,0,0,0,0,0,0,0,0,0,0,0,0,0,0,0,0,0,0,0,0,0,0,0,0,0,0,0,0,0,0,0,0,0,0,0,0,0,0,0,0,0,0,0,0],"id":2,"left_children":[1,3,5,7,9,11,13,15,17,19,21,23,25,27,29,31,33,35,37,39,41,43,45,47,49,51,53,55,57,59,61,-1,-1,-1,-1,-1,-1,-1,-1,-1,-1,-1,-1,-1,-1,-1,-1,-1,-1,-1,-1,-1,-1,-1,-1,-1,-1,-1,-1,-1,-1,-1,-1],"loss_changes":[7.268927E6,8.29731E5,1.8640705E6,4.6984275E5,4.2117812E5,5.4131925E5,4.394025E5,1.1594475E5,1.98726E5,1.8203112E5,1.3764388E5,1.3823125E5,2.610691E5,1.709015E5,1.65387E5,4.6016688E4,7.63145E4,4.3584445E4,6.96785E4,7.770889E4,7.457769E4,1.13508125E4,2.2732932E4,5.0952453E4,1.8379738E5,8.89344E4,8.92075E4,9.38765E4,3.150625E4,4.1163703E4,7.5983E4,0E0,0E0,0E0,0E0,0E0,0E0,0E0,0E0,0E0,0E0,0E0,0E0,0E0,0E0,0E0,0E0,0E0,0E0,0E0,0E0,0E0,0E0,0E0,0E0,0E0,0E0,0E0,0E0,0E0,0E0,0E0,0E0],"parents":[2147483647,0,0,1,1,2,2,3,3,4,4,5,5,6,6,7,7,8,8,9,9,10,10,11,11,12,12,13,13,14,14,15,15,16,16,17,17,18,18,19,19,20,20,21,21,22,22,23,23,24,24,25,25,26,26,27,27,28,28,29,29,30,30],"right_children":[2,4,6,8,10,12,14,16,18,20,22,24,26,28,30,32,34,36,38,40,42,44,46,48,50,52,54,56,58,60,62,-1,-1,-1,-1,-1,-1,-1,-1,-1,-1,-1,-1,-1,-1,-1,-1,-1,-1,-1,-1,-1,-1,-1,-1,-1,-1,-1,-1,-1,-1,-1,-1],"split_conditions":[2.667E0,3.667E0,5.667E0,1.333E0,8E0,3.505338E-1,1.7691995E5,2.0271568E-3,3.7236246E-1,1.9444445E-2,8.333E0,4.333E0,4E0,8.667E0,4E0,2.667E0,6.67E-1,2.5E0,2E0,4.667E0,5.667E0,2.333E0,1.3888889E-2,2.8335E0,1.8833334E-2,1.1248901E3,1.3604362E5,8.3483305E0,7.1570706E-1,8.738889E-2,7E0,-2.290258E-2,2.0801274E-2,-7.631477E-2,-3.8815565E-2,3.972584E-3,5.0721414E-2,-2.718213E-2,-1.4253357E-2,9.84834E-3,5.974865E-2,-8.410553E-3,2.1474758E-2,2.220453E-1,-9.808467E-2,1.0232778E-1,-6.4187706E-2,4.105409E-2,6.9440054E-3,1.1985004E-1,5.3568393E-2,8.747519E-2,7.852388E-3,8.288349E-2,2.961856E-2,8.575495E-2,1.5410261E-1,1.1765225E-1,1.6693246E-1,5.4716468E-2,1.3480504E-2,5.6230355E-2,8.8560626E-2],"split_indices":[36,39,39,36,39,17,22,17,17,3,39,39,36,39,36,39,39,38,36,39,39,36,3,38,3,22,22,17,17,3,39,0,0,0,0,0,0,0,0,0,0,0,0,0,0,0,0,0,0,0,0,0,0,0,0,0,0,0,0,0,0,0,0],"split_type":[0,0,0,0,0,0,0,0,0,0,0,0,0,0,0,0,0,0,0,0,0,0,0,0,0,0,0,0,0,0,0,0,0,0,0,0,0,0,0,0,0,0,0,0,0,0,0,0,0,0,0,0,0,0,0,0,0,0,0,0,0,0,0],"sum_hessian":[2.3451412E7,1.4088337E7,9.363074E6,1.106715E7,3.021187E6,7.103555E6,2.259519E6,6.158453E6,4.908697E6,2.98325E6,3.7937E4,1.307924E6,5.795631E6,9.96772E5,1.262747E6,2.48304E5,5.910149E6,6.69512E5,4.239185E6,3.12125E5,2.671125E6,2.8978E4,8.959E3,5.945E5,7.13424E5,4.239217E6,1.556414E6,8.55287E5,1.41485E5,3.28381E5,9.34366E5,1.45568E5,1.02736E5,1.38943E5,5.771206E6,6.15261E5,5.4251E4,2.393152E6,1.846033E6,1.57956E5,1.54169E5,2.442869E6,2.28256E5,2.87E4,2.78E2,3.169E3,5.79E3,4.49796E5,1.44704E5,1.2731E5,5.86114E5,3.5362E4,4.203855E6,8.3035E4,1.473379E6,8.01685E5,5.3602E4,5.0447E4,9.1038E4,8.0018E4,2.48363E5,6.87281E5,2.47085E5],"tree_param":{"num_deleted":"0","num_feature":"45","num_nodes":"63","size_leaf_vector":"1"}},{"base_weights":[-2.1871553E-4,-4.3192676E-1,6.490909E-1,-5.3300574E-2,-6.046426E-1,4.112364E-1,1.3981537E0,5.9673376E-2,-5.2960044E-1,-7.022222E-1,6.0649782E-2,1.0185915E0,2.9257202E-1,1.8715667E0,1.0276866E0,4.4155672E-1,-1.1980209E-1,-1.1438707E0,-4.4520515E-1,-8.1066984E-1,-4.1165838E-1,-3.0917645E-2,3.370582E0,6.5118957E-1,1.3202447E0,5.5197E-1,9.986883E-2,1.7347538E0,2.9934342E0,4.508003E-1,1.2307665E0,1.4360617E-2,4.0481236E-2,1.6644029E-2,-1.1693824E-2,-5.8985528E-2,3.7513934E-2,-1.0330248E-2,-2.6814599E-2,-2.6939467E-2,-4.372206E-2,1.4877458E-2,-2.5490344E-2,3.644125E-2,-7.082753E-3,2.0861028E-1,2.4143135E-2,8.336722E-3,4.0987E-2,1.1306452E-1,5.4504316E-2,2.2898277E-2,3.957772E-2,3.202121E-3,4.1130286E-2,1.6733345E-1,8.198043E-2,-1.923074E-3,1.5535814E-1,4.8642423E-2,1.224528E-2,5.3251058E-2,8.4528945E-2],"categories":[],"categories_nodes":[],"categories_segments":[],"categories_sizes":[],"default_left":[0,0,0,0,0,0,0,0,0,0,0,0,0,0,0,0,0,0,0,0,0,0,0,0,0,0,0,0,0,0,0,0,0,0,0,0,0,0,0,0,0,0,0,0,0,0,0,0,0,0,0,0,0,0,0,0,0,0,0,0,0,0,0],"id":3,"left_children":[1,3,5,7,9,11,13,15,17,19,21,23,25,27,29,31,33,35,37,39,41,43,45,47,49,51,53,55,57,59,61,-1,-1,-1,-1,-1,-1,-1,-1,-1,-1,-1,-1,-1,-1,-1,-1,-1,-1,-1,-1,-1,-1,-1,-1,-1,-1,-1,-1,-1,-1,-1,-1],"loss_changes":[6.575756E6,9.2143675E5,1.6691295E6,2.375162E5,6.2818E5,5.1246112E5,3.959815E5,2.44531E5,4.386889E4,2.659085E5,3.7512978E5,1.28798375E5,2.9733678E5,1.5211825E5,1.4839E5,6.480014E4,1.2533466E5,6.942E3,1.6169797E4,1.065435E5,1.5964931E5,1.0132867E5,7.712244E4,4.2785797E4,1.3821675E5,5.7101188E4,8.837049E4,1.3547625E5,3.7148688E4,3.5448367E4,7.1392875E4,0E0,0E0,0E0,0E0,0E0,0E0,0E0,0E0,0E0,0E0,0E0,0E0,0E0,0E0,0E0,0E0,0E0,0E0,0E0,0E0,0E0,0E0,0E0,0E0,0E0,0E0,0E0,0E0,0E0,0E0,0E0,0E0],"parents":[2147483647,0,0,1,1,2,2,3,3,4,4,5,5,6,6,7,7,8,8,9,9,10,10,11,11,12,12,13,13,14,14,15,15,16,16,17,17,18,18,19,19,20,20,21,21,22,22,23,23,24,24,25,25,26,26,27,27,28,28,29,29,30,30],"right_children":[2,4,6,8,10,12,14,16,18,20,22,24,26,28,30,32,34,36,38,40,42,44,46,48,50,52,54,56,58,60,62,-1,-1,-1,-1,-1,-1,-1,-1,-1,-1,-1,-1,-1,-1,-1,-1,-1,-1,-1,-1,-1,-1,-1,-1,-1,-1,-1,-1,-1,-1,-1,-1],"split_conditions":[2.667E0,1.3041E1,5.667E0,1.0131333E1,4E0,2.2728333E1,1.7691995E5,1.2203834E1,3.5155556E-1,1.667E0,8E0,4.333E0,1.222E1,9.004867E2,4E0,3.667E0,1.692948E5,1.1175971E1,6.306831E0,1.3504577E1,1.493939E5,1.9444445E-2,8.333E0,3E0,1.8833334E-2,4.333E0,4.667E0,3.7E0,6E0,1.2137E1,7E0,1.4360617E-2,4.0481236E-2,1.6644029E-2,-1.1693824E-2,-5.8985528E-2,3.7513934E-2,-1.0330248E-2,-2.6814599E-2,-2.6939467E-2,-4.372206E-2,1.4877458E-2,-2.5490344E-2,3.644125E-2,-7.082753E-3,2.0861028E-1,2.4143135E-2,8.336722E-3,4.0987E-2,1.1306452E-1,5.4504316E-2,2.2898277E-2,3.957772E-2,3.202121E-3,4.1130286E-2,1.6733345E-1,8.198043E-2,-1.923074E-3,1.5535814E-1,4.8642423E-2,1.224528E-2,5.3251058E-2,8.4528945E-2],"split_indices":[36,16,39,2,39,13,22,16,37,36,39,39,16,13,36,39,22,17,17,16,22,3,39,36,3,36,36,14,39,16,39,0,0,0,0,0,0,0,0,0,0,0,0,0,0,0,0,0,0,0,0,0,0,0,0,0,0,0,0,0,0,0,0],"split_type":[0,0,0,0,0,0,0,0,0,0,0,0,0,0,0,0,0,0,0,0,0,0,0,0,0,0,0,0,0,0,0,0,0,0,0,0,0,0,0,0,0,0,0,0,0,0,0,0,0,0,0,0,0,0,0,0,0,0,0,0,0,0,0],"sum_hessian":[2.3458682E7,1.4090379E7,9.368303E6,4.414016E6,9.676363E6,7.110475E6,2.257828E6,3.567775E6,8.46241E5,8.438651E6,1.237712E6,1.162169E6,5.948306E6,9.91191E5,1.266637E6,1.140674E6,2.427101E6,1.02217E5,7.44024E5,6.1451E6,2.293551E6,1.204396E6,3.3316E4,5.23985E5,6.38184E5,2.535398E6,3.412908E6,8.8346E5,1.07731E5,3.29797E5,9.3684E5,8.03671E5,3.37003E5,4.88515E5,1.938586E6,1.0032E5,1.897E3,2.05564E5,5.3846E5,1.167529E6,4.977571E6,2.78821E5,2.01473E6,1.53214E5,1.051182E6,2.6076E4,7.24E3,1.3525E5,3.88735E5,1.25407E5,5.12777E5,1.820936E6,7.14462E5,3.251722E6,1.61186E5,4.9235E4,8.34225E5,3.895E3,1.03836E5,9.3278E4,2.36519E5,6.88626E5,2.48214E5],"tree_param":{"num_deleted":"0","num_feature":"45","num_nodes":"63","size_leaf_vector":"1"}},{"base_weights":[-8.391302E-5,-3.8144127E-1,5.5299723E-1,7.919469E-2,-5.7638884E-1,3.1366244E-1,1.1498266E0,-5.6172305E-1,1.8563539E-1,-6.679951E-1,-3.87353E-1,8.7189084E-1,1.4837794E-1,1.5991061E0,8.4134746E-1,-6.6497695E-1,-9.25681E-2,4.918582E-1,4.063162E-3,-4.4050947E-1,-7.5646466E-1,-4.1668397E-1,6.1452335E-1,1.3733109E0,7.442318E-1,6.252056E-1,-6.1370905E-2,1.4969252E0,3.1048172E0,7.1899027E-1,1.3124304E0,-3.8831405E-2,-1.5409104E-2,2.3706604E-2,-1.1720819E-2,4.055314E-2,1.678526E-2,3.1803165E-2,-2.0521837E-3,9.9571065E-5,-2.3478255E-2,-1.4204236E-2,-4.038744E-2,-9.82185E-3,-2.699214E-2,1.7172785E-2,6.9486655E-2,7.952551E-2,-2.722452E-3,4.27829E-2,1.7162543E-2,6.560624E-2,2.7750904E-2,3.5365744E-4,-1.0017447E-2,6.5985106E-2,1.1704631E-1,1.7540666E-1,1.0150882E-1,4.290625E-2,1.997315E-2,6.1265685E-2,1.256055E-1],"categories":[],"categories_nodes":[],"categories_segments":[],"categories_sizes":[],"default_left":[0,0,0,0,0,0,0,0,0,0,0,0,0,0,0,0,0,0,0,0,0,0,0,0,0,0,0,0,0,0,0,0,0,0,0,0,0,0,0,0,0,0,0,0,0,0,0,0,0,0,0,0,0,0,0,0,0,0,0,0,0,0,0],"id":4,"left_children":[1,3,5,7,9,11,13,15,17,19,21,23,25,27,29,31,33,35,37,39,41,43,45,47,49,51,53,55,57,59,61,-1,-1,-1,-1,-1,-1,-1,-1,-1,-1,-1,-1,-1,-1,-1,-1,-1,-1,-1,-1,-1,-1,-1,-1,-1,-1,-1,-1,-1,-1,-1,-1],"loss_changes":[4.9481225E6,1.2469049E6,1.367592E6,2.8168134E5,1.6894875E5,6.3052675E5,3.79798E5,2.8486922E4,1.9688294E5,1.3225825E5,9.358472E4,9.9927375E4,5.273353E5,1.7162575E5,9.36515E4,1.9199938E4,8.527759E3,6.569719E4,6.3369824E4,2.3658875E4,1.146245E5,8.392725E4,1.9032992E4,9.8243E4,5.55965E4,7.76585E4,3.483219E4,1.562545E5,3.07045E4,5.734025E4,3.5002375E4,0E0,0E0,0E0,0E0,0E0,0E0,0E0,0E0,0E0,0E0,0E0,0E0,0E0,0E0,0E0,0E0,0E0,0E0,0E0,0E0,0E0,0E0,0E0,0E0,0E0,0E0,0E0,0E0,0E0,0E0,0E0,0E0],"parents":[2147483647,0,0,1,1,2,2,3,3,4,4,5,5,6,6,7,7,8,8,9,9,10,10,11,11,12,12,13,13,14,14,15,15,16,16,17,17,18,18,19,19,20,20,21,21,22,22,23,23,24,24,25,25,26,26,27,27,28,28,29,29,30,30],"right_children":[2,4,6,8,10,12,14,16,18,20,22,24,26,28,30,32,34,36,38,40,42,44,46,48,50,52,54,56,58,60,62,-1,-1,-1,-1,-1,-1,-1,-1,-1,-1,-1,-1,-1,-1,-1,-1,-1,-1,-1,-1,-1,-1,-1,-1,-1,-1,-1,-1,-1,-1,-1,-1],"split_conditions":[2.3445277E0,1.28875E1,3.91675E0,2.888889E1,1.5E0,4.016E1,1.7691995E5,1.7999E0,1.203E1,1.3597333E1,1.6512833E1,1.8833334E-2,1.21025E1,7.49975E0,5.130639E0,1.1473459E6,1.8708333E0,1.78E2,1.8833334E-2,2.0111112E-2,2.4875E1,2.5534173E5,2.11375E1,1.4070508E1,1.3307333E1,1.3440495E5,6.454726E5,1.38965E1,9E1,6.454726E5,7.49975E0,-3.8831405E-2,-1.5409104E-2,2.3706604E-2,-1.1720819E-2,4.055314E-2,1.678526E-2,3.1803165E-2,-2.0521837E-3,9.9571065E-5,-2.3478255E-2,-1.4204236E-2,-4.038744E-2,-9.82185E-3,-2.699214E-2,1.7172785E-2,6.9486655E-2,7.952551E-2,-2.722452E-3,4.27829E-2,1.7162543E-2,6.560624E-2,2.7750904E-2,3.5365744E-4,-1.0017447E-2,6.5985106E-2,1.1704631E-1,1.7540666E-1,1.0150882E-1,4.290625E-2,1.997315E-2,6.1265685E-2,1.256055E-1],"split_indices":[38,16,38,10,38,13,22,38,16,16,16,3,16,38,38,22,38,11,3,3,13,22,16,16,16,22,22,16,11,22,38,0,0,0,0,0,0,0,0,0,0,0,0,0,0,0,0,0,0,0,0,0,0,0,0,0,0,0,0,0,0,0,0],"split_type":[0,0,0,0,0,0,0,0,0,0,0,0,0,0,0,0,0,0,0,0,0,0,0,0,0,0,0,0,0,0,0,0,0,0,0,0,0,0,0,0,0,0,0,0,0,0,0,0,0,0,0,0,0,0,0,0,0,0,0,0,0,0,0],"sum_hessian":[2.3459532E7,1.3885371E7,9.574161E6,4.129023E6,9.756348E6,6.833758E6,2.740403E6,5.88064E5,3.540959E6,6.571707E6,3.184641E6,1.56115E6,5.272608E6,1.115597E6,1.624806E6,4.81985E5,1.06079E5,1.318051E6,2.222908E6,1.840127E6,4.73158E6,3.094061E6,9.058E4,3.16798E5,1.244352E6,1.610778E6,3.66183E6,1.044707E6,7.089E4,1.289805E6,3.35001E5,3.67104E5,1.14881E5,2.1235E4,8.4844E4,4.3297E5,8.85081E5,1.48081E5,2.074827E6,1.13382E5,1.726745E6,4.63381E5,4.268199E6,1.109655E6,1.984406E6,6.7116E4,2.3464E4,2.74968E5,4.183E4,9.73757E5,2.70595E5,1.49322E5,1.461456E6,2.45352E6,1.20831E6,8.63415E5,1.81292E5,5.154E4,1.935E4,8.9854E5,3.91265E5,3.12327E5,2.2674E4],"tree_param":{"num_deleted":"0","num_feature":"45","num_nodes":"63","size_leaf_vector":"1"}},{"base_weights":[6.228769E-4,-3.9110163E-1,5.90493E-1,-6.4084336E-2,-5.5473626E-1,3.7342587E-1,1.2734907E0,4.4325855E-2,-4.4085422E-1,-6.4577144E-1,7.436737E-2,9.3144387E-1,2.642414E-1,1.681146E0,9.081175E-1,4.657973E-1,-9.436457E-2,-2.8016615E-1,-6.4722204E-1,-7.4522007E-1,-3.7319636E-1,-1.7424729E-2,3.2332017E0,5.9201294E-1,1.2085446E0,4.779679E-1,7.515585E-2,1.5575718E0,2.7258759E0,3.8888174E-1,1.0925375E0,1.3830182E-2,4.4407677E-2,1.5971089E-2,-9.935941E-3,-1.5372546E-2,1.1620078E-1,-5.7742584E-2,-2.6854679E-2,-2.5236392E-2,-3.9752223E-2,1.4884814E-2,-2.316398E-2,3.2230277E-2,-5.6495713E-3,1.9890763E-1,2.0719728E-2,6.9882385E-3,3.7437506E-2,9.791702E-2,4.7145233E-2,3.1526174E-2,1.7103417E-2,1.0052479E-3,2.625229E-2,6.848132E-2,1.13581955E-1,-4.501574E-3,1.4220312E-1,5.110405E-2,1.0121735E-2,5.2072342E-2,1.19103424E-1],"categories":[],"categories_nodes":[],"categories_segments":[],"categories_sizes":[],"default_left":[0,0,0,0,0,0,0,0,0,0,0,0,0,0,0,0,0,0,0,0,0,0,0,0,0,0,0,0,0,0,0,0,0,0,0,0,0,0,0,0,0,0,0,0,0,0,0,0,0,0,0,0,0,0,0,0,0,0,0,0,0,0,0],"id":5,"left_children":[1,3,5,7,9,11,13,15,17,19,21,23,25,27,29,31,33,35,37,39,41,43,45,47,49,51,53,55,57,59,61,-1,-1,-1,-1,-1,-1,-1,-1,-1,-1,-1,-1,-1,-1,-1,-1,-1,-1,-1,-1,-1,-1,-1,-1,-1,-1,-1,-1,-1,-1,-1,-1],"loss_changes":[5.4202605E6,7.543155E5,1.3878558E6,1.9202412E5,5.3806675E5,4.3279812E5,3.3626E5,2.1340164E5,3.4833266E4,2.22481E5,3.4437462E5,1.0933506E5,2.4009578E5,1.3774675E5,1.14003625E5,7.222647E4,1.1861092E5,4.1966445E4,2.5706203E4,7.20545E4,1.3259828E5,7.302047E4,7.042019E4,3.7034906E4,1.2746494E5,5.781825E4,7.807189E4,1.2805025E5,3.7561875E4,3.6837766E4,5.787225E4,0E0,0E0,0E0,0E0,0E0,0E0,0E0,0E0,0E0,0E0,0E0,0E0,0E0,0E0,0E0,0E0,0E0,0E0,0E0,0E0,0E0,0E0,0E0,0E0,0E0,0E0,0E0,0E0,0E0,0E0,0E0,0E0],"parents":[2147483647,0,0,1,1,2,2,3,3,4,4,5,5,6,6,7,7,8,8,9,9,10,10,11,11,12,12,13,13,14,14,15,15,16,16,17,17,18,18,19,19,20,20,21,21,22,22,23,23,24,24,25,25,26,26,27,27,28,28,29,29,30,30],"right_children":[2,4,6,8,10,12,14,16,18,20,22,24,26,28,30,32,34,36,38,40,42,44,46,48,50,52,54,56,58,60,62,-1,-1,-1,-1,-1,-1,-1,-1,-1,-1,-1,-1,-1,-1,-1,-1,-1,-1,-1,-1,-1,-1,-1,-1,-1,-1,-1,-1,-1,-1,-1,-1],"split_conditions":[2.667E0,1.3103E1,5.667E0,7.8907776E0,4E0,2.2728333E1,1.8818738E5,1.2084745E1,8.1786334E2,1.667E0,8E0,4.333E0,1.2331333E1,7.52325E2,4E0,3.667E0,1.692948E5,1.2756696E1,3.5155556E-1,1.3504577E1,1.4792814E5,1.9444445E-2,8.333E0,3E0,7.4E0,1.1577333E1,1.4218833E1,1.3958667E1,6E0,8.738889E-2,8.128796E6,1.3830182E-2,4.4407677E-2,1.5971089E-2,-9.935941E-3,-1.5372546E-2,1.1620078E-1,-5.7742584E-2,-2.6854679E-2,-2.5236392E-2,-3.9752223E-2,1.4884814E-2,-2.316398E-2,3.2230277E-2,-5.6495713E-3,1.9890763E-1,2.0719728E-2,6.9882385E-3,3.7437506E-2,9.791702E-2,4.7145233E-2,3.1526174E-2,1.7103417E-2,1.0052479E-3,2.625229E-2,6.848132E-2,1.13581955E-1,-4.501574E-3,1.4220312E-1,5.110405E-2,1.0121735E-2,5.2072342E-2,1.19103424E-1],"split_indices":[36,16,39,3,39,13,22,16,13,36,39,39,16,13,36,39,22,18,37,16,22,3,39,36,14,16,16,16,39,3,22,0,0,0,0,0,0,0,0,0,0,0,0,0,0,0,0,0,0,0,0,0,0,0,0,0,0,0,0,0,0,0,0],"split_type":[0,0,0,0,0,0,0,0,0,0,0,0,0,0,0,0,0,0,0,0,0,0,0,0,0,0,0,0,0,0,0,0,0,0,0,0,0,0,0,0,0,0,0,0,0,0,0,0,0,0,0,0,0,0,0,0,0,0,0,0,0,0,0],"sum_hessian":[2.345756E7,1.4096364E7,9.361197E6,4.701203E6,9.395161E6,7.103576E6,2.257621E6,3.650753E6,1.05045E6,8.207487E6,1.187674E6,1.162462E6,5.941114E6,1.067063E6,1.190558E6,9.03888E5,2.746865E6,5.90593E5,4.59857E5,6.013475E6,2.194012E6,1.154139E6,3.3535E4,5.22474E5,6.39988E5,2.788839E6,3.152275E6,9.54204E5,1.12859E5,3.12034E5,8.78524E5,6.24258E5,2.7963E5,5.53221E5,2.193644E6,5.84472E5,6.121E3,8.1974E4,3.77883E5,1.032044E6,4.981431E6,2.59723E5,1.934289E6,1.45586E5,1.008553E6,2.6524E4,7.011E3,1.34473E5,3.88001E5,1.67417E5,4.72571E5,1.313897E6,1.474942E6,2.808603E6,3.43672E5,7.55391E5,1.98813E5,4.546E3,1.08313E5,7.0976E4,2.41058E5,8.45049E5,3.3475E4],"tree_param":{"num_deleted":"0","num_feature":"45","num_nodes":"63","size_leaf_vector":"1"}},{"base_weights":[-6.1209744E-4,-3.736967E-1,5.605952E-1,-1.0876707E-1,-5.5615515E-1,3.5351476E-1,1.211931E0,1.7664503E-1,-2.1738887E-1,-6.432628E-1,8.058741E-2,8.8441485E-1,2.4956796E-1,1.902111E0,1.01412E0,-1.18713036E-1,3.6006063E-1,-2.4446672E-1,1.4189034E0,-7.397707E-1,-3.5703903E-1,-7.615024E-3,2.948107E0,5.514187E-1,1.1566153E0,4.482209E-1,6.537086E-2,2.384894E0,1.5308224E0,9.119391E-1,1.9297019E0,-2.1925777E-2,4.851058E-3,4.389901E-2,9.625524E-3,-3.6149349E-3,-1.841656E-2,9.085817E-2,-4.878312E-2,-7.3901854E-2,-3.621728E-2,1.6619492E-2,-2.2442399E-2,1.8106919E-2,-1.0851861E-2,1.8753378E-1,1.9986449E-2,3.5240278E-2,4.828417E-3,1.0210826E-1,4.6734508E-2,1.819052E-2,3.410678E-2,6.2211166E-4,2.4275389E-2,6.0952723E-2,1.2797664E-1,1.6507007E-1,6.2099457E-2,2.368447E-2,5.3697597E-2,4.35184E-2,1.2023683E-1],"categories":[],"categories_nodes":[],"categories_segments":[],"categories_sizes":[],"default_left":[0,0,0,0,0,0,0,0,0,0,0,0,0,0,0,0,0,0,0,0,0,0,0,0,0,0,0,0,0,0,0,0,0,0,0,0,0,0,0,0,0,0,0,0,0,0,0,0,0,0,0,0,0,0,0,0,0,0,0,0,0,0,0],"id":6,"left_children":[1,3,5,7,9,11,13,15,17,19,21,23,25,27,29,31,33,35,37,39,41,43,45,47,49,51,53,55,57,59,61,-1,-1,-1,-1,-1,-1,-1,-1,-1,-1,-1,-1,-1,-1,-1,-1,-1,-1,-1,-1,-1,-1,-1,-1,-1,-1,-1,-1,-1,-1,-1,-1],"loss_changes":[4.9102245E6,6.809354E5,1.2631035E6,1.78107E5,4.62677E5,3.921262E5,3.0841875E5,8.5794805E4,1.8437733E5,2.0269325E5,2.5389478E5,1.0545419E5,2.174324E5,9.019525E4,1.642645E5,4.185865E4,8.478091E4,8.729736E4,6.4608234E4,6.248875E4,1.1711666E5,7.541305E4,6.126258E4,3.650858E4,1.2580094E5,5.6448E4,6.8563766E4,4.4531375E4,1.4546894E5,1.12152625E5,8.870206E4,0E0,0E0,0E0,0E0,0E0,0E0,0E0,0E0,0E0,0E0,0E0,0E0,0E0,0E0,0E0,0E0,0E0,0E0,0E0,0E0,0E0,0E0,0E0,0E0,0E0,0E0,0E0,0E0,0E0,0E0,0E0,0E0],"parents":[2147483647,0,0,1,1,2,2,3,3,4,4,5,5,6,6,7,7,8,8,9,9,10,10,11,11,12,12,13,13,14,14,15,15,16,16,17,17,18,18,19,19,20,20,21,21,22,22,23,23,24,24,25,25,26,26,27,27,28,28,29,29,30,30],"right_children":[2,4,6,8,10,12,14,16,18,20,22,24,26,28,30,32,34,36,38,40,42,44,46,48,50,52,54,56,58,60,62,-1,-1,-1,-1,-1,-1,-1,-1,-1,-1,-1,-1,-1,-1,-1,-1,-1,-1,-1,-1,-1,-1,-1,-1,-1,-1,-1,-1,-1,-1,-1,-1],"split_conditions":[2.667E0,1.3320167E1,5.667E0,7.370333E1,4E0,2.2728333E1,1.2213205E5,2.667E0,6E0,1.667E0,8E0,4.333E0,1.2361834E1,1.0420667E1,8E0,1.333E0,2.211111E-2,1.24822035E1,1.6796612E1,6.67E-1,1.4649419E5,2E0,8.333E0,2.8335E0,1.8833334E-2,4.333E0,1.4218833E1,6.333E0,3.7E0,4E0,1.12915E1,-2.1925777E-2,4.851058E-3,4.389901E-2,9.625524E-3,-3.6149349E-3,-1.841656E-2,9.085817E-2,-4.878312E-2,-7.3901854E-2,-3.621728E-2,1.6619492E-2,-2.2442399E-2,1.8106919E-2,-1.0851861E-2,1.8753378E-1,1.9986449E-2,3.5240278E-2,4.828417E-3,1.0210826E-1,4.6734508E-2,1.819052E-2,3.410678E-2,6.2211166E-4,2.4275389E-2,6.0952723E-2,1.2797664E-1,1.6507007E-1,6.2099457E-2,2.368447E-2,5.3697597E-2,4.35184E-2,1.2023683E-1],"split_indices":[36,16,39,13,39,13,22,39,39,36,39,39,16,16,39,36,3,16,3,39,22,38,39,38,3,36,16,39,14,36,16,0,0,0,0,0,0,0,0,0,0,0,0,0,0,0,0,0,0,0,0,0,0,0,0,0,0,0,0,0,0,0,0],"split_type":[0,0,0,0,0,0,0,0,0,0,0,0,0,0,0,0,0,0,0,0,0,0,0,0,0,0,0,0,0,0,0,0,0,0,0,0,0,0,0,0,0,0,0,0,0,0,0,0,0,0,0,0,0,0,0,0,0,0,0,0,0,0,0],"sum_hessian":[2.34515E7,1.4086768E7,9.364731E6,5.745014E6,8.341754E6,7.105629E6,2.259102E6,1.583705E6,4.161309E6,7.337913E6,1.003841E6,1.163438E6,5.942191E6,5.03237E5,1.755865E6,6.06709E5,9.76996E5,4.09357E6,6.7739E4,5.487614E6,1.850299E6,9.73888E5,2.9953E4,5.23286E5,6.40152E5,2.858909E6,3.083282E6,2.18764E5,2.84473E5,1.579586E6,1.76279E5,2.44404E5,3.62305E5,2.38805E5,7.38191E5,1.712814E6,2.380756E6,5.808E4,9.659E3,1.12304E5,5.37531E6,2.17441E5,1.632858E6,3.52144E5,6.21744E5,2.2778E4,7.175E3,3.91321E5,1.31965E5,1.28274E5,5.11878E5,2.100816E6,7.58093E5,2.738314E6,3.44968E5,2.8504E4,1.9026E5,3.9893E4,2.4458E5,4.26339E5,1.153247E6,5.4578E4,1.21701E5],"tree_param":{"num_deleted":"0","num_feature":"45","num_nodes":"63","size_leaf_vector":"1"}},{"base_weights":[5.479157E-4,-3.5466683E-1,5.347991E-1,-5.777113E-2,-5.033088E-1,3.3880505E-1,1.1506711E0,3.192015E-2,-4.4886506E-1,-5.8507377E-1,6.1449967E-2,8.2089746E-1,2.3497792E-1,1.8850464E0,1.0097716E0,3.942388E-1,-1.06366195E-1,-1.0092769E0,-3.735195E-1,-6.7549694E-1,-3.3779243E-1,-2.1452695E-2,2.909404E0,4.997108E-1,1.0869094E0,4.3551257E-1,7.063551E-2,1.6965704E0,3.0989041E0,8.832449E-1,1.676658E0,1.2519796E-2,3.664142E-2,-6.6114664E-3,5.827337E-2,-5.1875234E-2,5.2136738E-2,-2.3768306E-2,-7.2306343E-3,-2.016819E-2,-3.5670165E-2,1.06949285E-2,-2.1225309E-2,3.0984117E-2,-5.7560825E-3,1.7954344E-1,1.8328933E-2,4.5422683E-3,3.218871E-2,9.3849115E-2,4.4734087E-2,1.7600795E-2,3.282563E-2,2.263668E-4,1.964748E-2,7.51542E-2,1.1675101E-1,1.1662048E-1,2.1145587E-1,2.422726E-2,5.0462794E-2,2.5333747E-2,1.0077395E-1],"categories":[],"categories_nodes":[],"categories_segments":[],"categories_sizes":[],"default_left":[0,0,0,0,0,0,0,0,0,0,0,0,0,0,0,0,0,0,0,0,0,0,0,0,0,0,0,0,0,0,0,0,0,0,0,0,0,0,0,0,0,0,0,0,0,0,0,0,0,0,0,0,0,0,0,0,0,0,0,0,0,0,0],"id":7,"left_children":[1,3,5,7,9,11,13,15,17,19,21,23,25,27,29,31,33,35,37,39,41,43,45,47,49,51,53,55,57,59,61,-1,-1,-1,-1,-1,-1,-1,-1,-1,-1,-1,-1,-1,-1,-1,-1,-1,-1,-1,-1,-1,-1,-1,-1,-1,-1,-1,-1,-1,-1,-1,-1],"loss_changes":[4.452768E6,6.2194925E5,1.1310665E6,1.6492961E5,4.336705E5,3.5579675E5,2.3406175E5,1.9163186E5,3.7035312E4,1.8343275E5,2.80424E5,1.07618125E5,1.927494E5,8.3294E4,1.6014375E5,5.1456266E4,9.105555E4,6.0244453E3,1.8025352E4,6.196525E4,1.05084125E5,6.931044E4,5.8212344E4,3.361133E4,1.04632375E5,4.8608406E4,6.849074E4,3.8927375E4,4.2364875E4,8.014725E4,1.1997881E5,0E0,0E0,0E0,0E0,0E0,0E0,0E0,0E0,0E0,0E0,0E0,0E0,0E0,0E0,0E0,0E0,0E0,0E0,0E0,0E0,0E0,0E0,0E0,0E0,0E0,0E0,0E0,0E0,0E0,0E0,0E0,0E0],"parents":[2147483647,0,0,1,1,2,2,3,3,4,4,5,5,6,6,7,7,8,8,9,9,10,10,11,11,12,12,13,13,14,14,15,15,16,16,17,17,18,18,19,19,20,20,21,21,22,22,23,23,24,24,25,25,26,26,27,27,28,28,29,29,30,30],"right_children":[2,4,6,8,10,12,14,16,18,20,22,24,26,28,30,32,34,36,38,40,42,44,46,48,50,52,54,56,58,60,62,-1,-1,-1,-1,-1,-1,-1,-1,-1,-1,-1,-1,-1,-1,-1,-1,-1,-1,-1,-1,-1,-1,-1,-1,-1,-1,-1,-1,-1,-1,-1,-1],"split_conditions":[2.667E0,1.3103E1,5.667E0,1.0131333E1,4E0,2.4331667E1,8.7E1,1.21536665E1,3.5155556E-1,1.667E0,8E0,4.333E0,1.2285334E1,7.49975E0,1.3943167E1,3.667E0,6E0,1.182226E1,1.8304722E0,1.3398833E1,2.6096666E1,1.9444445E-2,8.333E0,3E0,1.8833334E-2,4.333E0,4E0,5.9443222E1,8.667E0,4E0,3.667E0,1.2519796E-2,3.664142E-2,-6.6114664E-3,5.827337E-2,-5.1875234E-2,5.2136738E-2,-2.3768306E-2,-7.2306343E-3,-2.016819E-2,-3.5670165E-2,1.06949285E-2,-2.1225309E-2,3.0984117E-2,-5.7560825E-3,1.7954344E-1,1.8328933E-2,4.5422683E-3,3.218871E-2,9.3849115E-2,4.4734087E-2,1.7600795E-2,3.282563E-2,2.263668E-4,1.964748E-2,7.51542E-2,1.1675101E-1,1.1662048E-1,2.1145587E-1,2.422726E-2,5.0462794E-2,2.5333747E-2,1.0077395E-1],"split_indices":[36,16,39,2,39,13,11,16,37,36,39,39,16,38,16,39,39,17,38,16,13,3,39,36,3,36,36,3,36,36,36,0,0,0,0,0,0,0,0,0,0,0,0,0,0,0,0,0,0,0,0,0,0,0,0,0,0,0,0,0,0,0,0],"split_type":[0,0,0,0,0,0,0,0,0,0,0,0,0,0,0,0,0,0,0,0,0,0,0,0,0,0,0,0,0,0,0,0,0,0,0,0,0,0,0,0,0,0,0,0,0,0,0,0,0,0,0,0,0,0,0,0,0,0,0,0,0,0,0],"sum_hessian":[2.3463536E7,1.4093202E7,9.370335E6,4.701829E6,9.391373E6,7.108229E6,2.262106E6,3.824697E6,8.77132E5,8.203659E6,1.187714E6,1.259601E6,5.848628E6,3.64142E5,1.897964E6,1.056527E6,2.76817E6,1.03947E5,7.73185E5,6.007057E6,2.196602E6,1.154121E6,3.3593E4,5.70627E5,6.88974E5,2.634248E6,3.21438E6,3.15207E5,4.8935E4,1.595299E6,3.02665E5,7.41515E5,3.15012E5,2.713003E6,5.5167E4,1.02538E5,1.409E3,5.35101E5,2.38084E5,7.34445E5,5.272612E6,2.98361E5,1.898241E6,1.47119E5,1.007002E6,2.6492E4,7.101E3,1.48676E5,4.21951E5,1.34821E5,5.54153E5,1.911911E6,7.22337E5,2.667306E6,5.47074E5,2.41906E5,7.3301E4,2.9165E4,1.977E4,3.8312E5,1.212179E6,6.7969E4,2.34696E5],"tree_param":{"num_deleted":"0","num_feature":"45","num_nodes":"63","size_leaf_vector":"1"}},{"base_weights":[-7.147523E-4,-3.3708644E-1,5.056373E-1,-4.3319297E-1,1.5441227E-2,3.1923115E-1,1.092265E0,-5.7532746E-1,-2.5510138E-1,-1.7593697E-2,2.5771475E0,7.073389E-1,2.0201187E-1,1.4513613E0,7.724964E-1,4.4263683E-2,-5.995706E-1,1.8417755E-1,-3.220786E-1,5.761761E-1,-8.4738776E-2,3.4248447E0,-1.5238725E-1,4.229879E-1,9.5866376E-1,1.3181768E-1,5.4588306E-1,1.3453934E0,2.3702452E0,3.1167632E-1,9.35189E-1,-1.2799354E-2,2.384388E-2,-4.1253712E-2,-2.7605155E-2,4.6599824E-3,5.702656E-2,-1.7518548E-2,-1.1045212E-3,5.5946587E-3,5.2040767E-2,1.5428257E-1,-4.5826756E-3,1.7402922E-1,-1.3622491E-1,9.185404E-2,-6.476276E-2,9.8507926E-2,1.9890076E-2,8.674383E-2,3.8834397E-2,7.169373E-2,6.067733E-3,2.51147E-2,7.665885E-2,1.3531743E-1,6.358677E-2,1.02931395E-1,1.729016E-1,4.594671E-2,6.568987E-3,3.9623152E-2,6.6874266E-2],"categories":[],"categories_nodes":[],"categories_segments":[],"categories_sizes":[],"default_left":[0,0,0,0,0,0,0,0,0,0,0,0,0,0,0,0,0,0,0,0,0,0,0,0,0,0,0,0,0,0,0,0,0,0,0,0,0,0,0,0,0,0,0,0,0,0,0,0,0,0,0,0,0,0,0,0,0,0,0,0,0,0,0],"id":8,"left_children":[1,3,5,7,9,11,13,15,17,19,21,23,25,27,29,31,33,35,37,39,41,43,45,47,49,51,53,55,57,59,61,-1,-1,-1,-1,-1,-1,-1,-1,-1,-1,-1,-1,-1,-1,-1,-1,-1,-1,-1,-1,-1,-1,-1,-1,-1,-1,-1,-1,-1,-1,-1,-1],"loss_changes":[3.9930985E6,4.77256E5,1.02328E6,2.8018725E5,2.5536973E5,3.2306312E5,2.5910375E5,9.2466875E4,1.4454978E5,1.1877759E5,8.889647E4,1.17719375E5,1.316475E5,1.03485E5,8.9486625E4,3.0109377E4,6.3411E4,5.655335E4,3.618203E4,6.5292945E4,5.8676938E4,1.0076594E4,2.0713666E4,3.0113844E4,1.23507625E5,6.1705906E4,3.9787344E4,9.5522125E4,3.7229875E4,3.4099438E4,5.0648688E4,0E0,0E0,0E0,0E0,0E0,0E0,0E0,0E0,0E0,0E0,0E0,0E0,0E0,0E0,0E0,0E0,0E0,0E0,0E0,0E0,0E0,0E0,0E0,0E0,0E0,0E0,0E0,0E0,0E0,0E0,0E0,0E0],"parents":[2147483647,0,0,1,1,2,2,3,3,4,4,5,5,6,6,7,7,8,8,9,9,10,10,11,11,12,12,13,13,14,14,15,15,16,16,17,17,18,18,19,19,20,20,21,21,22,22,23,23,24,24,25,25,26,26,27,27,28,28,29,29,30,30],"right_children":[2,4,6,8,10,12,14,16,18,20,22,24,26,28,30,32,34,36,38,40,42,44,46,48,50,52,54,56,58,60,62,-1,-1,-1,-1,-1,-1,-1,-1,-1,-1,-1,-1,-1,-1,-1,-1,-1,-1,-1,-1,-1,-1,-1,-1,-1,-1,-1,-1,-1,-1,-1,-1],"split_conditions":[2.667E0,3.667E0,5.667E0,1.333E0,8E0,4.0713333E1,1.8818738E5,1.11E1,2.5441668E1,1.8833334E-2,8.333E0,4.333E0,4.333E0,8.1786334E2,4E0,2.667E0,3.33E-1,2.5E0,1.9489334E1,4.667E0,2.1568812E-4,2.333E0,1.3888889E-2,8.6116666E-1,7.4E0,1.1248901E3,3.3578167E1,3.7E0,6.249375E0,8.738889E-2,7E0,-1.2799354E-2,2.384388E-2,-4.1253712E-2,-2.7605155E-2,4.6599824E-3,5.702656E-2,-1.7518548E-2,-1.1045212E-3,5.5946587E-3,5.2040767E-2,1.5428257E-1,-4.5826756E-3,1.7402922E-1,-1.3622491E-1,9.185404E-2,-6.476276E-2,9.8507926E-2,1.9890076E-2,8.674383E-2,3.8834397E-2,7.169373E-2,6.067733E-3,2.51147E-2,7.665885E-2,1.3531743E-1,6.358677E-2,1.02931395E-1,1.729016E-1,4.594671E-2,6.568987E-3,3.9623152E-2,6.6874266E-2],"split_indices":[36,39,39,36,39,13,22,14,13,3,39,39,36,13,36,39,36,38,3,39,17,36,3,38,14,22,3,14,20,3,39,0,0,0,0,0,0,0,0,0,0,0,0,0,0,0,0,0,0,0,0,0,0,0,0,0,0,0,0,0,0,0,0],"split_type":[0,0,0,0,0,0,0,0,0,0,0,0,0,0,0,0,0,0,0,0,0,0,0,0,0,0,0,0,0,0,0,0,0,0,0,0,0,0,0,0,0,0,0,0,0,0,0,0,0,0,0,0,0,0,0,0,0,0,0,0,0,0,0],"sum_hessian":[2.3444332E7,1.4086569E7,9.357763E6,1.1068941E7,3.017628E6,7.101275E6,2.256488E6,6.155913E6,4.913028E6,2.979212E6,3.8416E4,1.647259E6,5.454016E6,1.062878E6,1.19361E6,2.31796E5,5.924117E6,6.49988E5,4.26304E6,3.02668E5,2.676544E6,2.9312E4,9.104E3,7.72854E5,8.74405E5,4.529431E6,9.24585E5,9.52985E5,1.09893E5,3.1145E5,8.8216E5,1.36831E5,9.4965E4,1.030147E6,4.89397E6,5.93529E5,5.6459E4,3.895635E6,3.67405E5,1.51394E5,1.51274E5,5.822E3,2.670722E6,2.905E4,2.62E2,3.321E3,5.783E3,1.2376E4,7.60478E5,1.66059E5,7.08346E5,3.6104E4,4.493327E6,8.85495E5,3.909E4,4.8924E4,9.04061E5,8.5429E4,2.4464E4,7.1298E4,2.40152E5,6.51154E5,2.31006E5],"tree_param":{"num_deleted":"0","num_feature":"45","num_nodes":"63","size_leaf_vector":"1"}},{"base_weights":[3.1982912E-4,-2.1399751E-1,6.82326E-1,1.2067284E-1,-4.074651E-1,1.1908668E0,4.6367648E-1,-4.637718E-1,1.8444745E-1,-4.8275593E-1,-3.753162E-2,2.2936645E0,1.1136976E0,2.2320807E-1,7.9752254E-1,-6.1088645E-1,-1.2384467E-1,3.8006487E-1,-2.0173236E-3,-5.108393E-1,7.4302845E-2,7.056937E-1,-1.1448294E-1,2.5516462E0,6.3550955E-1,1.6963209E0,9.4305694E-1,-1.9685473E-2,4.6445236E-1,6.926097E-1,1.8813962E0,-4.886141E-2,-2.5957821E-2,-1.347733E-3,-2.4675118E-2,3.799638E-2,1.6639618E-2,2.4007875E-2,-4.4724187E-3,-3.769825E-2,-2.3497202E-2,2.1627529E-2,-2.3467578E-2,2.0484349E-2,1.22515276E-1,2.627008E-3,-1.4484006E-2,1.4027064E-1,7.8312494E-2,-6.5398575E-3,6.425675E-2,1.6994609E-2,9.411074E-2,4.4859577E-2,1.0703669E-1,4.2236503E-3,-2.620314E-2,3.5037782E-2,1.70625E-2,3.2469247E-2,8.523855E-2,1.0795388E-1,-5.7006544E-3],"categories":[],"categories_nodes":[],"categories_segments":[],"categories_sizes":[],"default_left":[0,0,0,0,0,0,0,0,0,0,0,0,0,0,0,0,0,0,0,0,0,0,0,0,0,0,0,0,0,0,0,0,0,0,0,0,0,0,0,0,0,0,0,0,0,0,0,0,0,0,0,0,0,0,0,0,0,0,0,0,0,0,0],"id":9,"left_children":[1,3,5,7,9,11,13,15,17,19,21,23,25,27,29,31,33,35,37,39,41,43,45,47,49,51,53,55,57,59,61,-1,-1,-1,-1,-1,-1,-1,-1,-1,-1,-1,-1,-1,-1,-1,-1,-1,-1,-1,-1,-1,-1,-1,-1,-1,-1,-1,-1,-1,-1,-1,-1],"loss_changes":[3.4295785E6,1.1559635E6,6.2382225E5,2.4376498E5,3.1510425E5,1.4355E5,3.149702E5,3.2176875E4,2.1508275E5,1.47056E5,1.0941829E5,4.7186375E4,1.56737E5,1.3364E5,1.8679769E5,1.50895E4,6.9610967E3,5.1673656E4,1.2726906E5,8.897575E4,8.78683E4,9.269301E4,5.0730684E4,2.3858438E4,7.3966187E3,9.005281E4,6.6979875E4,5.970404E4,3.3311062E4,6.5525312E4,8.0329875E4,0E0,0E0,0E0,0E0,0E0,0E0,0E0,0E0,0E0,0E0,0E0,0E0,0E0,0E0,0E0,0E0,0E0,0E0,0E0,0E0,0E0,0E0,0E0,0E0,0E0,0E0,0E0,0E0,0E0,0E0,0E0,0E0],"parents":[2147483647,0,0,1,1,2,2,3,3,4,4,5,5,6,6,7,7,8,8,9,9,10,10,11,11,12,12,13,13,14,14,15,15,16,16,17,17,18,18,19,19,20,20,21,21,22,22,23,23,24,24,25,25,26,26,27,27,28,28,29,29,30,30],"right_children":[2,4,6,8,10,12,14,16,18,20,22,24,26,28,30,32,34,36,38,40,42,44,46,48,50,52,54,56,58,60,62,-1,-1,-1,-1,-1,-1,-1,-1,-1,-1,-1,-1,-1,-1,-1,-1,-1,-1,-1,-1,-1,-1,-1,-1,-1,-1,-1,-1,-1,-1,-1,-1],"split_conditions":[4.667E0,1.29005E1,1.5922536E5,2.5883333E1,2.3445277E0,4.7E0,5.667E0,1.7944444E0,1.222E1,4E0,1.6651135E-3,1.2599261E5,1.0301356E1,3.659339E0,8E0,3.5155556E-1,8.610289E1,1.0767167E1,2.5441668E1,3.335E-1,1.9165E0,2.853895E5,4.32E-1,6E0,4.6665E0,3E0,8.667E0,1.4009441E6,1.1604667E1,8.128796E6,4.4357584E5,-4.886141E-2,-2.5957821E-2,-1.347733E-3,-2.4675118E-2,3.799638E-2,1.6639618E-2,2.4007875E-2,-4.4724187E-3,-3.769825E-2,-2.3497202E-2,2.1627529E-2,-2.3467578E-2,2.0484349E-2,1.22515276E-1,2.627008E-3,-1.4484006E-2,1.4027064E-1,7.8312494E-2,-6.5398575E-3,6.425675E-2,1.6994609E-2,9.411074E-2,4.4859577E-2,1.0703669E-1,4.2236503E-3,-2.620314E-2,3.5037782E-2,1.70625E-2,3.2469247E-2,8.523855E-2,1.0795388E-1,-5.7006544E-3],"split_indices":[39,16,22,10,38,14,39,37,16,39,18,22,16,37,39,37,3,16,13,37,38,22,42,39,37,37,39,22,16,22,22,0,0,0,0,0,0,0,0,0,0,0,0,0,0,0,0,0,0,0,0,0,0,0,0,0,0,0,0,0,0,0,0],"split_type":[0,0,0,0,0,0,0,0,0,0,0,0,0,0,0,0,0,0,0,0,0,0,0,0,0,0,0,0,0,0,0,0,0,0,0,0,0,0,0,0,0,0,0,0,0,0,0,0,0,0,0,0,0,0,0,0,0,0,0,0,0,0,0],"sum_hessian":[2.346362E7,1.7853302E7,5.610317E6,6.540025E6,1.1313277E7,1.68689E6,3.923427E6,6.43434E5,5.896591E6,9.400114E6,1.913163E6,1.10316E5,1.576574E6,2.280671E6,1.642756E6,4.49078E5,1.94356E5,2.877669E6,3.018922E6,8.948965E6,4.51149E5,1.79496E5,1.733667E6,9.5462E4,1.4854E4,3.57143E5,1.219431E6,1.136452E6,1.144219E6,1.497784E6,1.44972E5,8.9923E4,3.59155E5,1.53996E5,4.036E4,3.18476E5,2.559193E6,4.63384E5,2.555538E6,1.288524E6,7.660441E6,2.71947E5,1.79202E5,1.53462E5,2.6034E4,8.87539E5,8.46128E5,7.5908E4,1.9554E4,6.816E3,8.038E3,4.3047E4,3.14096E5,1.17446E6,4.4971E4,9.41936E5,1.94516E5,3.92118E5,7.52101E5,1.436445E6,6.1339E4,1.27262E5,1.771E4],"tree_param":{"num_deleted":"0","num_feature":"45","num_nodes":"63","size_leaf_vector":"1"}},{"base_weights":[6.7230494E-4,-3.0714533E-1,4.634958E-1,-8.232889E-2,-4.619743E-1,2.9515982E-1,9.926892E-1,5.1733935E-1,-1.2383716E-1,-5.341526E-1,6.37323E-2,6.914899E-1,2.0556106E-1,1.3242487E0,6.9646955E-1,1.3546559E0,4.143146E-1,-1.4412427E-1,1.0146039E0,-6.1649686E-1,-2.9043624E-1,-1.6043687E-2,2.509315E0,1.2367362E0,5.764202E-1,1.09522015E-1,4.6671522E-1,1.208965E0,2.0683804E0,2.6608905E-1,8.4927994E-1,1.940904E-1,2.0329414E-2,4.8498347E-2,1.3079855E-2,4.8771928E-4,-1.3480148E-2,-1.502164E-4,8.3234556E-2,-6.453912E-2,-3.0121831E-2,1.7085215E-2,-1.8750353E-2,1.6025735E-2,-1.0355956E-2,1.5701155E-1,1.5173092E-2,1.1242889E-2,8.4128745E-2,1.1723421E-1,2.8158141E-2,1.4010257E-2,-7.603996E-4,6.800294E-2,2.097635E-2,1.22245885E-1,5.7328045E-2,8.600829E-2,1.4211093E-1,4.2718753E-2,4.5362976E-3,7.259369E-2,3.7431803E-2],"categories":[],"categories_nodes":[],"categories_segments":[],"categories_sizes":[],"default_left":[0,0,0,0,0,0,0,0,0,0,0,0,0,0,0,0,0,0,0,0,0,0,0,0,0,0,0,0,0,0,0,0,0,0,0,0,0,0,0,0,0,0,0,0,0,0,0,0,0,0,0,0,0,0,0,0,0,0,0,0,0,0,0],"id":10,"left_children":[1,3,5,7,9,11,13,15,17,19,21,23,25,27,29,31,33,35,37,39,41,43,45,47,49,51,53,55,57,59,61,-1,-1,-1,-1,-1,-1,-1,-1,-1,-1,-1,-1,-1,-1,-1,-1,-1,-1,-1,-1,-1,-1,-1,-1,-1,-1,-1,-1,-1,-1,-1,-1],"loss_changes":[3.342693E6,4.9049075E5,8.348715E5,1.4304453E5,3.166295E5,2.5248712E5,2.22133E5,3.209139E4,1.2413402E5,1.472455E5,1.9653802E5,8.225294E4,1.454488E5,9.1543875E4,7.855994E4,9.7649766E4,2.8110656E4,1.01961586E5,6.2251883E4,5.199075E4,9.905997E4,6.273621E4,4.4285125E4,1.0306578E5,2.5373812E4,9.026547E4,6.572791E4,7.1262375E4,3.8559125E4,3.2290207E4,5.3459562E4,0E0,0E0,0E0,0E0,0E0,0E0,0E0,0E0,0E0,0E0,0E0,0E0,0E0,0E0,0E0,0E0,0E0,0E0,0E0,0E0,0E0,0E0,0E0,0E0,0E0,0E0,0E0,0E0,0E0,0E0,0E0,0E0],"parents":[2147483647,0,0,1,1,2,2,3,3,4,4,5,5,6,6,7,7,8,8,9,9,10,10,11,11,12,12,13,13,14,14,15,15,16,16,17,17,18,18,19,19,20,20,21,21,22,22,23,23,24,24,25,25,26,26,27,27,28,28,29,29,30,30],"right_children":[2,4,6,8,10,12,14,16,18,20,22,24,26,28,30,32,34,36,38,40,42,44,46,48,50,52,54,56,58,60,62,-1,-1,-1,-1,-1,-1,-1,-1,-1,-1,-1,-1,-1,-1,-1,-1,-1,-1,-1,-1,-1,-1,-1,-1,-1,-1,-1,-1,-1,-1,-1,-1],"split_conditions":[2.667E0,1.3320167E1,5.667E0,2.0271568E-3,4E0,3.505338E-1,1.8818738E5,1E0,6E0,1.667E0,8E0,1.8833334E-2,4E0,8.667E0,4E0,1.203E1,7.1E0,1.25535E1,2.5265953E5,6.67E-1,1.4649419E5,2E0,8.333E0,4E0,8.6116666E-1,1.2438666E1,1.3440495E5,3.7E0,1.3346207E1,8.738889E-2,4.333E0,1.940904E-1,2.0329414E-2,4.8498347E-2,1.3079855E-2,4.8771928E-4,-1.3480148E-2,-1.502164E-4,8.3234556E-2,-6.453912E-2,-3.0121831E-2,1.7085215E-2,-1.8750353E-2,1.6025735E-2,-1.0355956E-2,1.5701155E-1,1.5173092E-2,1.1242889E-2,8.4128745E-2,1.1723421E-1,2.8158141E-2,1.4010257E-2,-7.603996E-4,6.800294E-2,2.097635E-2,1.22245885E-1,5.7328045E-2,8.600829E-2,1.4211093E-1,4.2718753E-2,4.5362976E-3,7.259369E-2,3.7431803E-2],"split_indices":[36,16,39,17,39,17,22,36,39,36,39,3,36,39,36,16,14,16,22,39,22,38,39,39,38,16,22,14,16,3,36,0,0,0,0,0,0,0,0,0,0,0,0,0,0,0,0,0,0,0,0,0,0,0,0,0,0,0,0,0,0,0,0],"split_type":[0,0,0,0,0,0,0,0,0,0,0,0,0,0,0,0,0,0,0,0,0,0,0,0,0,0,0,0,0,0,0,0,0,0,0,0,0,0,0,0,0,0,0,0,0,0,0,0,0,0,0,0,0,0,0,0,0,0,0,0,0,0,0],"sum_hessian":[2.3463214E7,1.4091289E7,9.371925E6,5.746785E6,8.344504E6,7.110186E6,2.261739E6,3.72031E5,5.374754E6,7.337132E6,1.007372E6,1.311019E6,5.799167E6,1.067204E6,1.194535E6,4.0756E4,3.31275E5,5.280655E6,9.4099E4,5.48419E6,1.852942E6,9.75552E5,3.182E4,2.28459E5,1.08256E6,4.23994E6,1.559227E6,9.24054E5,1.4315E5,3.13E5,8.81535E5,1.1116E4,2.964E4,7.1416E4,2.59859E5,2.371908E6,2.908747E6,3.6682E4,5.7417E4,1.12015E5,5.372175E6,2.18643E5,1.634299E6,3.53282E5,6.2227E5,2.4742E4,7.078E3,6.9875E4,1.58584E5,8.052E3,1.074508E6,1.790196E6,2.449744E6,7.8225E4,1.481002E6,4.4408E4,8.79646E5,9.8732E4,4.4418E4,7.1874E4,2.41126E5,1.26155E5,7.5538E5],"tree_param":{"num_deleted":"0","num_feature":"45","num_nodes":"63","size_leaf_vector":"1"}},{"base_weights":[-1.6474996E-4,-2.9217535E-1,4.3889093E-1,-8.3456896E-2,-4.4423896E-1,2.8043556E-1,9.3741816E-1,4.841229E-1,-1.2237744E-1,-5.116992E-1,5.3009637E-2,5.976923E-1,1.7711253E-1,1.4903389E0,7.709271E-1,3.2045815E0,4.5692343E-1,-1.4235243E-1,9.883951E-1,-5.905331E-1,-2.7496496E-1,-2.0449858E-2,2.3444548E0,3.6548474E-1,8.043744E-1,4.7264037E-1,9.664598E-2,1.9052968E0,1.1816294E0,6.8242466E-1,1.5715683E0,1.7065622E-1,2.1412166E-2,6.1403513E-2,1.788039E-2,6.537123E-4,-1.3085007E-2,9.33595E-2,1.1973417E-2,-6.204636E-2,-2.884509E-2,1.37542365E-2,-1.8390523E-2,1.51868705E-2,-1.0196892E-2,1.4815025E-1,1.3853571E-2,2.4013476E-2,1.416663E-3,7.722031E-2,3.204412E-2,7.0562735E-2,2.1920836E-2,2.937285E-3,2.598367E-2,6.515731E-2,1.0832077E-1,1.3213328E-1,4.721731E-2,1.5798965E-2,4.0901992E-2,2.8828997E-2,1.0058903E-1],"categories":[],"categories_nodes":[],"categories_segments":[],"categories_sizes":[],"default_left":[0,0,0,0,0,0,0,0,0,0,0,0,0,0,0,0,0,0,0,0,0,0,0,0,0,0,0,0,0,0,0,0,0,0,0,0,0,0,0,0,0,0,0,0,0,0,0,0,0,0,0,0,0,0,0,0,0,0,0,0,0,0,0],"id":11,"left_children":[1,3,5,7,9,11,13,15,17,19,21,23,25,27,29,31,33,35,37,39,41,43,45,47,49,51,53,55,57,59,61,-1,-1,-1,-1,-1,-1,-1,-1,-1,-1,-1,-1,-1,-1,-1,-1,-1,-1,-1,-1,-1,-1,-1,-1,-1,-1,-1,-1,-1,-1,-1,-1],"loss_changes":[3.00789E6,4.4719062E5,7.4025425E5,1.3118781E5,2.7342875E5,2.3309238E5,2.0805812E5,2.8194531E4,1.2330935E5,1.3395025E5,1.6391E5,8.38385E4,1.2755481E5,6.699725E4,1.2308531E5,2.179164E3,2.8896922E4,1.0127041E5,6.4613273E4,4.77345E4,9.1570766E4,5.6124062E4,3.867647E4,3.1836695E4,1.1182106E5,3.6872875E4,6.759447E4,3.5073938E4,1.0397306E5,7.7733E4,7.572884E4,0E0,0E0,0E0,0E0,0E0,0E0,0E0,0E0,0E0,0E0,0E0,0E0,0E0,0E0,0E0,0E0,0E0,0E0,0E0,0E0,0E0,0E0,0E0,0E0,0E0,0E0,0E0,0E0,0E0,0E0,0E0,0E0],"parents":[2147483647,0,0,1,1,2,2,3,3,4,4,5,5,6,6,7,7,8,8,9,9,10,10,11,11,12,12,13,13,14,14,15,15,16,16,17,17,18,18,19,19,20,20,21,21,22,22,23,23,24,24,25,25,26,26,27,27,28,28,29,29,30,30],"right_children":[2,4,6,8,10,12,14,16,18,20,22,24,26,28,30,32,34,36,38,40,42,44,46,48,50,52,54,56,58,60,62,-1,-1,-1,-1,-1,-1,-1,-1,-1,-1,-1,-1,-1,-1,-1,-1,-1,-1,-1,-1,-1,-1,-1,-1,-1,-1,-1,-1,-1,-1,-1,-1],"split_conditions":[2.667E0,1.3358833E1,5.667E0,2.0271568E-3,4E0,7.015219E-1,1.2412622E5,4E0,6E0,1.667E0,8E0,4.333E0,1.1604667E1,1.0420667E1,8E0,2E0,1E0,1.25535E1,2.0055556E0,6.67E-1,1.5644762E5,1.9919E0,8.333E0,2.8335E0,7.4E0,1.1248901E3,4.1702056E0,7.333E0,3.7E0,4E0,1.12915E1,1.7065622E-1,2.1412166E-2,6.1403513E-2,1.788039E-2,6.537123E-4,-1.3085007E-2,9.33595E-2,1.1973417E-2,-6.204636E-2,-2.884509E-2,1.37542365E-2,-1.8390523E-2,1.51868705E-2,-1.0196892E-2,1.4815025E-1,1.3853571E-2,2.4013476E-2,1.416663E-3,7.722031E-2,3.204412E-2,7.0562735E-2,2.1920836E-2,2.937285E-3,2.598367E-2,6.515731E-2,1.0832077E-1,1.3213328E-1,4.721731E-2,1.5798965E-2,4.0901992E-2,2.8828997E-2,1.0058903E-1],"split_indices":[36,16,39,17,39,17,22,14,39,36,39,39,16,16,39,36,36,16,37,39,22,38,39,38,14,22,37,39,14,36,16,0,0,0,0,0,0,0,0,0,0,0,0,0,0,0,0,0,0,0,0,0,0,0,0,0,0,0,0,0,0,0,0],"split_type":[0,0,0,0,0,0,0,0,0,0,0,0,0,0,0,0,0,0,0,0,0,0,0,0,0,0,0,0,0,0,0,0,0,0,0,0,0,0,0,0,0,0,0,0,0,0,0,0,0,0,0,0,0,0,0,0,0,0,0,0,0,0,0],"sum_hessian":[2.3460842E7,1.4089853E7,9.370989E6,5.938639E6,8.151214E6,7.110836E6,2.260153E6,3.81094E5,5.557545E6,7.177468E6,9.73746E5,1.746902E6,5.363934E6,5.23054E5,1.737099E6,3.769E3,3.77325E5,5.459372E6,9.8173E4,5.38442E6,1.793048E6,9.43502E5,3.0244E4,8.22656E5,9.24246E5,1.147932E6,4.216002E6,2.23123E5,2.99931E5,1.564199E6,1.729E5,3.505E3,2.64E2,4.3047E4,3.34278E5,2.371268E6,3.088104E6,4.5168E4,5.3005E4,1.10527E5,5.273893E6,2.58947E5,1.534101E6,3.41007E5,6.02495E5,2.3278E4,6.966E3,6.13713E5,2.08943E5,1.67237E5,7.57009E5,4.0379E4,1.107553E6,3.86934E6,3.46662E5,6.7495E4,1.55628E5,4.1901E4,2.5803E5,4.2252E5,1.141679E6,5.3035E4,1.19865E5],"tree_param":{"num_deleted":"0","num_feature":"45","num_nodes":"63","size_leaf_vector":"1"}},{"base_weights":[-1.3359106E-4,-1.5173274E-1,6.64749E-1,1.4239612E-1,-3.2160065E-1,1.4267019E0,5.611045E-1,5.788749E-1,5.9116468E-2,-4.4099268E-1,-1.3451587E-1,1.2407123E0,2.1875625E0,4.9617374E-1,1.2381462E0,6.324654E-1,-3.8976207E-2,-3.5169908E-1,1.13398425E-1,-1.2722611E-1,-4.7755104E-1,-5.0213594E-2,-4.2060596E-1,1.818099E0,9.3193847E-1,1.8862549E0,3.2299833E0,2.959062E-1,6.093207E-1,9.325119E-1,1.8502859E0,2.9761199E-2,8.992805E-2,1.2889671E-2,-8.975479E-3,-2.7785648E-2,3.725905E-3,1.4863335E-2,-2.3910443E-3,-1.01215495E-2,1.9659078E-2,-3.542333E-2,-2.136183E-2,5.2209705E-2,-3.52048E-3,-2.3428347E-2,-5.579713E-3,1.1925924E-1,6.936964E-2,1.2163002E-2,5.5264987E-2,1.2353555E-1,8.07548E-2,-5.4326195E-2,1.7151594E-1,2.5308138E-2,6.687118E-3,3.5511117E-2,2.0442758E-2,6.799894E-2,2.4245014E-2,1.1439639E-1,4.929538E-2],"categories":[],"categories_nodes":[],"categories_segments":[],"categories_sizes":[],"default_left":[0,0,0,0,0,0,0,0,0,0,0,0,0,0,0,0,0,0,0,0,0,0,0,0,0,0,0,0,0,0,0,0,0,0,0,0,0,0,0,0,0,0,0,0,0,0,0,0,0,0,0,0,0,0,0,0,0,0,0,0,0,0,0],"id":12,"left_children":[1,3,5,7,9,11,13,15,17,19,21,23,25,27,29,31,33,35,37,39,41,43,45,47,49,51,53,55,57,59,61,-1,-1,-1,-1,-1,-1,-1,-1,-1,-1,-1,-1,-1,-1,-1,-1,-1,-1,-1,-1,-1,-1,-1,-1,-1,-1,-1,-1,-1,-1,-1,-1],"loss_changes":[2.364814E6,9.545591E5,3.440145E5,2.5424478E5,2.7051412E5,7.3803875E4,1.6856925E5,3.710747E4,1.3098297E5,8.4802625E4,1.1378793E5,7.472081E4,3.2160594E4,7.9286E4,6.2775938E4,4.4780656E4,3.730736E3,5.960954E4,1.5379397E5,3.0194527E4,7.69295E4,8.054544E4,1.5914328E4,3.5660562E4,3.2605125E4,1.258475E4,1.987386E4,4.3069867E4,4.5223688E4,4.2823938E4,4.2265062E4,0E0,0E0,0E0,0E0,0E0,0E0,0E0,0E0,0E0,0E0,0E0,0E0,0E0,0E0,0E0,0E0,0E0,0E0,0E0,0E0,0E0,0E0,0E0,0E0,0E0,0E0,0E0,0E0,0E0,0E0,0E0,0E0],"parents":[2147483647,0,0,1,1,2,2,3,3,4,4,5,5,6,6,7,7,8,8,9,9,10,10,11,11,12,12,13,13,14,14,15,15,16,16,17,17,18,18,19,19,20,20,21,21,22,22,23,23,24,24,25,25,26,26,27,27,28,28,29,29,30,30],"right_children":[2,4,6,8,10,12,14,16,18,20,22,24,26,28,30,32,34,36,38,40,42,44,46,48,50,52,54,56,58,60,62,-1,-1,-1,-1,-1,-1,-1,-1,-1,-1,-1,-1,-1,-1,-1,-1,-1,-1,-1,-1,-1,-1,-1,-1,-1,-1,-1,-1,-1,-1,-1,-1],"split_conditions":[3.510175E0,1.29005E1,8.7E1,2.6096666E1,1.6665E0,7.445489E1,1.4053833E1,2.2907221E0,2.19E1,2.5441668E1,3.9530556E0,7.4E0,6.249375E0,4E0,5.23345E0,1E-2,1.9666666E-2,1.8335E0,1.222E1,1.5E0,3.335E-1,1.667E0,2.2868279E1,4.1702056E0,1.01E1,5.03335E0,3.8746667E0,1.2066334E1,1.7307222E0,7.193E1,6E0,2.9761199E-2,8.992805E-2,1.2889671E-2,-8.975479E-3,-2.7785648E-2,3.725905E-3,1.4863335E-2,-2.3910443E-3,-1.01215495E-2,1.9659078E-2,-3.542333E-2,-2.136183E-2,5.2209705E-2,-3.52048E-3,-2.3428347E-2,-5.579713E-3,1.1925924E-1,6.936964E-2,1.2163002E-2,5.5264987E-2,1.2353555E-1,8.07548E-2,-5.4326195E-2,1.7151594E-1,2.5308138E-2,6.687118E-3,3.5511117E-2,2.0442758E-2,6.799894E-2,2.4245014E-2,1.1439639E-1,4.929538E-2],"split_indices":[37,16,11,13,37,3,16,3,10,13,3,14,20,37,37,5,2,37,16,37,37,37,3,37,14,37,37,16,3,13,37,0,0,0,0,0,0,0,0,0,0,0,0,0,0,0,0,0,0,0,0,0,0,0,0,0,0,0,0,0,0,0,0],"split_type":[0,0,0,0,0,0,0,0,0,0,0,0,0,0,0,0,0,0,0,0,0,0,0,0,0,0,0,0,0,0,0,0,0,0,0,0,0,0,0,0,0,0,0,0,0,0,0,0,0,0,0,0,0,0,0,0,0,0,0,0,0,0,0],"sum_hessian":[2.3461466E7,1.9105292E7,4.356174E6,6.994394E6,1.2110898E7,5.21593E5,3.834581E6,1.120692E6,5.873702E6,7.392938E6,4.71796E6,4.19143E5,1.0245E5,3.499018E6,3.35563E5,1.031245E6,8.9447E4,6.85523E5,5.188179E6,7.71496E5,6.621442E6,3.644143E6,1.073817E6,1.46041E5,2.73102E5,7.9484E4,2.2966E4,1.263198E6,2.23582E6,2.2382E5,1.11743E5,9.99334E5,3.1911E4,2.8744E4,6.0703E4,4.6361E5,2.21913E5,2.423832E6,2.764347E6,6.74085E5,9.7411E4,1.184625E6,5.436817E6,6.6027E4,3.578116E6,9.29543E5,1.44274E5,6.3034E4,8.3007E4,5.4924E4,2.18178E5,2.5182E4,5.4302E4,1.018E3,2.1948E4,5.50034E5,7.13164E5,1.487233E6,7.48587E5,1.14483E5,1.09337E5,7.418E4,3.7563E4],"tree_param":{"num_deleted":"0","num_feature":"45","num_nodes":"63","size_leaf_vector":"1"}},{"base_weights":[5.179051E-5,-2.6488042E-1,3.988015E-1,-3.4224898E-1,1.8867167E-2,2.541267E-1,8.544077E-1,2.056414E-2,-3.876263E-1,-8.327167E-3,2.1484349E0,5.601587E-1,1.5929815E-1,1.1035203E0,5.44496E-1,-1.4809799E-1,2.638819E-1,-5.945333E-1,-3.1772152E-1,3.214181E-1,-8.476802E-2,2.8853135E0,-2.2457647E-1,3.222461E-1,7.6980805E-1,1.0333814E-1,4.338653E-1,1.0256233E0,1.920916E0,-3.5485804E-2,6.7311287E-1,4.3399513E-2,-1.1665037E-2,-8.012901E-3,2.2454971E-2,-3.5435352E-2,-2.4997158E-2,-1.8517388E-2,-8.086633E-3,8.580089E-2,1.3811019E-2,-6.315924E-3,1.81221E-2,1.4720915E-1,-1.500653E-1,5.3606905E-2,-7.2088E-2,1.0890651E-3,2.17881E-2,7.077847E-2,3.098014E-2,2.8730113E-2,3.9562946E-3,3.168376E-2,1.4813657E-2,1.04930334E-1,4.8808046E-2,8.242428E-2,1.4903568E-1,1.9777434E-2,-2.1801315E-2,2.508831E-2,5.818655E-2],"categories":[],"categories_nodes":[],"categories_segments":[],"categories_sizes":[],"default_left":[0,0,0,0,0,0,0,0,0,0,0,0,0,0,0,0,0,0,0,0,0,0,0,0,0,0,0,0,0,0,0,0,0,0,0,0,0,0,0,0,0,0,0,0,0,0,0,0,0,0,0,0,0,0,0,0,0,0,0,0,0,0,0],"id":13,"left_children":[1,3,5,7,9,11,13,15,17,19,21,23,25,27,29,31,33,35,37,39,41,43,45,47,49,51,53,55,57,59,61,-1,-1,-1,-1,-1,-1,-1,-1,-1,-1,-1,-1,-1,-1,-1,-1,-1,-1,-1,-1,-1,-1,-1,-1,-1,-1,-1,-1,-1,-1,-1,-1],"loss_changes":[2.4769835E6,3.092608E5,6.169426E5,1.822365E5,1.7479008E5,2.0615944E5,1.741525E5,5.049901E4,1.4230312E5,7.511737E4,6.654775E4,8.38205E4,8.332922E4,7.9620875E4,7.498625E4,6.291844E4,3.9575562E4,2.6831688E4,6.0369688E4,3.5349477E4,4.4955047E4,1.0089766E4,1.4241299E4,2.6849469E4,8.664619E4,5.140574E4,2.5243031E4,6.058975E4,3.1399062E4,3.1501996E4,6.916556E4,0E0,0E0,0E0,0E0,0E0,0E0,0E0,0E0,0E0,0E0,0E0,0E0,0E0,0E0,0E0,0E0,0E0,0E0,0E0,0E0,0E0,0E0,0E0,0E0,0E0,0E0,0E0,0E0,0E0,0E0,0E0,0E0],"parents":[2147483647,0,0,1,1,2,2,3,3,4,4,5,5,6,6,7,7,8,8,9,9,10,10,11,11,12,12,13,13,14,14,15,15,16,16,17,17,18,18,19,19,20,20,21,21,22,22,23,23,24,24,25,25,26,26,27,27,28,28,29,29,30,30],"right_children":[2,4,6,8,10,12,14,16,18,20,22,24,26,28,30,32,34,36,38,40,42,44,46,48,50,52,54,56,58,60,62,-1,-1,-1,-1,-1,-1,-1,-1,-1,-1,-1,-1,-1,-1,-1,-1,-1,-1,-1,-1,-1,-1,-1,-1,-1,-1,-1,-1,-1,-1,-1,-1],"split_conditions":[2.667E0,3.667E0,5.667E0,2.5441668E1,8E0,4.1265E1,2.2200388E5,1.4694444E0,6.67E-1,1.6833333E-2,8.333E0,4.333E0,4.333E0,9.004867E2,3.667E0,1E0,2.667E0,3.335E-1,2E0,4.1E0,5.667E0,2.333E0,2.2166668E-2,3E0,7.4E0,1.4362473E5,2.954897E5,3.7E0,6.249375E0,6E0,7E0,4.3399513E-2,-1.1665037E-2,-8.012901E-3,2.2454971E-2,-3.5435352E-2,-2.4997158E-2,-1.8517388E-2,-8.086633E-3,8.580089E-2,1.3811019E-2,-6.315924E-3,1.81221E-2,1.4720915E-1,-1.500653E-1,5.3606905E-2,-7.2088E-2,1.0890651E-3,2.17881E-2,7.077847E-2,3.098014E-2,2.8730113E-2,3.9562946E-3,3.168376E-2,1.4813657E-2,1.04930334E-1,4.8808046E-2,8.242428E-2,1.4903568E-1,1.9777434E-2,-2.1801315E-2,2.508831E-2,5.818655E-2],"split_indices":[36,39,39,13,39,13,22,37,36,2,39,39,36,13,36,39,39,37,36,14,39,36,2,36,14,22,22,14,20,39,39,0,0,0,0,0,0,0,0,0,0,0,0,0,0,0,0,0,0,0,0,0,0,0,0,0,0,0,0,0,0,0,0],"split_type":[0,0,0,0,0,0,0,0,0,0,0,0,0,0,0,0,0,0,0,0,0,0,0,0,0,0,0,0,0,0,0,0,0,0,0,0,0,0,0,0,0,0,0,0,0,0,0,0,0,0,0,0,0,0,0,0,0,0,0,0,0,0,0],"sum_hessian":[2.3447032E7,1.4087316E7,9.359715E6,1.1069131E7,3.018185E6,7.103917E6,2.255798E6,1.230522E6,9.838609E6,2.980132E6,3.8053E4,1.680516E6,5.423401E6,1.250564E6,1.005234E6,7.26754E5,5.03768E5,2.484591E6,7.354018E6,5.60834E5,2.419298E6,2.9036E4,9.017E3,7.872E5,8.93316E5,4.505194E6,9.18207E5,1.141762E6,1.08802E5,1.82459E5,8.22775E5,5.6224E4,6.7053E5,1.53123E5,3.50645E5,1.12575E6,1.358841E6,5.498855E6,1.855163E6,1.7602E4,5.43232E5,2.213631E6,2.05667E5,2.875E4,2.86E2,4.366E3,4.651E3,2.15856E5,5.71344E5,1.68571E5,7.24745E5,2.2015E5,4.285044E6,3.74439E5,5.43768E5,5.0308E4,1.091454E6,8.6559E4,2.2243E4,8.7884E4,9.4575E4,6.09808E5,2.12967E5],"tree_param":{"num_deleted":"0","num_feature":"45","num_nodes":"63","size_leaf_vector":"1"}},{"base_weights":[-1.3461178E-4,-2.5199193E-1,3.789332E-1,-3.2628098E-1,2.0182017E-2,2.4079105E-1,8.1344616E-1,-4.3512455E-1,-1.8982846E-1,-5.20026E-3,2.0121336E0,5.3468525E-1,1.5195486E-1,1.0965884E0,5.650219E-1,9.992892E-2,-4.5617685E-1,1.5887809E-1,-2.429323E-1,5.292397E-1,-6.5873034E-2,2.720834E0,-2.1185742E-1,9.569916E-1,4.2034182E-1,9.7382076E-2,4.1883478E-1,1.022799E0,2.0787988E0,1.9715665E-1,6.949657E-1,-3.2258113E-3,7.287301E-2,-2.7461564E-2,-1.9078415E-2,4.0036715E-3,4.9979668E-2,-9.238962E-3,-1.8480262E-2,3.8355406E-2,-1.3173032E-2,1.3078104E-1,-3.5846063E-3,1.3877022E-1,-1.4264296E-1,8.262241E-2,-6.335737E-2,1.181321E-2,6.4837195E-2,9.241559E-2,1.9860921E-2,6.0579818E-2,4.4128424E-3,1.9029027E-2,6.453482E-2,1.0006157E-1,4.8770923E-2,7.38224E-2,1.6905296E-1,2.65325E-2,-4.130542E-3,3.2464754E-2,9.372214E-2],"categories":[],"categories_nodes":[],"categories_segments":[],"categories_sizes":[],"default_left":[0,0,0,0,0,0,0,0,0,0,0,0,0,0,0,0,0,0,0,0,0,0,0,0,0,0,0,0,0,0,0,0,0,0,0,0,0,0,0,0,0,0,0,0,0,0,0,0,0,0,0,0,0,0,0,0,0,0,0,0,0,0,0],"id":14,"left_children":[1,3,5,7,9,11,13,15,17,19,21,23,25,27,29,31,33,35,37,39,41,43,45,47,49,51,53,55,57,59,61,-1,-1,-1,-1,-1,-1,-1,-1,-1,-1,-1,-1,-1,-1,-1,-1,-1,-1,-1,-1,-1,-1,-1,-1,-1,-1,-1,-1,-1,-1,-1,-1],"loss_changes":[2.2392362E6,2.849305E5,5.619965E5,1.6441488E5,1.5277273E5,1.8547928E5,1.58866E5,6.9365875E4,9.096128E4,9.674538E4,5.9923812E4,7.9623875E4,7.945196E4,7.649525E4,5.750797E4,5.204378E4,4.1134375E4,4.301037E4,3.1402312E4,5.7356547E4,4.1809285E4,8.792922E3,1.8086492E4,8.603134E4,4.284458E4,4.604907E4,3.0887031E4,4.5508E4,5.783847E4,2.9300383E4,4.788547E4,0E0,0E0,0E0,0E0,0E0,0E0,0E0,0E0,0E0,0E0,0E0,0E0,0E0,0E0,0E0,0E0,0E0,0E0,0E0,0E0,0E0,0E0,0E0,0E0,0E0,0E0,0E0,0E0,0E0,0E0,0E0,0E0],"parents":[2147483647,0,0,1,1,2,2,3,3,4,4,5,5,6,6,7,7,8,8,9,9,10,10,11,11,12,12,13,13,14,14,15,15,16,16,17,17,18,18,19,19,20,20,21,21,22,22,23,23,24,24,25,25,26,26,27,27,28,28,29,29,30,30],"right_children":[2,4,6,8,10,12,14,16,18,20,22,24,26,28,30,32,34,36,38,40,42,44,46,48,50,52,54,56,58,60,62,-1,-1,-1,-1,-1,-1,-1,-1,-1,-1,-1,-1,-1,-1,-1,-1,-1,-1,-1,-1,-1,-1,-1,-1,-1,-1,-1,-1,-1,-1,-1,-1],"split_conditions":[2.667E0,3.667E0,5.667E0,1.333E0,8E0,4.0713333E1,1.86517E5,1.11E1,2.5441668E1,1.8833334E-2,8.333E0,2.0777779E-2,4.333E0,7.49975E0,4E0,1.8335E0,6.67E-1,2.5E0,3E0,1.4449089E0,2.1568812E-4,2.333E0,1.3888889E-2,4E0,4.8016666E1,1.1248901E3,3.3578167E1,3.7E0,8.667E0,6E0,8.128796E6,-3.2258113E-3,7.287301E-2,-2.7461564E-2,-1.9078415E-2,4.0036715E-3,4.9979668E-2,-9.238962E-3,-1.8480262E-2,3.8355406E-2,-1.3173032E-2,1.3078104E-1,-3.5846063E-3,1.3877022E-1,-1.4264296E-1,8.262241E-2,-6.335737E-2,1.181321E-2,6.4837195E-2,9.241559E-2,1.9860921E-2,6.0579818E-2,4.4128424E-3,1.9029027E-2,6.453482E-2,1.0006157E-1,4.8770923E-2,7.38224E-2,1.6905296E-1,2.65325E-2,-4.130542E-3,3.2464754E-2,9.372214E-2],"split_indices":[36,39,39,36,39,13,22,14,13,3,39,3,36,38,36,37,36,38,39,17,17,36,3,39,10,22,3,14,36,39,22,0,0,0,0,0,0,0,0,0,0,0,0,0,0,0,0,0,0,0,0,0,0,0,0,0,0,0,0,0,0,0,0],"split_type":[0,0,0,0,0,0,0,0,0,0,0,0,0,0,0,0,0,0,0,0,0,0,0,0,0,0,0,0,0,0,0,0,0,0,0,0,0,0,0,0,0,0,0,0,0,0,0,0,0,0,0,0,0,0,0,0,0,0,0,0,0,0,0],"sum_hessian":[2.3454618E7,1.4091832E7,9.362786E6,1.1070243E7,3.021589E6,7.104196E6,2.25859E6,6.158115E6,4.912128E6,2.983574E6,3.8015E4,1.648963E6,5.455233E6,1.055533E6,1.203057E6,2.33125E5,5.92499E6,6.49193E5,4.262935E6,3.04178E5,2.679396E6,2.8828E4,9.187E3,3.51338E5,1.297625E6,4.529106E6,9.26127E5,9.81782E5,7.3751E4,3.14038E5,8.89019E5,2.07939E5,2.5186E4,2.63656E6,3.28843E6,5.93559E5,5.5634E4,2.921664E6,1.341271E6,2.3397E5,7.0208E4,5.799E3,2.673597E6,2.855E4,2.78E2,3.32E3,5.867E3,1.12562E5,2.38776E5,2.0674E4,1.276951E6,3.6788E4,4.492318E6,8.87204E5,3.8923E4,4.5341E4,9.36441E5,5.0431E4,2.332E4,1.43262E5,1.70776E5,8.55883E5,3.3136E4],"tree_param":{"num_deleted":"0","num_feature":"45","num_nodes":"63","size_leaf_vector":"1"}},{"base_weights":[4.569984E-4,-2.3784256E-1,3.59161E-1,1.6660457E-3,-3.4119117E-1,2.3500079E-1,7.895056E-1,8.862405E-2,-3.5478902E-1,-3.969718E-1,3.5542075E-2,5.402786E-1,1.50595E-1,6.2945384E-1,1.2579615E0,3.970336E-1,-2.4581093E-2,-7.939111E-1,-2.945084E-1,-4.215706E-1,7.171118E-2,-2.0792909E-2,2.0702944E0,3.2822552E-1,7.953064E-1,3.103254E-1,1.7759852E-2,9.246638E-1,4.3330538E-1,1.107955E0,1.9543701E0,1.2887399E-2,3.590966E-2,1.4256531E-2,-5.1965844E-3,-6.092306E-3,-4.3532353E-2,9.408951E-4,-1.755186E-2,-8.236127E-3,-2.2569967E-2,1.0403045E-1,-4.2050146E-6,1.4562847E-2,-7.593661E-3,1.2717809E-1,1.126442E-2,2.2688862E-2,-1.1612887E-2,7.3025525E-2,3.1335384E-2,1.2795664E-2,3.7088532E-2,-2.2737107E-3,2.2843098E-2,4.3273572E-2,1.1479088E-1,2.4978433E-2,1.5286728E-3,7.031968E-2,2.5068E-2,7.624842E-2,1.5568916E-1],"categories":[],"categories_nodes":[],"categories_segments":[],"categories_sizes":[],"default_left":[0,0,0,0,0,0,0,0,0,0,0,0,0,0,0,0,0,0,0,0,0,0,0,0,0,0,0,0,0,0,0,0,0,0,0,0,0,0,0,0,0,0,0,0,0,0,0,0,0,0,0,0,0,0,0,0,0,0,0,0,0,0,0],"id":15,"left_children":[1,3,5,7,9,11,13,15,17,19,21,23,25,27,29,31,33,35,37,39,41,43,45,47,49,51,53,55,57,59,61,-1,-1,-1,-1,-1,-1,-1,-1,-1,-1,-1,-1,-1,-1,-1,-1,-1,-1,-1,-1,-1,-1,-1,-1,-1,-1,-1,-1,-1,-1,-1,-1],"loss_changes":[2.0054184E6,3.489237E5,5.0036875E5,1.3170766E5,2.0693312E5,1.8727075E5,1.5721375E5,1.1925796E5,2.2056914E4,9.888725E4,1.4557528E5,8.513156E4,1.2080559E5,9.049775E4,5.577475E4,4.1026453E4,6.1406438E4,5.186703E3,1.2977871E4,6.243675E4,6.169116E4,5.054751E4,2.9873E4,6.0485156E4,8.015072E4,6.0686625E4,8.631151E4,5.0630312E4,2.5058266E4,7.953256E4,4.709675E4,0E0,0E0,0E0,0E0,0E0,0E0,0E0,0E0,0E0,0E0,0E0,0E0,0E0,0E0,0E0,0E0,0E0,0E0,0E0,0E0,0E0,0E0,0E0,0E0,0E0,0E0,0E0,0E0,0E0,0E0,0E0,0E0],"parents":[2147483647,0,0,1,1,2,2,3,3,4,4,5,5,6,6,7,7,8,8,9,9,10,10,11,11,12,12,13,13,14,14,15,15,16,16,17,17,18,18,19,19,20,20,21,21,22,22,23,23,24,24,25,25,26,26,27,27,28,28,29,29,30,30],"right_children":[2,4,6,8,10,12,14,16,18,20,22,24,26,28,30,32,34,36,38,40,42,44,46,48,50,52,54,56,58,60,62,-1,-1,-1,-1,-1,-1,-1,-1,-1,-1,-1,-1,-1,-1,-1,-1,-1,-1,-1,-1,-1,-1,-1,-1,-1,-1,-1,-1,-1,-1,-1,-1],"split_conditions":[2.667E0,1.3002881E1,4.667E0,1.0131333E1,4E0,1.6199572E5,7E0,1.2066334E1,3.5155556E-1,2.41675E0,8E0,4.667E0,1.2393E1,1.9347673E5,7.49975E0,3.667E0,1.692948E5,2.34905E1,4.679914E0,2.5441668E1,3E0,1.9165E0,8.333E0,3.1003625E0,7.3E0,5.667E0,1.4218833E1,1.6512833E1,6.333E0,5.9957876E0,8.667E0,1.2887399E-2,3.590966E-2,1.4256531E-2,-5.1965844E-3,-6.092306E-3,-4.3532353E-2,9.408951E-4,-1.755186E-2,-8.236127E-3,-2.2569967E-2,1.0403045E-1,-4.2050146E-6,1.4562847E-2,-7.593661E-3,1.2717809E-1,1.126442E-2,2.2688862E-2,-1.1612887E-2,7.3025525E-2,3.1335384E-2,1.2795664E-2,3.7088532E-2,-2.2737107E-3,2.2843098E-2,4.3273572E-2,1.1479088E-1,2.4978433E-2,1.5286728E-3,7.031968E-2,2.5068E-2,7.624842E-2,1.5568916E-1],"split_indices":[36,16,36,2,39,22,39,16,37,38,39,39,16,22,38,39,22,2,17,13,39,38,39,38,14,39,16,16,39,38,36,0,0,0,0,0,0,0,0,0,0,0,0,0,0,0,0,0,0,0,0,0,0,0,0,0,0,0,0,0,0,0,0],"split_type":[0,0,0,0,0,0,0,0,0,0,0,0,0,0,0,0,0,0,0,0,0,0,0,0,0,0,0,0,0,0,0,0,0,0,0,0,0,0,0,0,0,0,0,0,0,0,0,0,0,0,0,0,0,0,0,0,0,0,0,0,0,0,0],"sum_hessian":[2.346094E7,1.4096287E7,9.364654E6,4.249092E6,9.847195E6,7.267801E6,2.096853E6,3.415802E6,8.3329E5,8.577218E6,1.269977E6,1.574208E6,5.693593E6,1.562887E6,5.33966E5,9.17154E5,2.498648E6,1.00578E5,7.32712E5,8.149493E6,4.27725E5,1.235766E6,3.4211E4,8.59527E5,7.14681E5,2.585091E6,3.108502E6,6.23894E5,9.38993E5,4.3934E5,9.4626E4,6.39717E5,2.77437E5,5.09606E5,1.989042E6,1.0308E4,9.027E4,1.11988E5,6.20724E5,8.47958E5,7.301535E6,1.4756E4,4.12969E5,3.65545E5,8.70221E5,2.7226E4,6.985E3,7.02225E5,1.57302E5,1.44507E5,5.70174E5,2.295586E6,2.89505E5,2.717206E6,3.91296E5,5.9808E5,2.5814E4,8.06324E5,1.32669E5,2.94463E5,1.44877E5,6.9057E4,2.5569E4],"tree_param":{"num_deleted":"0","num_feature":"45","num_nodes":"63","size_leaf_vector":"1"}},{"base_weights":[-2.2253075E-4,-2.2794035E-1,3.4232128E-1,-4.622556E-2,-3.5302806E-1,2.2238018E-1,7.566364E-1,2.7638689E-2,-2.8156373E-1,-4.0860602E-1,5.2453477E-2,5.1106685E-1,1.425106E-1,6.07953E-1,1.194376E0,3.3659694E-1,-6.964679E-2,-2.9993966E-1,7.6681346E-1,-4.732979E-1,-2.1674897E-1,-4.9788533E-3,1.8860952E0,3.185366E-1,7.445427E-1,2.9440168E-1,1.6227147E-2,1.2781383E0,5.051874E-1,5.819904E-1,1.376706E0,3.6327954E-2,1.1475828E-2,-4.5782453E-3,4.850949E-2,-8.1832595E-3,-2.0469168E-2,-1.1248916E-2,1.5472932E-1,-5.2490253E-2,-2.3062816E-2,1.8102564E-2,-1.4442215E-2,1.5250551E-2,-9.032481E-3,1.1891999E-1,1.4815548E-2,2.1832885E-2,-1.0347412E-2,6.75741E-2,2.6458858E-2,1.206304E-2,3.578044E-2,-2.257927E-3,2.2041732E-2,6.9681786E-2,-2.6637608E-2,4.2993493E-2,2.2071024E-2,6.6756546E-3,7.636194E-2,6.0747202E-2,1.03997625E-1],"categories":[],"categories_nodes":[],"categories_segments":[],"categories_sizes":[],"default_left":[0,0,0,0,0,0,0,0,0,0,0,0,0,0,0,0,0,0,0,0,0,0,0,0,0,0,0,0,0,0,0,0,0,0,0,0,0,0,0,0,0,0,0,0,0,0,0,0,0,0,0,0,0,0,0,0,0,0,0,0,0,0,0],"id":16,"left_children":[1,3,5,7,9,11,13,15,17,19,21,23,25,27,29,31,33,35,37,39,41,43,45,47,49,51,53,55,57,59,61,-1,-1,-1,-1,-1,-1,-1,-1,-1,-1,-1,-1,-1,-1,-1,-1,-1,-1,-1,-1,-1,-1,-1,-1,-1,-1,-1,-1,-1,-1,-1,-1],"loss_changes":[1.8293575E6,3.20208E5,4.6537888E5,9.984131E4,1.8803231E5,1.6745462E5,1.36835E5,1.3139575E5,2.6433352E4,9.1074875E4,1.0591985E5,7.074616E4,1.0911677E5,1.0808544E5,5.9516812E4,4.3714086E4,7.577326E4,2.011079E4,5.4570004E4,3.8093375E4,7.721318E4,5.3108137E4,2.3904688E4,5.3540906E4,9.297347E4,5.780453E4,8.096247E4,4.364275E4,3.0774781E4,5.1846633E4,4.6719312E4,0E0,0E0,0E0,0E0,0E0,0E0,0E0,0E0,0E0,0E0,0E0,0E0,0E0,0E0,0E0,0E0,0E0,0E0,0E0,0E0,0E0,0E0,0E0,0E0,0E0,0E0,0E0,0E0,0E0,0E0,0E0,0E0],"parents":[2147483647,0,0,1,1,2,2,3,3,4,4,5,5,6,6,7,7,8,8,9,9,10,10,11,11,12,12,13,13,14,14,15,15,16,16,17,17,18,18,19,19,20,20,21,21,22,22,23,23,24,24,25,25,26,26,27,27,28,28,29,29,30,30],"right_children":[2,4,6,8,10,12,14,16,18,20,22,24,26,28,30,32,34,36,38,40,42,44,46,48,50,52,54,56,58,60,62,-1,-1,-1,-1,-1,-1,-1,-1,-1,-1,-1,-1,-1,-1,-1,-1,-1,-1,-1,-1,-1,-1,-1,-1,-1,-1,-1,-1,-1,-1,-1,-1],"split_conditions":[2.667E0,1.3320167E1,4.667E0,6.720222E0,4E0,1.6199572E5,7E0,1.2203834E1,1.182226E1,1.667E0,8E0,4.667E0,1.2393E1,2.0111112E-2,2.7722223E-2,1.4333333E-2,6E0,5.9428744E0,2.333E0,6.67E-1,1.4362473E5,2E0,8.333E0,3.1003625E0,8E1,5.667E0,1.4218833E1,6.667E0,1.3604362E5,8.667E0,1.3807167E1,3.6327954E-2,1.1475828E-2,-4.5782453E-3,4.850949E-2,-8.1832595E-3,-2.0469168E-2,-1.1248916E-2,1.5472932E-1,-5.2490253E-2,-2.3062816E-2,1.8102564E-2,-1.4442215E-2,1.5250551E-2,-9.032481E-3,1.1891999E-1,1.4815548E-2,2.1832885E-2,-1.0347412E-2,6.75741E-2,2.6458858E-2,1.206304E-2,3.578044E-2,-2.257927E-3,2.2041732E-2,6.9681786E-2,-2.6637608E-2,4.2993493E-2,2.2071024E-2,6.6756546E-3,7.636194E-2,6.0747202E-2,1.03997625E-1],"split_indices":[36,16,36,3,39,22,39,16,17,36,39,39,16,3,3,1,39,17,36,39,22,38,39,38,11,39,16,39,22,39,16,0,0,0,0,0,0,0,0,0,0,0,0,0,0,0,0,0,0,0,0,0,0,0,0,0,0,0,0,0,0,0,0],"split_type":[0,0,0,0,0,0,0,0,0,0,0,0,0,0,0,0,0,0,0,0,0,0,0,0,0,0,0,0,0,0,0,0,0,0,0,0,0,0,0,0,0,0,0,0,0,0,0,0,0,0,0,0,0,0,0,0,0,0,0,0,0,0,0],"sum_hessian":[2.3452294E7,1.4087286E7,9.365008E6,5.743587E6,8.343699E6,7.262557E6,2.102451E6,4.371524E6,1.372063E6,7.337916E6,1.005783E6,1.57386E6,5.688697E6,1.569395E6,5.33056E5,1.046872E6,3.324652E6,1.34843E6,2.3633E4,5.487569E6,1.850347E6,9.7524E5,3.0543E4,8.6257E5,7.1129E5,2.582507E6,3.10619E6,2.0865E5,1.360745E6,1.22301E5,4.10755E5,2.25529E5,8.21343E5,3.256023E6,6.8629E4,6.00599E5,7.47831E5,1.6574E4,7.059E3,1.12269E5,5.3753E6,2.04949E5,1.645398E6,3.52758E5,6.22482E5,2.332E4,7.223E3,7.04263E5,1.58307E5,1.86286E5,5.25004E5,2.293195E6,2.89312E5,2.71385E6,3.9234E5,1.96141E5,1.2509E4,2.07356E5,1.153389E6,8.2949E4,3.9352E4,3.33948E5,7.6807E4],"tree_param":{"num_deleted":"0","num_feature":"45","num_nodes":"63","size_leaf_vector":"1"}},{"base_weights":[2.7660995E-5,-1.457517E-1,4.6477404E-1,1.1127166E-1,-2.731733E-1,8.341718E-1,3.059169E-1,-3.4250736E-1,1.7492153E-1,-3.2778E-1,-2.0331834E-2,1.0403103E0,5.76323E-1,2.652621E-1,1.3659658E0,-4.7664836E-1,-1.3725652E-1,2.888155E-1,3.796782E-2,-3.376555E-1,4.1749543E-1,5.9685534E-1,-8.358883E-2,1.6316049E0,8.882738E-1,3.7591818E-1,1.0403798E0,2.666713E-2,4.0825024E-1,1.6085823E0,-3.842901E-1,-5.8311326E-3,-2.8537143E-2,-2.7802659E-3,-2.861326E-2,1.6763395E-2,2.723857E-4,1.9562E-2,-2.1194045E-3,-1.7743485E-2,7.479661E-4,3.0720655E-2,-1.5063772E-2,1.7588232E-2,1.2118765E-1,2.4385885E-3,-1.1981316E-2,1.158821E-1,7.020556E-2,9.368442E-2,3.933916E-2,1.01149E-1,1.6406966E-2,7.3770784E-2,3.7577327E-2,1.7602924E-2,-5.190058E-3,2.3724576E-2,1.0463292E-2,1.9874882E-2,1.0104382E-1,3.0693918E-2,-5.6603428E-2],"categories":[],"categories_nodes":[],"categories_segments":[],"categories_sizes":[],"default_left":[0,0,0,0,0,0,0,0,0,0,0,0,0,0,0,0,0,0,0,0,0,0,0,0,0,0,0,0,0,0,0,0,0,0,0,0,0,0,0,0,0,0,0,0,0,0,0,0,0,0,0,0,0,0,0,0,0,0,0,0,0,0,0],"id":17,"left_children":[1,3,5,7,9,11,13,15,17,19,21,23,25,27,29,31,33,35,37,39,41,43,45,47,49,51,53,55,57,59,61,-1,-1,-1,-1,-1,-1,-1,-1,-1,-1,-1,-1,-1,-1,-1,-1,-1,-1,-1,-1,-1,-1,-1,-1,-1,-1,-1,-1,-1,-1,-1,-1],"loss_changes":[1.5890564E6,5.8472944E5,3.2863888E5,1.7091911E5,1.6480556E5,8.951525E4,1.6877381E5,2.0041797E4,8.094992E4,7.2249125E4,8.277105E4,8.413319E4,6.9584125E4,1.28673E5,6.1425E4,1.4913086E4,1.0219186E4,3.7296156E4,6.689002E4,5.8806375E4,1.8170756E4,8.8246234E4,3.9716023E4,2.986525E4,7.4453E4,4.112125E4,2.8352516E4,5.9999863E4,3.1084344E4,6.3430344E4,1.3147889E4,0E0,0E0,0E0,0E0,0E0,0E0,0E0,0E0,0E0,0E0,0E0,0E0,0E0,0E0,0E0,0E0,0E0,0E0,0E0,0E0,0E0,0E0,0E0,0E0,0E0,0E0,0E0,0E0,0E0,0E0,0E0,0E0],"parents":[2147483647,0,0,1,1,2,2,3,3,4,4,5,5,6,6,7,7,8,8,9,9,10,10,11,11,12,12,13,13,14,14,15,15,16,16,17,17,18,18,19,19,20,20,21,21,22,22,23,23,24,24,25,25,26,26,27,27,28,28,29,29,30,30],"right_children":[2,4,6,8,10,12,14,16,18,20,22,24,26,28,30,32,34,36,38,40,42,44,46,48,50,52,54,56,58,60,62,-1,-1,-1,-1,-1,-1,-1,-1,-1,-1,-1,-1,-1,-1,-1,-1,-1,-1,-1,-1,-1,-1,-1,-1,-1,-1,-1,-1,-1,-1,-1,-1],"split_conditions":[4.667E0,1.2782666E1,1.5922536E5,2.41E1,2.3445277E0,2.5873989E-2,8E0,1.6388888E0,1.222E1,2.673911E0,1.6651135E-3,5E0,6.333E0,3.510175E0,4.4357584E5,1.333E0,8.610289E1,9.6E2,1.6482127E5,4E0,3.4188888E0,3.5853338E5,4.7E-1,7.3E0,4.1E0,4.7E0,9.6E1,2.41675E0,7.738245E5,1.1252833E1,9.82E0,-5.8311326E-3,-2.8537143E-2,-2.7802659E-3,-2.861326E-2,1.6763395E-2,2.723857E-4,1.9562E-2,-2.1194045E-3,-1.7743485E-2,7.479661E-4,3.0720655E-2,-1.5063772E-2,1.7588232E-2,1.2118765E-1,2.4385885E-3,-1.1981316E-2,1.158821E-1,7.020556E-2,9.368442E-2,3.933916E-2,1.01149E-1,1.6406966E-2,7.3770784E-2,3.7577327E-2,1.7602924E-2,-5.190058E-3,2.3724576E-2,1.0463292E-2,1.9874882E-2,1.0104382E-1,3.0693918E-2,-5.6603428E-2],"split_indices":[39,16,22,9,38,6,39,37,16,37,17,39,39,37,22,39,3,11,22,39,3,22,42,14,14,14,11,38,22,16,16,0,0,0,0,0,0,0,0,0,0,0,0,0,0,0,0,0,0,0,0,0,0,0,0,0,0,0,0,0,0,0,0],"split_type":[0,0,0,0,0,0,0,0,0,0,0,0,0,0,0,0,0,0,0,0,0,0,0,0,0,0,0,0,0,0,0,0,0,0,0,0,0,0,0,0,0,0,0,0,0,0,0,0,0,0,0,0,0,0,0,0,0,0,0,0,0,0,0],"sum_hessian":[2.3454548E7,1.7854148E7,5.6004E6,5.917633E6,1.1936516E7,1.684152E6,3.916248E6,7.27937E5,5.189696E6,9.816438E6,2.120078E6,9.35918E5,7.48234E5,3.771604E6,1.44644E5,4.40225E5,2.87712E5,2.833383E6,2.356313E6,9.688065E6,1.28373E5,1.97089E5,1.922989E6,1.91421E5,7.44497E5,5.22567E5,2.25667E5,1.41331E6,2.358294E6,1.27035E5,1.7609E4,9.1217E4,3.49008E5,2.42246E5,4.5466E4,2.434324E6,3.99059E5,4.36648E5,1.919665E6,9.237122E6,4.50943E5,1.00767E5,2.7606E4,1.73779E5,2.331E4,1.040432E6,8.82557E5,4.7662E4,1.43759E5,6.9513E4,6.74984E5,1.4728E4,5.07839E5,9.0039E4,1.35628E5,4.04492E5,1.008818E6,1.769296E6,5.88998E5,3.2265E4,9.477E4,7.542E3,1.0067E4],"tree_param":{"num_deleted":"0","num_feature":"45","num_nodes":"63","size_leaf_vector":"1"}},{"base_weights":[2.8130668E-4,-2.0757954E-1,3.1283838E-1,-4.3762368E-1,-1.4857188E-1,1.983987E-1,6.724816E-1,-1.4685555E-1,-4.8184305E-1,-1.5501325E-1,1.7982777E0,7.550878E-1,1.6381411E-1,6.261158E-1,1.729867E0,7.2355866E-1,-3.406122E-1,-8.778188E-1,-4.6029153E-1,-2.1104206E-1,1.0252135E-2,2.2744918E0,2.8790351E-2,2.073434E-1,1.0196788E0,3.9886877E-1,1.2184365E-1,7.832443E-1,3.8145235E-1,1.3345442E0,2.8362718E0,8.454835E-2,-1.0049509E-2,-2.115508E-2,7.317189E-2,-6.5193124E-2,-2.779285E-2,-7.1849967E-3,-2.5339514E-2,6.4074076E-3,-1.1898898E-2,2.6184795E-2,-2.4431162E-3,1.1629806E-1,-1.5171407E-1,7.4087106E-2,-5.0938617E-2,7.261885E-2,5.0314073E-3,9.038243E-2,2.9641667E-2,8.1516504E-2,1.8841574E-2,3.7189429E-3,1.7762693E-2,8.1448816E-2,3.758406E-2,3.314285E-2,9.963307E-3,1.4839338E-1,4.4316795E-2,-9.126123E-3,1.6084906E-1],"categories":[],"categories_nodes":[],"categories_segments":[],"categories_sizes":[],"default_left":[0,0,0,0,0,0,0,0,0,0,0,0,0,0,0,0,0,0,0,0,0,0,0,0,0,0,0,0,0,0,0,0,0,0,0,0,0,0,0,0,0,0,0,0,0,0,0,0,0,0,0,0,0,0,0,0,0,0,0,0,0,0,0],"id":18,"left_children":[1,3,5,7,9,11,13,15,17,19,21,23,25,27,29,31,33,35,37,39,41,43,45,47,49,51,53,55,57,59,61,-1,-1,-1,-1,-1,-1,-1,-1,-1,-1,-1,-1,-1,-1,-1,-1,-1,-1,-1,-1,-1,-1,-1,-1,-1,-1,-1,-1,-1,-1,-1,-1],"loss_changes":[1.5238326E6,1.9121919E5,3.8557038E5,3.6974438E4,1.4059195E5,1.368256E5,1.1086525E5,6.4020863E4,2.1300062E4,1.0346825E5,3.1153375E4,6.0244016E4,6.600991E4,8.328369E4,4.1537375E4,6.1820543E4,4.6207754E4,1.767032E4,3.4848562E4,7.6243125E4,8.587022E4,7.9808125E3,1.1942075E4,1.7989203E4,9.426966E4,2.7508594E4,6.2898266E4,3.5210688E4,4.3434992E4,5.1231445E4,2.8738734E4,0E0,0E0,0E0,0E0,0E0,0E0,0E0,0E0,0E0,0E0,0E0,0E0,0E0,0E0,0E0,0E0,0E0,0E0,0E0,0E0,0E0,0E0,0E0,0E0,0E0,0E0,0E0,0E0,0E0,0E0,0E0,0E0],"parents":[2147483647,0,0,1,1,2,2,3,3,4,4,5,5,6,6,7,7,8,8,9,9,10,10,11,11,12,12,13,13,14,14,15,15,16,16,17,17,18,18,19,19,20,20,21,21,22,22,23,23,24,24,25,25,26,26,27,27,28,28,29,29,30,30],"right_children":[2,4,6,8,10,12,14,16,18,20,22,24,26,28,30,32,34,36,38,40,42,44,46,48,50,52,54,56,58,60,62,-1,-1,-1,-1,-1,-1,-1,-1,-1,-1,-1,-1,-1,-1,-1,-1,-1,-1,-1,-1,-1,-1,-1,-1,-1,-1,-1,-1,-1,-1,-1,-1],"split_conditions":[2.667E0,6.67E-1,5.667E0,7.1570706E-1,8E0,1.8833334E-2,7.49975E0,1E0,6.67E-1,3.667E0,8.333E0,4E0,3.3258966E-1,2.39E2,8.667E0,4.3833334E-2,6.441127E-1,8.325E-2,1E0,2.7344425E-3,1.9444445E-2,2.333E0,1.3888889E-2,6.722222E-3,2.8335E0,1.074E0,4.333E0,3.7E0,6E0,8.333E0,9E0,8.454835E-2,-1.0049509E-2,-2.115508E-2,7.317189E-2,-6.5193124E-2,-2.779285E-2,-7.1849967E-3,-2.5339514E-2,6.4074076E-3,-1.1898898E-2,2.6184795E-2,-2.4431162E-3,1.1629806E-1,-1.5171407E-1,7.4087106E-2,-5.0938617E-2,7.261885E-2,5.0314073E-3,9.038243E-2,2.9641667E-2,8.1516504E-2,1.8841574E-2,3.7189429E-3,1.7762693E-2,8.1448816E-2,3.758406E-2,3.314285E-2,9.963307E-3,1.4839338E-1,4.4316795E-2,-9.126123E-3,1.6084906E-1],"split_indices":[36,36,39,18,39,3,38,39,39,39,39,39,18,11,36,3,18,38,39,18,3,36,3,3,38,38,36,14,39,39,39,0,0,0,0,0,0,0,0,0,0,0,0,0,0,0,0,0,0,0,0,0,0,0,0,0,0,0,0,0,0,0,0],"split_type":[0,0,0,0,0,0,0,0,0,0,0,0,0,0,0,0,0,0,0,0,0,0,0,0,0,0,0,0,0,0,0,0,0,0,0,0,0,0,0,0,0,0,0,0,0,0,0,0,0,0,0,0,0,0,0,0,0,0,0,0,0,0,0],"sum_hessian":[2.3454984E7,1.4086796E7,9.368187E6,2.875705E6,1.1211091E7,7.106788E6,2.261399E6,3.79604E5,2.496101E6,1.1174123E7,3.6968E4,4.15684E5,6.691104E6,2.166408E6,9.4991E4,6.9114E4,3.1049E5,1.28835E5,2.367266E6,8.34498E6,2.829143E6,2.9128E4,7.84E3,1.35397E5,2.80287E5,1.013726E6,5.677378E6,1.319188E6,8.4722E5,6.999E4,2.5001E4,3.3773E4,3.5341E4,2.96916E5,1.3574E4,5.545E4,7.3385E4,3.03163E5,2.064103E6,6.13939E5,7.731041E6,2.92096E5,2.537047E6,2.885E4,2.78E2,3.284E3,4.556E3,1.0686E4,1.24711E5,9.848E4,1.81807E5,1.7818E4,9.95908E5,4.717967E6,9.59411E5,4.7456E4,1.271732E6,3.32945E5,5.14275E5,1.5067E4,5.4923E4,2.8E3,2.2201E4],"tree_param":{"num_deleted":"0","num_feature":"45","num_nodes":"63","size_leaf_vector":"1"}},{"base_weights":[-5.703767E-4,-1.9730437E-1,2.9527944E-1,-3.770634E-2,-3.1355864E-1,1.9040428E-1,6.576711E-1,-5.3816184E-2,7.763033E-1,-3.612783E-1,3.7901927E-2,5.930989E-1,1.4694302E-1,5.2393556E-1,1.0489664E0,1.5478013E-1,-1.2015345E-1,2.0230844E0,3.440159E-1,-4.2257586E-1,-1.7757502E-1,-1.5482855E-2,1.6498293E0,1.77865E-1,8.685755E-1,2.727934E-1,4.2034693E-2,7.8260446E-1,3.5027444E-1,1.7805812E0,9.296727E-1,2.5130978E-2,3.0214908E-3,-2.1299529E-4,-9.917482E-3,-4.5847993E-2,1.3782719E-1,-4.6504993E-2,2.4660835E-2,-4.7398936E-2,-2.0574553E-2,1.8367259E-2,-1.2324329E-2,1.3153206E-2,-8.837387E-3,9.388416E-2,-5.3829946E-2,-2.2961762E-2,1.9791525E-2,5.8911275E-2,1.154429E-2,1.869752E-2,5.5472213E-3,-1.0872943E-3,2.1626359E-2,3.6218684E-2,9.4481885E-2,2.0616956E-2,-1.3911389E-3,1.7094658E-1,6.621617E-2,3.680068E-2,7.778561E-2],"categories":[],"categories_nodes":[],"categories_segments":[],"categories_sizes":[],"default_left":[0,0,0,0,0,0,0,0,0,0,0,0,0,0,0,0,0,0,0,0,0,0,0,0,0,0,0,0,0,0,0,0,0,0,0,0,0,0,0,0,0,0,0,0,0,0,0,0,0,0,0,0,0,0,0,0,0,0,0,0,0,0,0],"id":19,"left_children":[1,3,5,7,9,11,13,15,17,19,21,23,25,27,29,31,33,35,37,39,41,43,45,47,49,51,53,55,57,59,61,-1,-1,-1,-1,-1,-1,-1,-1,-1,-1,-1,-1,-1,-1,-1,-1,-1,-1,-1,-1,-1,-1,-1,-1,-1,-1,-1,-1,-1,-1,-1,-1],"loss_changes":[1.3652476E6,2.613895E5,3.560493E5,7.785842E4,1.3670275E5,1.2716E5,1.1003006E5,8.056345E4,6.209861E4,8.081075E4,8.384875E4,8.095858E4,8.658191E4,7.039306E4,4.6738812E4,4.610251E4,4.003108E4,6.3975305E4,1.6266402E4,3.1337312E4,6.742393E4,4.2366547E4,1.9410805E4,3.919987E4,8.401556E4,4.881114E4,8.907615E4,4.0573375E4,2.200239E4,5.611122E4,5.5826938E4,0E0,0E0,0E0,0E0,0E0,0E0,0E0,0E0,0E0,0E0,0E0,0E0,0E0,0E0,0E0,0E0,0E0,0E0,0E0,0E0,0E0,0E0,0E0,0E0,0E0,0E0,0E0,0E0,0E0,0E0,0E0,0E0],"parents":[2147483647,0,0,1,1,2,2,3,3,4,4,5,5,6,6,7,7,8,8,9,9,10,10,11,11,12,12,13,13,14,14,15,15,16,16,17,17,18,18,19,19,20,20,21,21,22,22,23,23,24,24,25,25,26,26,27,27,28,28,29,29,30,30],"right_children":[2,4,6,8,10,12,14,16,18,20,22,24,26,28,30,32,34,36,38,40,42,44,46,48,50,52,54,56,58,60,62,-1,-1,-1,-1,-1,-1,-1,-1,-1,-1,-1,-1,-1,-1,-1,-1,-1,-1,-1,-1,-1,-1,-1,-1,-1,-1,-1,-1,-1,-1,-1,-1],"split_conditions":[2.667E0,1.3358833E1,4.667E0,6E0,4E0,1.1795952E5,7E0,6.015167E1,1.6944444E0,1.667E0,8E0,4.333E0,1.2393E1,1.9347673E5,2.0850896E4,1.40810935E-2,1.24822035E1,1.3335E0,7.2777807E-3,6.67E-1,1.4362473E5,1.667E0,8.667E0,3E0,3.329843E-2,4.7198772E5,1.42016945E1,1.5745833E1,6.333E0,7.667E0,1.3807167E1,2.5130978E-2,3.0214908E-3,-2.1299529E-4,-9.917482E-3,-4.5847993E-2,1.3782719E-1,-4.6504993E-2,2.4660835E-2,-4.7398936E-2,-2.0574553E-2,1.8367259E-2,-1.2324329E-2,1.3153206E-2,-8.837387E-3,9.388416E-2,-5.3829946E-2,-2.2961762E-2,1.9791525E-2,5.8911275E-2,1.154429E-2,1.869752E-2,5.5472213E-3,-1.0872943E-3,2.1626359E-2,3.6218684E-2,9.4481885E-2,2.0616956E-2,-1.3911389E-3,1.7094658E-1,6.621617E-2,3.680068E-2,7.778561E-2],"split_indices":[36,16,36,39,39,22,39,13,37,36,39,39,16,22,22,6,16,37,6,39,22,37,39,36,6,22,16,16,39,39,16,0,0,0,0,0,0,0,0,0,0,0,0,0,0,0,0,0,0,0,0,0,0,0,0,0,0,0,0,0,0,0,0],"split_type":[0,0,0,0,0,0,0,0,0,0,0,0,0,0,0,0,0,0,0,0,0,0,0,0,0,0,0,0,0,0,0,0,0,0,0,0,0,0,0,0,0,0,0,0,0,0,0,0,0,0,0,0,0,0,0,0,0,0,0,0,0,0,0],"sum_hessian":[2.345636E7,1.408808E7,9.36828E6,5.937235E6,8.150845E6,7.265631E6,2.102649E6,5.822016E6,1.15219E5,7.176459E6,9.74386E5,7.07761E5,6.55787E6,1.567069E6,5.3558E5,1.404762E6,4.417254E6,2.9661E4,8.5558E4,5.380954E6,1.795505E6,9.43153E5,3.1233E4,2.82279E5,4.25482E5,2.981359E6,3.576511E6,6.29466E5,9.37603E5,7.508E4,4.605E5,2.99732E5,1.10503E6,1.779655E6,2.637599E6,5.922E3,2.3739E4,8.967E3,7.6591E4,1.11175E5,5.269779E6,2.0157E5,1.593935E6,3.45823E5,5.9733E5,2.8825E4,2.408E3,7.1955E4,2.10324E5,2.86406E5,1.39076E5,1.83467E6,1.146689E6,3.074366E6,5.02145E5,5.98015E5,3.1451E4,8.05397E5,1.32206E5,1.635E4,5.873E4,3.51709E5,1.08791E5],"tree_param":{"num_deleted":"0","num_feature":"45","num_nodes":"63","size_leaf_vector":"1"}},{"base_weights":[5.491157E-4,-1.8737091E-1,2.82958E-1,-3.5873827E-2,-2.9769093E-1,1.8138447E-1,6.328301E-1,6.7971057E-1,-5.7033118E-2,-4.8559391E-1,-2.282217E-1,5.614596E-1,1.4038338E-1,9.7076654E-1,4.8097843E-1,3.3762652E-1,1.3259219E0,-5.184755E-4,-2.5993758E-1,-1.7206267E-1,-5.3616554E-1,-1.3093677E-1,-3.299055E-1,1.1391293E0,3.9873898E-1,2.594464E-1,4.098643E-2,1.6848035E0,8.677384E-1,4.0498945E-1,1.2693108E0,5.703927E-2,4.831515E-3,5.295384E-2,1.5214293E-1,1.975873E-2,-3.4277139E-3,-1.369941E-2,5.3984966E-2,7.1580797E-3,-2.239512E-2,6.115817E-2,-2.7142538E-2,-1.1397704E-2,6.6476115E-3,-1.7671313E-2,6.4226645E-3,1.8526107E-2,7.880691E-2,5.5047674E-3,3.643384E-2,1.7899541E-2,5.0468547E-3,-1.0512288E-3,2.0994848E-2,6.395553E-2,1.4940937E-1,5.630521E-2,2.782397E-2,1.821299E-2,5.0196778E-2,7.239172E-2,9.396181E-3],"categories":[],"categories_nodes":[],"categories_segments":[],"categories_sizes":[],"default_left":[0,0,0,0,0,0,0,0,0,0,0,0,0,0,0,0,0,0,0,0,0,0,0,0,0,0,0,0,0,0,0,0,0,0,0,0,0,0,0,0,0,0,0,0,0,0,0,0,0,0,0,0,0,0,0,0,0,0,0,0,0,0,0],"id":20,"left_children":[1,3,5,7,9,11,13,15,17,19,21,23,25,27,29,31,33,35,37,39,41,43,45,47,49,51,53,55,57,59,61,-1,-1,-1,-1,-1,-1,-1,-1,-1,-1,-1,-1,-1,-1,-1,-1,-1,-1,-1,-1,-1,-1,-1,-1,-1,-1,-1,-1,-1,-1,-1,-1],"loss_changes":[1.2454649E6,2.3551319E5,3.332273E5,8.990328E4,1.0643575E5,1.1324509E5,1.0826169E5,3.76954E4,6.613182E4,3.4896062E4,5.8888625E4,6.651231E4,7.762727E4,4.8113812E4,8.719797E4,2.1582645E4,2.7032594E4,1.21435055E5,2.364904E4,2.6580473E4,2.2292E4,7.788865E4,3.1380125E4,5.223303E4,5.2577938E4,4.661772E4,8.399936E4,4.3598188E4,4.596653E4,3.238711E4,2.4704984E4,0E0,0E0,0E0,0E0,0E0,0E0,0E0,0E0,0E0,0E0,0E0,0E0,0E0,0E0,0E0,0E0,0E0,0E0,0E0,0E0,0E0,0E0,0E0,0E0,0E0,0E0,0E0,0E0,0E0,0E0,0E0,0E0],"parents":[2147483647,0,0,1,1,2,2,3,3,4,4,5,5,6,6,7,7,8,8,9,9,10,10,11,11,12,12,13,13,14,14,15,15,16,16,17,17,18,18,19,19,20,20,21,21,22,22,23,23,24,24,25,25,26,26,27,27,28,28,29,29,30,30],"right_children":[2,4,6,8,10,12,14,16,18,20,22,24,26,28,30,32,34,36,38,40,42,44,46,48,50,52,54,56,58,60,62,-1,-1,-1,-1,-1,-1,-1,-1,-1,-1,-1,-1,-1,-1,-1,-1,-1,-1,-1,-1,-1,-1,-1,-1,-1,-1,-1,-1,-1,-1,-1,-1],"split_conditions":[2.667E0,1.3358833E1,4.667E0,1.25E-2,6.67E-1,1.1795952E5,1.4649419E5,2.1779444E0,7.8273335E0,1.6340608E5,4.32E-1,7.3E0,1.2393E1,2.0850896E4,1.3943167E1,6.67E-1,6.476667E1,1.1914E1,1.2756696E1,5E-1,8.3495677E-4,3.362E2,9.922E2,3.352E0,3.1606103E-3,4.7198772E5,1.42016945E1,6.249375E0,4.6720557E0,4.917158E6,5.6154575E0,5.703927E-2,4.831515E-3,5.295384E-2,1.5214293E-1,1.975873E-2,-3.4277139E-3,-1.369941E-2,5.3984966E-2,7.1580797E-3,-2.239512E-2,6.115817E-2,-2.7142538E-2,-1.1397704E-2,6.6476115E-3,-1.7671313E-2,6.4226645E-3,1.8526107E-2,7.880691E-2,5.5047674E-3,3.643384E-2,1.7899541E-2,5.0468547E-3,-1.0512288E-3,2.0994848E-2,6.395553E-2,1.4940937E-1,5.630521E-2,2.782397E-2,1.821299E-2,5.0196778E-2,7.239172E-2,9.396181E-3],"split_indices":[36,16,36,3,36,22,22,37,3,22,42,14,16,22,16,36,10,16,18,38,18,19,15,37,18,22,16,20,38,22,18,0,0,0,0,0,0,0,0,0,0,0,0,0,0,0,0,0,0,0,0,0,0,0,0,0,0,0,0,0,0,0,0],"split_type":[0,0,0,0,0,0,0,0,0,0,0,0,0,0,0,0,0,0,0,0,0,0,0,0,0,0,0,0,0,0,0,0,0,0,0,0,0,0,0,0,0,0,0,0,0,0,0,0,0,0,0,0,0,0,0,0,0,0,0,0,0,0,0],"sum_hessian":[2.3468212E7,1.4091482E7,9.376729E6,5.93763E6,8.153852E6,7.267005E6,2.109724E6,1.70526E5,5.767104E6,2.200861E6,5.952991E6,7.076E5,6.559405E6,6.54084E5,1.45564E6,1.11504E5,5.9022E4,4.510739E6,1.256365E6,3.05688E5,1.895173E6,3.042305E6,2.910686E6,1.5551E5,5.5209E5,2.984456E6,3.574949E6,8.2471E4,5.71613E5,1.327668E6,1.27972E5,2.5733E4,8.5771E4,5.1087E4,7.935E3,6.61789E5,3.84895E6,1.243327E6,1.3038E4,1.4266E5,1.63028E5,7.172E3,1.888001E6,2.224486E6,8.17819E5,2.768615E6,1.42071E5,5.6371E4,9.9139E4,2.94475E5,2.57615E5,1.840329E6,1.144127E6,3.072172E6,5.02777E5,6.2899E4,1.9572E4,3.12341E5,2.59272E5,1.243137E6,8.4531E4,1.09838E5,1.8134E4],"tree_param":{"num_deleted":"0","num_feature":"45","num_nodes":"63","size_leaf_vector":"1"}},{"base_weights":[9.85554E-4,-1.4160754E-1,3.3031428E-1,1.07011385E-1,-2.2659247E-1,6.442485E-1,2.2473966E-1,-3.489162E-1,1.777896E-1,-2.7553275E-1,2.8333558E-2,4.9738795E-2,7.163014E-1,1.9169426E-1,1.2805594E0,-7.8066975E-1,-2.7192307E-1,7.306924E-1,1.401094E-1,-2.838305E-1,3.3218715E-1,5.1990914E-1,-6.438654E-2,1.6353637E0,-2.6333722E-1,1.6540514E0,6.548705E-1,3.6856607E-1,5.8011837E-2,2.6657736E-1,1.6552697E0,-3.0102676E-2,-4.7002934E-2,2.123092E-2,-1.7318456E-2,1.1798128E-2,4.494301E-2,3.1242335E-2,5.1067793E-3,-8.08511E-3,-1.633693E-2,1.06308006E-1,1.30131515E-2,8.7051414E-2,1.4481691E-2,-2.1443873E-4,-1.4910641E-2,2.2002473E-3,1.826684E-1,-4.720713E-2,8.42652E-4,1.1733105E-1,5.7247665E-2,7.295784E-2,2.9051188E-2,2.240112E-2,1.1971369E-2,-1.2191809E-3,1.4216937E-2,-5.963335E-2,2.1503342E-2,9.263146E-2,-6.3869104E-2],"categories":[],"categories_nodes":[],"categories_segments":[],"categories_sizes":[],"default_left":[0,0,0,0,0,0,0,0,0,0,0,0,0,0,0,0,0,0,0,0,0,0,0,0,0,0,0,0,0,0,0,0,0,0,0,0,0,0,0,0,0,0,0,0,0,0,0,0,0,0,0,0,0,0,0,0,0,0,0,0,0,0,0],"id":21,"left_children":[1,3,5,7,9,11,13,15,17,19,21,23,25,27,29,31,33,35,37,39,41,43,45,47,49,51,53,55,57,59,61,-1,-1,-1,-1,-1,-1,-1,-1,-1,-1,-1,-1,-1,-1,-1,-1,-1,-1,-1,-1,-1,-1,-1,-1,-1,-1,-1,-1,-1,-1,-1,-1],"loss_changes":[1.1020472E6,3.4602522E5,2.3501619E5,1.3462903E5,1.522705E5,7.644131E4,1.8513872E5,1.8635688E4,7.523682E4,5.16335E4,8.959512E4,9.5762055E4,9.1684E4,1.21659766E5,6.1185562E4,2.413582E3,2.4672309E4,1.916882E4,6.2234023E4,5.29335E4,1.7794297E4,8.771184E4,2.3239604E4,1.0214637E5,3.07302E4,3.4492844E4,8.8717625E4,2.2726281E4,5.4648227E4,1.0369046E4,6.806434E4,0E0,0E0,0E0,0E0,0E0,0E0,0E0,0E0,0E0,0E0,0E0,0E0,0E0,0E0,0E0,0E0,0E0,0E0,0E0,0E0,0E0,0E0,0E0,0E0,0E0,0E0,0E0,0E0,0E0,0E0,0E0,0E0],"parents":[2147483647,0,0,1,1,2,2,3,3,4,4,5,5,6,6,7,7,8,8,9,9,10,10,11,11,12,12,13,13,14,14,15,15,16,16,17,17,18,18,19,19,20,20,21,21,22,22,23,23,24,24,25,25,26,26,27,27,28,28,29,29,30,30],"right_children":[2,4,6,8,10,12,14,16,18,20,22,24,26,28,30,32,34,36,38,40,42,44,46,48,50,52,54,56,58,60,62,-1,-1,-1,-1,-1,-1,-1,-1,-1,-1,-1,-1,-1,-1,-1,-1,-1,-1,-1,-1,-1,-1,-1,-1,-1,-1,-1,-1,-1,-1,-1,-1],"split_conditions":[4.333E0,1.2567166E1,1.5224181E5,2.19E1,2.3445277E0,2.3335E0,8E0,3.5155556E-1,1.15E-2,2.673911E0,2.4331667E1,1.1665E0,1.1248901E3,1.2236834E1,1.12915E1,1.333E0,1.333E0,2.667E0,1.0767167E1,2.2616548E5,7.2777807E-3,3.333E0,2.5655334E2,1.167E0,4.667E0,5.24975E0,2.74975E0,4.7198772E5,5.667E0,8.333E0,4.5036247E5,-3.0102676E-2,-4.7002934E-2,2.123092E-2,-1.7318456E-2,1.1798128E-2,4.494301E-2,3.1242335E-2,5.1067793E-3,-8.08511E-3,-1.633693E-2,1.06308006E-1,1.30131515E-2,8.7051414E-2,1.4481691E-2,-2.1443873E-4,-1.4910641E-2,2.2002473E-3,1.826684E-1,-4.720713E-2,8.42652E-4,1.1733105E-1,5.7247665E-2,7.295784E-2,2.9051188E-2,2.240112E-2,1.1971369E-2,-1.2191809E-3,1.4216937E-2,-5.963335E-2,2.1503342E-2,9.263146E-2,-6.3869104E-2],"split_indices":[39,16,22,10,38,37,39,37,2,37,13,38,22,16,16,39,39,39,16,22,6,39,13,37,39,38,38,22,39,39,22,0,0,0,0,0,0,0,0,0,0,0,0,0,0,0,0,0,0,0,0,0,0,0,0,0,0,0,0,0,0,0,0],"split_type":[0,0,0,0,0,0,0,0,0,0,0,0,0,0,0,0,0,0,0,0,0,0,0,0,0,0,0,0,0,0,0,0,0,0,0,0,0,0,0,0,0,0,0,0,0,0,0,0,0,0,0,0,0,0,0,0,0,0,0,0,0,0,0],"sum_hessian":[2.346778E7,1.6376895E7,7.090884E6,4.171981E6,1.2204914E7,1.784505E6,5.306379E6,5.60625E5,3.611356E6,1.0239207E7,1.965707E6,1.92899E5,1.591606E6,5.145342E6,1.61037E5,8.484E4,4.75785E5,2.30407E5,3.380949E6,1.0101287E7,1.3792E5,3.1193E5,1.653777E6,3.1805E4,1.61094E5,9.7849E4,1.493757E6,2.214882E6,2.93046E6,4.3454E4,1.17583E5,4.0014E4,4.4826E4,4.594E4,4.29845E5,5.8453E4,1.71954E5,2.45615E5,3.135334E6,2.626256E6,7.475031E6,5.313E3,1.32607E5,4.9487E4,2.62443E5,1.315637E6,3.3814E5,1.7784E4,1.4021E4,4.6967E4,1.14127E5,4.145E4,5.6399E4,1.25613E5,1.368144E6,1.371202E6,8.4368E5,2.148346E6,7.82114E5,4.376E3,3.9078E4,1.1017E5,7.413E3],"tree_param":{"num_deleted":"0","num_feature":"45","num_nodes":"63","size_leaf_vector":"1"}},{"base_weights":[-1.6447039E-4,-1.7035021E-1,2.5600782E-1,-2.221952E-3,-2.5437778E-1,1.1616129E-1,4.683323E-1,3.138643E-1,-5.4606624E-2,-2.6100567E-1,1.5601331E0,3.7248063E-1,4.9610905E-2,3.854504E-1,8.978371E-1,3.0774685E-2,4.8597398E-1,-1.2060993E-2,-3.8440886E-1,-4.2540723E-1,-2.0494346E-1,1.9291232E0,1.0591472E-1,5.065942E-1,1.0498726E-1,8.4367496E-1,3.5294294E-2,9.200561E-1,3.4668353E-1,7.590953E-1,1.5556585E0,-6.1595733E-3,2.2720983E-2,9.825175E-2,1.7540116E-2,1.9743277E-2,-3.3933688E-3,-2.131719E-2,1.3632262E-2,-7.2364556E-3,-2.439846E-2,-5.269432E-3,-1.5275039E-2,9.902861E-2,-1.535373E-1,5.086978E-2,-6.28313E-2,6.627388E-2,2.2481173E-2,-4.1007735E-3,1.7253922E-2,9.4986975E-2,1.4857419E-2,1.1160559E-3,4.6153598E-2,3.8790572E-2,8.5243315E-2,-2.9842968E-3,1.9440508E-2,2.819932E-2,6.334051E-2,6.301736E-2,1.1911497E-1],"categories":[],"categories_nodes":[],"categories_segments":[],"categories_sizes":[],"default_left":[0,0,0,0,0,0,0,0,0,0,0,0,0,0,0,0,0,0,0,0,0,0,0,0,0,0,0,0,0,0,0,0,0,0,0,0,0,0,0,0,0,0,0,0,0,0,0,0,0,0,0,0,0,0,0,0,0,0,0,0,0,0,0],"id":22,"left_children":[1,3,5,7,9,11,13,15,17,19,21,23,25,27,29,31,33,35,37,39,41,43,45,47,49,51,53,55,57,59,61,-1,-1,-1,-1,-1,-1,-1,-1,-1,-1,-1,-1,-1,-1,-1,-1,-1,-1,-1,-1,-1,-1,-1,-1,-1,-1,-1,-1,-1,-1,-1,-1],"loss_changes":[1.0226521E6,1.9910988E5,2.7801788E5,7.7766664E4,1.1301619E5,9.629408E4,1.3235588E5,3.253214E4,5.6531992E4,8.62965E4,1.8351172E4,4.1742125E4,5.094678E4,6.4591812E4,5.4886406E4,1.646747E4,8.301686E4,8.1038516E4,1.2684734E4,4.180872E4,6.989772E4,7.035336E3,8.604175E3,3.615367E4,1.7445926E4,4.58067E4,5.070045E4,2.3850516E4,4.9746938E4,4.9198125E4,2.5561812E4,0E0,0E0,0E0,0E0,0E0,0E0,0E0,0E0,0E0,0E0,0E0,0E0,0E0,0E0,0E0,0E0,0E0,0E0,0E0,0E0,0E0,0E0,0E0,0E0,0E0,0E0,0E0,0E0,0E0,0E0,0E0,0E0],"parents":[2147483647,0,0,1,1,2,2,3,3,4,4,5,5,6,6,7,7,8,8,9,9,10,10,11,11,12,12,13,13,14,14,15,15,16,16,17,17,18,18,19,19,20,20,21,21,22,22,23,23,24,24,25,25,26,26,27,27,28,28,29,29,30,30],"right_children":[2,4,6,8,10,12,14,16,18,20,22,24,26,28,30,32,34,36,38,40,42,44,46,48,50,52,54,56,58,60,62,-1,-1,-1,-1,-1,-1,-1,-1,-1,-1,-1,-1,-1,-1,-1,-1,-1,-1,-1,-1,-1,-1,-1,-1,-1,-1,-1,-1,-1,-1,-1,-1],"split_conditions":[2.667E0,1.3103E1,4E0,1.8166667E-2,8E0,1.6199572E5,7E0,2.667E0,8.1786334E2,6.67E-1,8.333E0,1.29395E1,8.7E0,7.4E0,9.998E1,2E0,6.67E-1,1.1632167E1,4.456449E6,1E0,4.32E-1,1.5114667E1,1.333E0,5.7562307E-4,1.3881333E1,3.333E0,1.6029074E1,1.5868571E1,4.333E0,1.3793E1,6.249375E0,-6.1595733E-3,2.2720983E-2,9.825175E-2,1.7540116E-2,1.9743277E-2,-3.3933688E-3,-2.131719E-2,1.3632262E-2,-7.2364556E-3,-2.439846E-2,-5.269432E-3,-1.5275039E-2,9.902861E-2,-1.535373E-1,5.086978E-2,-6.28313E-2,6.627388E-2,2.2481173E-2,-4.1007735E-3,1.7253922E-2,9.4986975E-2,1.4857419E-2,1.1160559E-3,4.6153598E-2,3.8790572E-2,8.5243315E-2,-2.9842968E-3,1.9440508E-2,2.819932E-2,6.334051E-2,6.301736E-2,1.1911497E-1],"split_indices":[36,16,36,2,39,22,39,39,13,36,39,16,14,14,41,36,36,16,22,39,42,16,36,17,16,39,16,16,39,16,20,0,0,0,0,0,0,0,0,0,0,0,0,0,0,0,0,0,0,0,0,0,0,0,0,0,0,0,0,0,0,0,0],"split_type":[0,0,0,0,0,0,0,0,0,0,0,0,0,0,0,0,0,0,0,0,0,0,0,0,0,0,0,0,0,0,0,0,0,0,0,0,0,0,0,0,0,0,0,0,0,0,0,0,0,0,0,0,0,0,0,0,0,0,0,0,0,0,0],"sum_hessian":[2.3457004E7,1.409387E7,9.363133E6,4.696596E6,9.397274E6,5.645051E6,3.718082E6,6.67702E5,4.028894E6,9.363076E6,3.4198E4,1.163563E6,4.481488E6,3.116663E6,6.01419E5,2.52458E5,4.15244E5,3.568543E6,4.60351E5,2.380951E6,6.982125E6,2.7276E4,6.922E3,7.74998E5,3.88565E5,7.9365E4,4.402123E6,2.10719E5,2.905944E6,4.96672E5,1.04747E5,1.85165E5,6.7293E4,3.4768E4,3.80476E5,4.3037E5,3.138173E6,4.32734E5,2.7617E4,4.33975E5,1.946976E6,3.508555E6,3.47357E6,2.7E4,2.76E2,4.148E3,2.774E3,5.0406E4,7.24592E5,2.18433E5,1.70132E5,2.7063E4,5.2302E4,4.338724E6,6.3399E4,1.78008E5,3.2711E4,2.72951E5,2.632993E6,3.58797E5,1.37875E5,7.7182E4,2.7565E4],"tree_param":{"num_deleted":"0","num_feature":"45","num_nodes":"63","size_leaf_vector":"1"}},{"base_weights":[9.116842E-5,-1.2899612E-1,2.984856E-1,5.4901183E-2,-2.2561096E-1,5.85E-1,2.0232278E-1,1.2087561E-1,-2.1129212E-1,-1.408474E-1,-3.151895E-1,1.3501545E0,5.348567E-1,1.7245243E-1,1.1591833E0,2.8339636E-1,2.450665E-2,-3.2458025E-1,-3.9056882E-2,-2.640111E-1,-2.5714023E-2,-3.3222848E-1,8.679545E-2,1.5477446E0,-3.755189E-2,9.32776E-1,4.1710538E-1,3.3062452E-1,5.3306185E-2,1.9882372E-1,1.511382E0,3.1113425E-2,1.0714981E-2,2.0637667E-2,-4.1288702E-4,-2.5299458E-2,-9.647827E-3,-4.5750835E-3,5.657936E-2,-4.3948563E-3,-1.6707392E-2,6.772657E-3,-8.696082E-3,-9.02177E-4,-1.7678434E-2,-1.7818792E-2,6.7118565E-3,8.907378E-2,2.8644666E-2,-7.138545E-2,1.6190786E-2,4.4363705E-3,5.374071E-2,1.8584382E-2,6.328643E-2,2.0228243E-2,1.0507557E-2,-1.1702388E-3,1.3162029E-2,-6.081558E-2,1.8095275E-2,8.4865145E-2,-6.3316405E-2],"categories":[],"categories_nodes":[],"categories_segments":[],"categories_sizes":[],"default_left":[0,0,0,0,0,0,0,0,0,0,0,0,0,0,0,0,0,0,0,0,0,0,0,0,0,0,0,0,0,0,0,0,0,0,0,0,0,0,0,0,0,0,0,0,0,0,0,0,0,0,0,0,0,0,0,0,0,0,0,0,0,0,0],"id":23,"left_children":[1,3,5,7,9,11,13,15,17,19,21,23,25,27,29,31,33,35,37,39,41,43,45,47,49,51,53,55,57,59,61,-1,-1,-1,-1,-1,-1,-1,-1,-1,-1,-1,-1,-1,-1,-1,-1,-1,-1,-1,-1,-1,-1,-1,-1,-1,-1,-1,-1,-1,-1,-1,-1],"loss_changes":[9.03452E5,2.908863E5,1.9514138E5,9.903061E4,8.149669E4,6.8283875E4,1.515646E5,7.0775336E4,2.1853438E4,7.8201234E4,3.5742812E4,3.0014219E4,7.826341E4,9.691055E4,5.429547E4,3.9386438E4,3.6086215E4,1.6131609E4,2.728298E4,3.2911656E4,6.808353E4,3.3565188E4,4.4615596E3,2.182914E4,6.8566714E3,4.5726156E4,4.967711E4,1.9680156E4,4.7233977E4,9.9428955E3,6.066325E4,0E0,0E0,0E0,0E0,0E0,0E0,0E0,0E0,0E0,0E0,0E0,0E0,0E0,0E0,0E0,0E0,0E0,0E0,0E0,0E0,0E0,0E0,0E0,0E0,0E0,0E0,0E0,0E0,0E0,0E0,0E0,0E0],"parents":[2147483647,0,0,1,1,2,2,3,3,4,4,5,5,6,6,7,7,8,8,9,9,10,10,11,11,12,12,13,13,14,14,15,15,16,16,17,17,18,18,19,19,20,20,21,21,22,22,23,23,24,24,25,25,26,26,27,27,28,28,29,29,30,30],"right_children":[2,4,6,8,10,12,14,16,18,20,22,24,26,28,30,32,34,36,38,40,42,44,46,48,50,52,54,56,58,60,62,-1,-1,-1,-1,-1,-1,-1,-1,-1,-1,-1,-1,-1,-1,-1,-1,-1,-1,-1,-1,-1,-1,-1,-1,-1,-1,-1,-1,-1,-1,-1,-1],"split_conditions":[4.333E0,1.29005E1,1.5224181E5,5.6786876E0,4.62E-1,4.7E0,8E0,1.1991834E1,1.8335E0,2.667E0,9.922E2,1.2599261E5,1.0420667E1,1.2236834E1,1.12915E1,1.4666666E-2,1.3587976E-2,1.8818738E5,1.182226E1,1.3652166E1,1.24085E2,1E0,1.667E0,6E0,5.333E0,3E0,1E-2,4.7198772E5,5.667E0,8.333E0,4.5036247E5,3.1113425E-2,1.0714981E-2,2.0637667E-2,-4.1288702E-4,-2.5299458E-2,-9.647827E-3,-4.5750835E-3,5.657936E-2,-4.3948563E-3,-1.6707392E-2,6.772657E-3,-8.696082E-3,-9.02177E-4,-1.7678434E-2,-1.7818792E-2,6.7118565E-3,8.907378E-2,2.8644666E-2,-7.138545E-2,1.6190786E-2,4.4363705E-3,5.374071E-2,1.8584382E-2,6.328643E-2,2.0228243E-2,1.0507557E-2,-1.1702388E-3,1.3162029E-2,-6.081558E-2,1.8095275E-2,8.4865145E-2,-6.3316405E-2],"split_indices":[39,16,22,17,42,14,39,16,37,39,15,22,16,16,16,1,6,22,17,16,13,39,39,39,39,37,5,22,39,39,22,0,0,0,0,0,0,0,0,0,0,0,0,0,0,0,0,0,0,0,0,0,0,0,0,0,0,0,0,0,0,0,0],"split_type":[0,0,0,0,0,0,0,0,0,0,0,0,0,0,0,0,0,0,0,0,0,0,0,0,0,0,0,0,0,0,0,0,0,0,0,0,0,0,0,0,0,0,0,0,0,0,0,0,0,0,0,0,0,0,0,0,0,0,0,0,0,0,0],"sum_hessian":[2.3454748E7,1.6372084E7,7.082664E6,5.638923E6,1.0733161E7,1.779796E6,5.302868E6,4.518934E6,1.119989E6,5.514799E6,5.218362E6,1.09458E5,1.670338E6,5.142343E6,1.60525E5,1.682123E6,2.836811E6,6.75605E5,4.44384E5,2.664476E6,2.850323E6,5.006166E6,2.12196E5,9.5815E4,1.3643E4,3.8141E5,1.288928E6,2.209339E6,2.933004E6,4.3075E4,1.1745E5,2.84893E5,1.39723E6,2.20767E5,2.616044E6,2.84074E5,3.91531E5,4.25332E5,1.9052E4,7.58894E5,1.905582E6,1.365462E6,1.484861E6,3.18405E5,4.687761E6,2.0517E4,1.91679E5,7.7283E4,1.8532E4,2.813E3,1.083E4,5.494E4,3.2647E5,1.223454E6,6.5474E4,1.369068E6,8.40271E5,2.148086E6,7.84918E5,4.449E3,3.8626E4,1.10083E5,7.367E3],"tree_param":{"num_deleted":"0","num_feature":"45","num_nodes":"63","size_leaf_vector":"1"}},{"base_weights":[4.7033755E-4,-1.0451552E-1,3.3504933E-1,8.913292E-2,-1.990884E-1,6.157605E-1,2.1404576E-1,1.552188E-1,-1.945544E-1,-1.2469849E-1,-2.913278E-1,7.9686916E-1,4.055419E-1,7.8271106E-2,4.0292346E-1,4.0044737E-1,1.0813415E-1,-1.1252135E-1,-4.595766E-1,-1.9662187E-1,1.14639595E-1,-3.143792E-1,7.29467E-2,1.429718E0,6.3375276E-1,2.2301085E-1,8.2041097E-1,-7.4061856E-2,2.2960004E-1,1.0286368E0,3.439612E-1,1.6670628E-2,6.3310735E-2,2.7264228E-2,3.7969667E-3,-1.4806946E-2,-5.392804E-4,3.5175455E-3,-2.9965011E-2,-7.864623E-3,-1.981637E-2,-3.0352322E-3,1.0418559E-2,8.622295E-3,-1.6294306E-2,-1.9105313E-2,6.1048972E-3,1.0113473E-1,6.1345484E-2,7.353619E-2,2.7340177E-2,