{"learner":{"attributes":{"scikit_learn":"{\"_estimator_type\": \"regressor\"}"},"feature_names":[],"feature_types":[],"gradient_booster":{"model":{"gbtree_model_param":{"num_parallel_tree":"1","num_trees":"800"},"iteration_indptr":[0,1,2,3,4,5,6,7,8,9,10,11,12,13,14,15,16,17,18,19,20,21,22,23,24,25,26,27,28,29,30,31,32,33,34,35,36,37,38,39,40,41,42,43,44,45,46,47,48,49,50,51,52,53,54,55,56,57,58,59,60,61,62,63,64,65,66,67,68,69,70,71,72,73,74,75,76,77,78,79,80,81,82,83,84,85,86,87,88,89,90,91,92,93,94,95,96,97,98,99,100,101,102,103,104,105,106,107,108,109,110,111,112,113,114,115,116,117,118,119,120,121,122,123,124,125,126,127,128,129,130,131,132,133,134,135,136,137,138,139,140,141,142,143,144,145,146,147,148,149,150,151,152,153,154,155,156,157,158,159,160,161,162,163,164,165,166,167,168,169,170,171,172,173,174,175,176,177,178,179,180,181,182,183,184,185,186,187,188,189,190,191,192,193,194,195,196,197,198,199,200,201,202,203,204,205,206,207,208,209,210,211,212,213,214,215,216,217,218,219,220,221,222,223,224,225,226,227,228,229,230,231,232,233,234,235,236,237,238,239,240,241,242,243,244,245,246,247,248,249,250,251,252,253,254,255,256,257,258,259,260,261,262,263,264,265,266,267,268,269,270,271,272,273,274,275,276,277,278,279,280,281,282,283,284,285,286,287,288,289,290,291,292,293,294,295,296,297,298,299,300,301,302,303,304,305,306,307,308,309,310,311,312,313,314,315,316,317,318,319,320,321,322,323,324,325,326,327,328,329,330,331,332,333,334,335,336,337,338,339,340,341,342,343,344,345,346,347,348,349,350,351,352,353,354,355,356,357,358,359,360,361,362,363,364,365,366,367,368,369,370,371,372,373,374,375,376,377,378,379,380,381,382,383,384,385,386,387,388,389,390,391,392,393,394,395,396,397,398,399,400,401,402,403,404,405,406,407,408,409,410,411,412,413,414,415,416,417,418,419,420,421,422,423,424,425,426,427,428,429,430,431,432,433,434,435,436,437,438,439,440,441,442,443,444,445,446,447,448,449,450,451,452,453,454,455,456,457,458,459,460,461,462,463,464,465,466,467,468,469,470,471,472,473,474,475,476,477,478,479,480,481,482,483,484,485,486,487,488,489,490,491,492,493,494,495,496,497,498,499,500,501,502,503,504,505,506,507,508,509,510,511,512,513,514,515,516,517,518,519,520,521,522,523,524,525,526,527,528,529,530,531,532,533,534,535,536,537,538,539,540,541,542,543,544,545,546,547,548,549,550,551,552,553,554,555,556,557,558,559,560,561,562,563,564,565,566,567,568,569,570,571,572,573,574,575,576,577,578,579,580,581,582,583,584,585,586,587,588,589,590,591,592,593,594,595,596,597,598,599,600,601,602,603,604,605,606,607,608,609,610,611,612,613,614,615,616,617,618,619,620,621,622,623,624,625,626,627,628,629,630,631,632,633,634,635,636,637,638,639,640,641,642,643,644,645,646,647,648,649,650,651,652,653,654,655,656,657,658,659,660,661,662,663,664,665,666,667,668,669,670,671,672,673,674,675,676,677,678,679,680,681,682,683,684,685,686,687,688,689,690,691,692,693,694,695,696,697,698,699,700,701,702,703,704,705,706,707,708,709,710,711,712,713,714,715,716,717,718,719,720,721,722,723,724,725,726,727,728,729,730,731,732,733,734,735,736,737,738,739,740,741,742,743,744,745,746,747,748,749,750,751,752,753,754,755,756,757,758,759,760,761,762,763,764,765,766,767,768,769,770,771,772,773,774,775,776,777,778,779,780,781,782,783,784,785,786,787,788,789,790,791,792,793,794,795,796,797,798,799,800],"tree_info":[0,0,0,0,0,0,0,0,0,0,0,0,0,0,0,0,0,0,0,0,0,0,0,0,0,0,0,0,0,0,0,0,0,0,0,0,0,0,0,0,0,0,0,0,0,0,0,0,0,0,0,0,0,0,0,0,0,0,0,0,0,0,0,0,0,0,0,0,0,0,0,0,0,0,0,0,0,0,0,0,0,0,0,0,0,0,0,0,0,0,0,0,0,0,0,0,0,0,0,0,0,0,0,0,0,0,0,0,0,0,0,0,0,0,0,0,0,0,0,0,0,0,0,0,0,0,0,0,0,0,0,0,0,0,0,0,0,0,0,0,0,0,0,0,0,0,0,0,0,0,0,0,0,0,0,0,0,0,0,0,0,0,0,0,0,0,0,0,0,0,0,0,0,0,0,0,0,0,0,0,0,0,0,0,0,0,0,0,0,0,0,0,0,0,0,0,0,0,0,0,0,0,0,0,0,0,0,0,0,0,0,0,0,0,0,0,0,0,0,0,0,0,0,0,0,0,0,0,0,0,0,0,0,0,0,0,0,0,0,0,0,0,0,0,0,0,0,0,0,0,0,0,0,0,0,0,0,0,0,0,0,0,0,0,0,0,0,0,0,0,0,0,0,0,0,0,0,0,0,0,0,0,0,0,0,0,0,0,0,0,0,0,0,0,0,0,0,0,0,0,0,0,0,0,0,0,0,0,0,0,0,0,0,0,0,0,0,0,0,0,0,0,0,0,0,0,0,0,0,0,0,0,0,0,0,0,0,0,0,0,0,0,0,0,0,0,0,0,0,0,0,0,0,0,0,0,0,0,0,0,0,0,0,0,0,0,0,0,0,0,0,0,0,0,0,0,0,0,0,0,0,0,0,0,0,0,0,0,0,0,0,0,0,0,0,0,0,0,0,0,0,0,0,0,0,0,0,0,0,0,0,0,0,0,0,0,0,0,0,0,0,0,0,0,0,0,0,0,0,0,0,0,0,0,0,0,0,0,0,0,0,0,0,0,0,0,0,0,0,0,0,0,0,0,0,0,0,0,0,0,0,0,0,0,0,0,0,0,0,0,0,0,0,0,0,0,0,0,0,0,0,0,0,0,0,0,0,0,0,0,0,0,0,0,0,0,0,0,0,0,0,0,0,0,0,0,0,0,0,0,0,0,0,0,0,0,0,0,0,0,0,0,0,0,0,0,0,0,0,0,0,0,0,0,0,0,0,0,0,0,0,0,0,0,0,0,0,0,0,0,0,0,0,0,0,0,0,0,0,0,0,0,0,0,0,0,0,0,0,0,0,0,0,0,0,0,0,0,0,0,0,0,0,0,0,0,0,0,0,0,0,0,0,0,0,0,0,0,0,0,0,0,0,0,0,0,0,0,0,0,0,0,0,0,0,0,0,0,0,0,0,0,0,0,0,0,0,0,0,0,0,0,0,0,0,0,0,0,0,0,0,0,0,0,0,0,0,0,0,0,0,0,0,0,0,0,0,0,0,0,0,0,0,0,0,0,0,0,0,0,0,0,0,0,0,0,0,0,0,0,0,0,0,0,0,0,0,0,0,0,0,0,0,0,0,0,0,0,0,0,0,0,0,0,0,0,0,0,0,0,0,0,0,0,0,0,0,0,0,0,0,0,0,0,0,0,0,0,0,0,0,0,0,0,0,0,0,0,0,0,0,0,0,0,0,0,0,0,0,0,0,0,0,0,0,0,0,0,0,0,0,0,0,0,0,0,0,0,0,0,0,0,0,0,0,0,0,0,0,0,0,0,0,0,0,0,0,0,0,0,0,0,0,0,0,0,0,0,0,0],"trees":[{"base_weights":[-2.7051436E-2,-1.5672687E0,1.4743466E0,-2.5009322E0,-8.6222696E-1,6.0926414E-1,2.0768008E0,-2.9346738E0,-1.6201271E0,-1.2191923E0,-2.561374E-1,2.2601333E-1,9.101283E-1,1.5484201E0,2.2732103E0,-3.4013689E0,-2.5499556E0,-1.8286283E0,-1.0509642E0,-1.5357109E0,-7.1285087E-1,-4.9503407E-1,1.8760873E-1,4.1502267E-2,7.582731E-1,7.132535E-1,1.13905E0,1.0531097E-1,1.4613998E0,2.0737536E0,1.2086077E-1,-1.8195057E-1,-1.4424032E-1,-1.39429E-1,-1.16364256E-1,-9.209984E-2,-7.1166866E-3,-5.6126144E-2,2.312144E-3,-9.678175E-2,-6.758689E-2,-3.9343305E-2,-2.8357168E-3,-3.69536E-2,-1.06576495E-2,-2.0023672E-2,1.6074289E-2,-9.78456E-3,1.1914268E-2,-2.046216E-2,4.065472E-2,2.9753828E-2,4.9293403E-2,-3.425538E-2,5.856799E-2,7.60311E-2,4.4592116E-2,1.0393192E-1,2.5651073E-2],"categories":[],"categories_nodes":[],"categories_segments":[],"categories_sizes":[],"default_left":[0,0,0,0,0,0,0,0,0,0,0,0,0,0,0,0,0,0,0,0,0,0,0,0,0,0,0,0,0,0,0,0,0,0,0,0,0,0,0,0,0,0,0,0,0,0,0,0,0,0,0,0,0,0,0,0,0,0,0],"id":0,"left_children":[1,3,5,7,9,11,13,15,17,19,21,23,25,27,29,31,33,35,37,39,41,43,45,47,49,51,53,-1,55,57,-1,-1,-1,-1,-1,-1,-1,-1,-1,-1,-1,-1,-1,-1,-1,-1,-1,-1,-1,-1,-1,-1,-1,-1,-1,-1,-1,-1,-1],"loss_changes":[1.5403429E4,2.1575923E3,1.7538501E3,5.2510645E2,4.0522644E2,1.5942993E2,1.952666E2,1.4269727E2,5.0078003E1,1.8576575E2,7.4516E1,6.022342E1,3.2395996E1,1.700879E1,2.5930664E1,1.9043945E1,8.127197E0,6.7248535E0,1.0784317E1,4.5090454E1,2.2121231E1,3.0800255E1,1.9824825E1,2.1614956E1,1.115139E1,1.1806244E1,2.3320251E1,0E0,1.2015747E1,1.314209E0,0E0,0E0,0E0,0E0,0E0,0E0,0E0,0E0,0E0,0E0,0E0,0E0,0E0,0E0,0E0,0E0,0E0,0E0,0E0,0E0,0E0,0E0,0E0,0E0,0E0,0E0,0E0,0E0,0E0],"parents":[2147483647,0,0,1,1,2,2,3,3,4,4,5,5,6,6,7,7,8,8,9,9,10,10,11,11,12,12,13,13,14,14,15,15,16,16,17,17,18,18,19,19,20,20,21,21,22,22,23,23,24,24,25,25,26,26,28,28,29,29],"right_children":[2,4,6,8,10,12,14,16,18,20,22,24,26,28,30,32,34,36,38,40,42,44,46,48,50,52,54,-1,56,58,-1,-1,-1,-1,-1,-1,-1,-1,-1,-1,-1,-1,-1,-1,-1,-1,-1,-1,-1,-1,-1,-1,-1,-1,-1,-1,-1,-1,-1],"split_conditions":[2.7049375E0,5.594347E0,4.3421087E0,1.2455438E0,7.2334476E0,3.3416204E0,5.343389E0,4.3609586E0,2.034292E0,1.7796121E0,8.102461E0,7.8540387E0,3.852739E0,4.100134E2,1.4873129E1,5.974065E-1,5.786444E-1,4.299138E-1,1.4399856E1,6.398401E-1,1.0403999E1,7.1298604E0,5.1779776E0,6.5370374E0,3.1957295E-2,8.241971E0,6.0468388E0,1.0531097E-1,8.802281E-1,2.5327304E-1,1.2086077E-1,-1.8195057E-1,-1.4424032E-1,-1.39429E-1,-1.16364256E-1,-9.209984E-2,-7.1166866E-3,-5.6126144E-2,2.312144E-3,-9.678175E-2,-6.758689E-2,-3.9343305E-2,-2.8357168E-3,-3.69536E-2,-1.06576495E-2,-2.0023672E-2,1.6074289E-2,-9.78456E-3,1.1914268E-2,-2.046216E-2,4.065472E-2,2.9753828E-2,4.9293403E-2,-3.425538E-2,5.856799E-2,7.60311E-2,4.4592116E-2,1.0393192E-1,2.5651073E-2],"split_indices":[41,36,41,41,37,41,41,36,41,41,36,36,41,14,9,41,41,21,11,41,10,11,11,36,33,37,37,0,33,19,0,0,0,0,0,0,0,0,0,0,0,0,0,0,0,0,0,0,0,0,0,0,0,0,0,0,0,0,0],"split_type":[0,0,0,0,0,0,0,0,0,0,0,0,0,0,0,0,0,0,0,0,0,0,0,0,0,0,0,0,0,0,0,0,0,0,0,0,0,0,0,0,0,0,0,0,0,0,0,0,0,0,0,0,0,0,0,0,0,0,0],"sum_hessian":[6.655E3,3.285E3,3.37E3,1.41E3,1.875E3,1.386E3,1.984E3,9.4E2,4.7E2,1.178E3,6.97E2,6.12E2,7.74E2,5.45E2,1.439E3,4.14E2,5.26E2,3.39E2,1.31E2,7.21E2,4.57E2,4.53E2,2.44E2,4.57E2,1.55E2,4.23E2,3.51E2,6.4E1,4.81E2,6.23E2,8.16E2,2.71E2,1.43E2,2.37E2,2.89E2,3.36E2,3E0,1.23E2,8E0,2.18E2,5.03E2,4.1E2,4.7E1,2.4E2,2.13E2,4.4E1,2E2,2.07E2,2.5E2,6E0,1.49E2,3.02E2,1.21E2,5E0,3.46E2,4.31E2,5E1,6.2E2,3E0],"tree_param":{"num_deleted":"0","num_feature":"45","num_nodes":"59","size_leaf_vector":"1"}},{"base_weights":[9.873856E-3,-1.4756398E0,1.3980113E0,-2.227279E0,-7.0418507E-1,5.9966755E-1,1.9864513E0,-2.7005079E0,-1.4204347E0,-1.0522554E0,-2.1050453E-1,2.4190961E-1,8.896292E-1,1.5696309E0,2.172526E0,-3.3383682E0,-2.4420385E0,-1.631641E0,-9.983729E-1,-1.4522445E0,-6.563569E-1,-4.3147722E-1,1.9703056E-1,3.388212E-2,7.801024E-1,6.828633E-1,1.0998456E0,1.9029652E0,1.4448618E0,1.9991856E0,1.15303636E-1,-5.887417E-2,-1.6819005E-1,-1.3463823E-1,-1.09802894E-1,-9.5330015E-2,-6.715563E-2,-5.230169E-3,-5.3727996E-2,-7.67531E-2,-4.848542E-2,-4.123925E-2,-1.904094E-2,-3.9383918E-2,-1.0710071E-2,4.5822106E-2,5.0848923E-3,-8.928906E-3,1.1594425E-2,4.782471E-2,2.138771E-2,-2.6400834E-2,3.4935348E-2,-3.4644246E-2,5.665062E-2,9.716006E-2,3.5323154E-2,6.2267836E-2,8.3797626E-2,2.6574254E-2,1.0018021E-1],"categories":[],"categories_nodes":[],"categories_segments":[],"categories_sizes":[],"default_left":[0,0,0,0,0,0,0,0,0,0,0,0,0,0,0,0,0,0,0,0,0,0,0,0,0,0,0,0,0,0,0,0,0,0,0,0,0,0,0,0,0,0,0,0,0,0,0,0,0,0,0,0,0,0,0,0,0,0,0,0,0],"id":1,"left_children":[1,3,5,7,9,11,13,15,17,19,21,23,25,27,29,31,33,35,37,39,41,43,45,47,49,51,53,55,57,59,-1,-1,-1,-1,-1,-1,-1,-1,-1,-1,-1,-1,-1,-1,-1,-1,-1,-1,-1,-1,-1,-1,-1,-1,-1,-1,-1,-1,-1,-1,-1],"loss_changes":[1.375006E4,1.8627163E3,1.6154897E3,6.104502E2,2.7311505E2,1.5142206E2,1.4319629E2,1.4378857E2,4.9137573E1,1.4483325E2,5.9984375E1,7.384413E1,3.273224E1,1.7327148E1,1.7290527E1,3.4362793E0,2.740918E1,2.3805542E1,1.3912628E1,1.374646E1,2.098114E1,3.2750412E1,1.57357E1,2.0322433E1,1.007E1,9.104706E0,2.5944977E1,3.319397E0,1.4930725E1,5.46875E-1,0E0,0E0,0E0,0E0,0E0,0E0,0E0,0E0,0E0,0E0,0E0,0E0,0E0,0E0,0E0,0E0,0E0,0E0,0E0,0E0,0E0,0E0,0E0,0E0,0E0,0E0,0E0,0E0,0E0,0E0,0E0],"parents":[2147483647,0,0,1,1,2,2,3,3,4,4,5,5,6,6,7,7,8,8,9,9,10,10,11,11,12,12,13,13,14,14,15,15,16,16,17,17,18,18,19,19,20,20,21,21,22,22,23,23,24,24,25,25,26,26,27,27,28,28,29,29],"right_children":[2,4,6,8,10,12,14,16,18,20,22,24,26,28,30,32,34,36,38,40,42,44,46,48,50,52,54,56,58,60,-1,-1,-1,-1,-1,-1,-1,-1,-1,-1,-1,-1,-1,-1,-1,-1,-1,-1,-1,-1,-1,-1,-1,-1,-1,-1,-1,-1,-1,-1,-1],"split_conditions":[2.6871073E0,5.927221E0,4.4372735E0,1.2741783E0,7.234555E0,3.3416204E0,5.5863447E0,4.0760117E0,2.0166686E0,1.5129439E0,8.102461E0,7.8195157E0,3.852739E0,4.6218277E2,1.6881947E1,-3.6810741E0,5.974065E-1,5.1140947E0,3.0118268E2,7.0344024E0,2.2701993E0,1.2455438E0,7.016362E2,7.390753E0,3.759493E0,-3.4090546E-1,6.0468388E0,7.1571016E0,5.0546994E0,7.93398E0,1.15303636E-1,-5.887417E-2,-1.6819005E-1,-1.3463823E-1,-1.09802894E-1,-9.5330015E-2,-6.715563E-2,-5.230169E-3,-5.3727996E-2,-7.67531E-2,-4.848542E-2,-4.123925E-2,-1.904094E-2,-3.9383918E-2,-1.0710071E-2,4.5822106E-2,5.0848923E-3,-8.928906E-3,1.1594425E-2,4.782471E-2,2.138771E-2,-2.6400834E-2,3.4935348E-2,-3.4644246E-2,5.665062E-2,9.716006E-2,3.5323154E-2,6.2267836E-2,8.3797626E-2,2.6574254E-2,1.0018021E-1],"split_indices":[41,36,41,41,36,41,41,36,41,41,36,36,41,13,11,15,41,36,13,36,41,41,14,39,1,20,37,42,41,39,0,0,0,0,0,0,0,0,0,0,0,0,0,0,0,0,0,0,0,0,0,0,0,0,0,0,0,0,0,0,0],"split_type":[0,0,0,0,0,0,0,0,0,0,0,0,0,0,0,0,0,0,0,0,0,0,0,0,0,0,0,0,0,0,0,0,0,0,0,0,0,0,0,0,0,0,0,0,0,0,0,0,0,0,0,0,0,0,0,0,0,0,0,0,0],"sum_hessian":[6.662E3,3.218E3,3.444E3,1.627E3,1.591E3,1.464E3,1.98E3,1.021E3,6.06E2,9.31E2,6.6E2,6.58E2,8.06E2,6.2E2,1.36E3,2.84E2,7.37E2,3.98E2,2.08E2,4.59E2,4.72E2,4.28E2,2.32E2,4.77E2,1.81E2,4.13E2,3.93E2,1.57E2,4.63E2,6.13E2,7.47E2,5E0,2.79E2,3.5E2,3.87E2,1.95E2,2.03E2,1.7E1,1.91E2,3.86E2,7.3E1,2.89E2,1.83E2,1.59E2,2.69E2,2.4E1,2.08E2,2.3E2,2.47E2,1.17E2,6.4E1,4E0,4.09E2,6E0,3.87E2,1.5E2,7E0,2.59E2,2.04E2,3E0,6.1E2],"tree_param":{"num_deleted":"0","num_feature":"45","num_nodes":"61","size_leaf_vector":"1"}},{"base_weights":[1.222761E-2,-1.4215542E0,1.3382028E0,-2.1292357E0,-6.547065E-1,5.758116E-1,1.9043422E0,-2.6548712E0,-1.4683967E0,-8.715055E-1,4.3432683E-2,1.6425791E-1,8.359719E-1,1.5407192E0,2.0844946E0,-3.09639E0,-2.2864225E0,-1.7507349E0,-1.0168906E0,-1.2990116E0,-6.267727E-1,-3.9015195E-1,1.5209357E-1,-1.3112563E-2,6.804248E-1,6.3513833E-1,1.0622162E0,1.41471E0,1.771562E0,9.310812E-2,1.0930367E-1,-1.6300447E-1,-1.2641717E-1,-1.2512992E-1,-1.0058846E-1,-9.840124E-2,-7.673419E-2,-5.6250878E-2,-1.3509298E-2,-7.664054E-2,-4.4666626E-2,-4.6585914E-2,-2.0504342E-2,-3.4274023E-2,5.410557E-3,1.2684154E-2,-2.1349132E-2,-6.3595497E-3,2.5265643E-2,3.6290176E-2,-1.2310271E-2,2.0070868E-2,3.7203964E-2,-3.346613E-2,5.3988524E-2,6.189676E-2,8.0285914E-2,1.9775346E-2,8.922393E-2],"categories":[],"categories_nodes":[],"categories_segments":[],"categories_sizes":[],"default_left":[0,0,0,0,0,0,0,0,0,0,0,0,0,0,0,0,0,0,0,0,0,0,0,0,0,0,0,0,0,0,0,0,0,0,0,0,0,0,0,0,0,0,0,0,0,0,0,0,0,0,0,0,0,0,0,0,0,0,0],"id":2,"left_children":[1,3,5,7,9,11,13,15,17,19,21,23,25,27,29,31,33,35,37,39,41,43,45,47,49,51,53,55,57,-1,-1,-1,-1,-1,-1,-1,-1,-1,-1,-1,-1,-1,-1,-1,-1,-1,-1,-1,-1,-1,-1,-1,-1,-1,-1,-1,-1,-1,-1],"loss_changes":[1.260278E4,1.7239878E3,1.48296E3,5.627739E2,2.3222491E2,1.5709497E2,1.1937988E2,1.2756055E2,8.8715576E1,1.1977582E2,1.7397823E1,5.264479E1,3.8745483E1,1.1535645E1,1.7012695E1,1.272583E1,1.4843994E1,1.1761353E1,2.2524323E1,3.5769897E1,4.827765E1,1.1171637E1,1.7661911E1,2.5585701E1,6.765297E0,1.1338364E1,1.4945129E1,8.811768E0,1.6282349E0,0E0,0E0,0E0,0E0,0E0,0E0,0E0,0E0,0E0,0E0,0E0,0E0,0E0,0E0,0E0,0E0,0E0,0E0,0E0,0E0,0E0,0E0,0E0,0E0,0E0,0E0,0E0,0E0,0E0,0E0],"parents":[2147483647,0,0,1,1,2,2,3,3,4,4,5,5,6,6,7,7,8,8,9,9,10,10,11,11,12,12,13,13,14,14,15,15,16,16,17,17,18,18,19,19,20,20,21,21,22,22,23,23,24,24,25,25,26,26,27,27,28,28],"right_children":[2,4,6,8,10,12,14,16,18,20,22,24,26,28,30,32,34,36,38,40,42,44,46,48,50,52,54,56,58,-1,-1,-1,-1,-1,-1,-1,-1,-1,-1,-1,-1,-1,-1,-1,-1,-1,-1,-1,-1,-1,-1,-1,-1,-1,-1,-1,-1,-1,-1],"split_conditions":[2.6871073E0,5.945144E0,4.469977E0,1.0715997E0,7.7593822E0,3.2542589E0,5.70702E0,4.453365E0,1.8035743E0,1.1432141E0,1.0991458E0,7.8195157E0,3.852739E0,1.3312969E1,1.4279998E1,6.840755E-1,5.974065E-1,5.0197415E0,6.702827E0,7.0344024E0,6.6056194E0,8.267855E0,1.8808321E1,1.1958724E1,2.8084976E1,6.940864E0,5.8506694E0,5.0546994E0,3.1880455E-3,9.310812E-2,1.0930367E-1,-1.6300447E-1,-1.2641717E-1,-1.2512992E-1,-1.0058846E-1,-9.840124E-2,-7.673419E-2,-5.6250878E-2,-1.3509298E-2,-7.664054E-2,-4.4666626E-2,-4.6585914E-2,-2.0504342E-2,-3.4274023E-2,5.410557E-3,1.2684154E-2,-2.1349132E-2,-6.3595497E-3,2.5265643E-2,3.6290176E-2,-1.2310271E-2,2.0070868E-2,3.7203964E-2,-3.346613E-2,5.3988524E-2,6.189676E-2,8.0285914E-2,1.9775346E-2,8.922393E-2],"split_indices":[41,36,41,41,36,41,41,36,41,41,41,36,41,9,9,41,41,38,0,36,36,36,22,10,7,36,36,41,24,0,0,0,0,0,0,0,0,0,0,0,0,0,0,0,0,0,0,0,0,0,0,0,0,0,0,0,0,0,0],"split_type":[0,0,0,0,0,0,0,0,0,0,0,0,0,0,0,0,0,0,0,0,0,0,0,0,0,0,0,0,0,0,0,0,0,0,0,0,0,0,0,0,0,0,0,0,0,0,0,0,0,0,0,0,0,0,0,0,0,0,0],"sum_hessian":[6.623E3,3.182E3,3.441E3,1.652E3,1.53E3,1.469E3,1.972E3,9.15E2,7.37E2,1.167E3,3.63E2,5.71E2,8.98E2,6.63E2,1.309E3,4.06E2,5.09E2,4.48E2,2.89E2,4.2E2,7.47E2,7.1E1,2.92E2,4.27E2,1.44E2,4.82E2,4.16E2,4.43E2,2.2E2,4.29E2,8.8E2,3.04E2,1.02E2,2.71E2,2.38E2,2.11E2,2.37E2,2.51E2,3.8E1,2.61E2,1.59E2,3.06E2,4.41E2,4.4E1,2.7E1,2.5E2,4.2E1,3.52E2,7.5E1,1.38E2,6E0,1.58E2,3.24E2,3E0,4.13E2,2.42E2,2.01E2,3E0,2.17E2],"tree_param":{"num_deleted":"0","num_feature":"45","num_nodes":"59","size_leaf_vector":"1"}},{"base_weights":[-2.817419E-3,-1.3056846E0,1.2874073E0,-2.1355658E0,-7.0105153E-1,5.691221E-1,1.8084769E0,-2.6100488E0,-1.4997003E0,-9.9788153E-1,-1.932267E-1,-3.600322E-2,7.289584E-1,1.4127369E0,1.9811203E0,-1.6430919E-1,-2.409807E0,-1.7861558E0,-1.1807058E0,-1.369069E0,-5.550607E-1,-6.213432E-1,-2.4181683E-2,-2.9399344E-1,3.8415793E-1,5.1538014E-1,9.5181805E-1,1.2300575E0,1.5874412E0,1.733269E0,1.0323285E-1,-1.303518E-1,-1.0463525E-1,-6.973242E-3,-9.030589E-2,-6.128716E-2,-8.527458E-3,-7.960766E-2,-5.720376E-2,8.843071E-3,-3.15489E-2,-3.7212413E-2,1.8917638E-3,-1.0134446E-2,1.2893267E-2,-2.2880517E-2,1.5385754E-2,-8.118138E-3,2.8554758E-2,1.8359695E-2,4.314082E-2,7.489421E-2,4.2153563E-2,6.618682E-2,3.720833E-2,4.828766E-2,8.1106715E-2,1.695629E-2,8.710131E-2],"categories":[],"categories_nodes":[],"categories_segments":[],"categories_sizes":[],"default_left":[0,0,0,0,0,0,0,0,0,0,0,0,0,0,0,0,0,0,0,0,0,0,0,0,0,0,0,0,0,0,0,0,0,0,0,0,0,0,0,0,0,0,0,0,0,0,0,0,0,0,0,0,0,0,0,0,0,0,0],"id":3,"left_children":[1,3,5,7,9,11,13,15,17,19,21,23,25,27,29,-1,31,33,35,37,39,41,43,45,47,49,51,53,55,57,-1,-1,-1,-1,-1,-1,-1,-1,-1,-1,-1,-1,-1,-1,-1,-1,-1,-1,-1,-1,-1,-1,-1,-1,-1,-1,-1,-1,-1],"loss_changes":[1.1057563E4,1.6375303E3,1.2336582E3,4.0359912E2,2.8540253E2,1.3497717E2,1.2203223E2,8.195508E1,4.7837646E1,1.9427808E2,5.083954E1,3.2198658E1,5.0882202E1,1.2754028E1,1.631836E1,0E0,2.1750977E1,9.174072E0,1.2472168E1,2.683667E1,3.099681E1,1.6277367E1,2.572778E1,1.8552174E1,1.1863699E1,2.8273148E1,2.7806671E1,1.0629852E1,1.3394165E0,2.3293457E0,0E0,0E0,0E0,0E0,0E0,0E0,0E0,0E0,0E0,0E0,0E0,0E0,0E0,0E0,0E0,0E0,0E0,0E0,0E0,0E0,0E0,0E0,0E0,0E0,0E0,0E0,0E0,0E0,0E0],"parents":[2147483647,0,0,1,1,2,2,3,3,4,4,5,5,6,6,7,7,8,8,9,9,10,10,11,11,12,12,13,13,14,14,16,16,17,17,18,18,19,19,20,20,21,21,22,22,23,23,24,24,25,25,26,26,27,27,28,28,29,29],"right_children":[2,4,6,8,10,12,14,16,18,20,22,24,26,28,30,-1,32,34,36,38,40,42,44,46,48,50,52,54,56,58,-1,-1,-1,-1,-1,-1,-1,-1,-1,-1,-1,-1,-1,-1,-1,-1,-1,-1,-1,-1,-1,-1,-1,-1,-1,-1,-1,-1,-1],"split_conditions":[2.7483234E0,5.594347E0,4.469977E0,9.977539E-1,7.2334476E0,6.6056194E0,5.5863447E0,3.7854583E0,1.5906392E0,1.6762408E0,1.1432141E0,1.193505E1,3.6512296E0,1.3612461E1,1.3597961E1,-1.6430919E-1,5.974065E-1,-8.09337E0,6.524041E0,6.3722343E0,3.5318527E2,8.282133E0,8.102461E0,8.006843E0,5.9621935E0,8.338614E0,4.060017E2,8.03721E-1,7.632956E0,2.926633E-1,1.0323285E-1,-1.303518E-1,-1.0463525E-1,-6.973242E-3,-9.030589E-2,-6.128716E-2,-8.527458E-3,-7.960766E-2,-5.720376E-2,8.843071E-3,-3.15489E-2,-3.7212413E-2,1.8917638E-3,-1.0134446E-2,1.2893267E-2,-2.2880517E-2,1.5385754E-2,-8.118138E-3,2.8554758E-2,1.8359695E-2,4.314082E-2,7.489421E-2,4.2153563E-2,6.618682E-2,3.720833E-2,4.828766E-2,8.1106715E-2,1.695629E-2,8.710131E-2],"split_indices":[41,36,41,41,37,36,41,36,41,41,41,9,41,11,9,0,41,4,4,36,13,36,36,2,36,36,13,33,39,7,0,0,0,0,0,0,0,0,0,0,0,0,0,0,0,0,0,0,0,0,0,0,0,0,0,0,0,0,0],"split_type":[0,0,0,0,0,0,0,0,0,0,0,0,0,0,0,0,0,0,0,0,0,0,0,0,0,0,0,0,0,0,0,0,0,0,0,0,0,0,0,0,0,0,0,0,0,0,0,0,0,0,0,0,0,0,0,0,0,0,0],"sum_hessian":[6.572E3,3.27E3,3.302E3,1.375E3,1.895E3,1.391E3,1.911E3,7.82E2,5.93E2,1.194E3,7.01E2,2.91E2,1.1E3,5.89E2,1.322E3,1.68E2,6.14E2,3.05E2,2.88E2,6.46E2,5.48E2,1.96E2,5.05E2,1.81E2,1.1E2,5.67E2,5.33E2,3E2,2.89E2,3.5E2,9.72E2,3.65E2,2.49E2,4E0,3.01E2,2.75E2,1.3E1,3.15E2,3.31E2,5.1E1,4.97E2,1.65E2,3.1E1,3.1E2,1.95E2,1.43E2,3.8E1,2.8E1,8.2E1,4.02E2,1.65E2,8.2E1,4.51E2,2.47E2,5.3E1,2E1,2.69E2,3E0,3.47E2],"tree_param":{"num_deleted":"0","num_feature":"45","num_nodes":"59","size_leaf_vector":"1"}},{"base_weights":[-9.287006E-3,-1.2757672E0,1.1973441E0,-2.0263388E0,-7.15176E-1,5.3549284E-1,1.7194165E0,-2.3766024E0,-1.2975428E0,-9.7147214E-1,-2.0841318E-1,1.6432582E-1,7.8351784E-1,1.3746338E0,1.8797818E0,-2.6318896E0,-1.9144499E0,-1.5162797E0,-7.893191E-1,-1.3711488E0,-6.753397E-1,-4.8592028E-1,1.0356525E-1,2.0568553E-2,6.2663627E-1,6.15528E-1,9.543442E-1,1.6680167E0,1.267465E0,1.6084415E0,1.956519E0,-1.4152367E-1,-1.1089995E-1,-9.7010456E-2,-2.3487756E-2,-5.7582088E-2,-8.0791585E-2,1.3862455E-2,-4.2553354E-2,-8.003109E-2,-5.205185E-2,-4.132235E-2,-2.0535983E-2,-3.887857E-2,-1.490251E-2,-7.590025E-3,1.3631928E-2,3.408086E-2,-2.0633347E-3,2.1098515E-3,3.7130114E-2,2.3008019E-2,3.7560713E-2,7.181727E-2,4.3169055E-2,8.431145E-2,1.7949997E-2,5.2536357E-2,7.194679E-2,8.097159E-2,2.200437E-2,3.3042528E-2,9.804999E-2],"categories":[],"categories_nodes":[],"categories_segments":[],"categories_sizes":[],"default_left":[0,0,0,0,0,0,0,0,0,0,0,0,0,0,0,0,0,0,0,0,0,0,0,0,0,0,0,0,0,0,0,0,0,0,0,0,0,0,0,0,0,0,0,0,0,0,0,0,0,0,0,0,0,0,0,0,0,0,0,0,0,0,0],"id":4,"left_children":[1,3,5,7,9,11,13,15,17,19,21,23,25,27,29,31,33,35,37,39,41,43,45,47,49,51,53,55,57,59,61,-1,-1,-1,-1,-1,-1,-1,-1,-1,-1,-1,-1,-1,-1,-1,-1,-1,-1,-1,-1,-1,-1,-1,-1,-1,-1,-1,-1,-1,-1,-1,-1],"loss_changes":[1.0107352E4,1.3531831E3,1.1673364E3,3.4214453E2,2.3981482E2,1.3742291E2,9.65332E1,9.379834E1,4.6648926E1,1.4247852E2,5.4385933E1,4.0038742E1,2.3822021E1,1.2606201E1,1.6916992E1,2.9072266E1,9.714844E0,5.5389404E0,1.0183006E1,3.4127808E1,2.7328033E1,1.7388298E1,1.2959377E1,1.9114931E1,9.519348E0,8.560287E0,1.5297333E1,1.6507874E0,1.2348022E1,1.5081177E0,1.5744629E0,0E0,0E0,0E0,0E0,0E0,0E0,0E0,0E0,0E0,0E0,0E0,0E0,0E0,0E0,0E0,0E0,0E0,0E0,0E0,0E0,0E0,0E0,0E0,0E0,0E0,0E0,0E0,0E0,0E0,0E0,0E0,0E0],"parents":[2147483647,0,0,1,1,2,2,3,3,4,4,5,5,6,6,7,7,8,8,9,9,10,10,11,11,12,12,13,13,14,14,15,15,16,16,17,17,18,18,19,19,20,20,21,21,22,22,23,23,24,24,25,25,26,26,27,27,28,28,29,29,30,30],"right_children":[2,4,6,8,10,12,14,16,18,20,22,24,26,28,30,32,34,36,38,40,42,44,46,48,50,52,54,56,58,60,62,-1,-1,-1,-1,-1,-1,-1,-1,-1,-1,-1,-1,-1,-1,-1,-1,-1,-1,-1,-1,-1,-1,-1,-1,-1,-1,-1,-1,-1,-1,-1,-1],"split_conditions":[2.6871073E0,5.5777826E0,4.5010505E0,1.2741783E0,7.321089E0,3.2810323E0,5.70702E0,4.7926555E0,2.0166686E0,1.2741783E0,1.7796121E0,6.8375775E2,3.852739E0,4.6445505E2,1.3388976E1,6.840755E-1,1.771402E2,1.12726E1,-2.6488355E-1,6.4977646E0,2.153395E0,7.7099895E0,-1.4919478E-1,-8.473632E0,-3.4197998E-1,7.4214244E0,-9.6150255E0,3.6397877E1,5.0546994E0,3.0235317E-1,-4.6896958E-1,-1.4152367E-1,-1.1089995E-1,-9.7010456E-2,-2.3487756E-2,-5.7582088E-2,-8.0791585E-2,1.3862455E-2,-4.2553354E-2,-8.003109E-2,-5.205185E-2,-4.132235E-2,-2.0535983E-2,-3.887857E-2,-1.490251E-2,-7.590025E-3,1.3631928E-2,3.408086E-2,-2.0633347E-3,2.1098515E-3,3.7130114E-2,2.3008019E-2,3.7560713E-2,7.181727E-2,4.3169055E-2,8.431145E-2,1.7949997E-2,5.2536357E-2,7.194679E-2,8.097159E-2,2.200437E-2,3.3042528E-2,9.804999E-2],"split_indices":[41,38,41,41,38,41,41,38,41,41,41,14,41,13,9,41,23,30,20,38,41,38,8,2,40,38,1,22,41,20,21,0,0,0,0,0,0,0,0,0,0,0,0,0,0,0,0,0,0,0,0,0,0,0,0,0,0,0,0,0,0,0,0],"split_type":[0,0,0,0,0,0,0,0,0,0,0,0,0,0,0,0,0,0,0,0,0,0,0,0,0,0,0,0,0,0,0,0,0,0,0,0,0,0,0,0,0,0,0,0,0,0,0,0,0,0,0,0,0,0,0,0,0,0,0,0,0,0,0],"sum_hessian":[6.608E3,3.224E3,3.384E3,1.375E3,1.849E3,1.495E3,1.889E3,9.24E2,4.51E2,1.226E3,6.23E2,6.01E2,8.94E2,6.09E2,1.28E3,5.86E2,3.38E2,3.11E2,1.4E2,5.17E2,7.09E2,3.29E2,2.94E2,4.61E2,1.4E2,4.58E2,4.36E2,1.51E2,4.58E2,2.97E2,9.83E2,3.84E2,2.02E2,3.31E2,7E0,7.5E1,2.36E2,7E0,1.33E2,2.98E2,2.19E2,4.47E2,2.62E2,1.25E2,2.04E2,1.17E2,1.77E2,3.7E1,4.24E2,2.4E1,1.16E2,2.2E2,2.38E2,6.2E1,3.74E2,1.48E2,3E0,2.12E2,2.46E2,2.93E2,4E0,5E0,9.78E2],"tree_param":{"num_deleted":"0","num_feature":"45","num_nodes":"63","size_leaf_vector":"1"}},{"base_weights":[-3.1010055E-3,-1.1934632E0,1.1850859E0,-1.9930807E0,-6.897932E-1,5.3803074E-1,1.6365204E0,-2.3118892E0,-1.2680972E0,-9.997515E-1,-2.7486658E-1,1.8649885E-1,7.6988155E-1,1.2255288E0,1.7675288E0,-1.3655326E-1,-2.091868E0,9.025414E-4,-1.318065E0,-1.2544955E0,-4.7633085E-1,-4.530634E-1,1.9791918E-1,-2.0422643E-1,4.0719646E-1,5.47321E-1,9.0392977E-1,-2.1429943E-2,1.2387542E0,1.5816135E0,9.3101054E-2,-1.16836525E-1,-9.284934E-2,1.9809062E-2,-2.1208739E-2,-6.891306E-2,-2.3429977E-2,-7.649363E-2,-5.387455E-2,-3.981841E-2,-1.5333223E-2,-2.502268E-2,1.3558188E-2,-3.6849983E-3,2.0075051E-2,-1.9253897E-2,2.2107808E-2,1.2140057E-2,3.6725726E-2,4.578569E-2,1.5935926E-2,3.984646E-2,5.9877034E-2,7.959375E-2,5.718069E-2,7.942673E-2,1.9065207E-2],"categories":[],"categories_nodes":[],"categories_segments":[],"categories_sizes":[],"default_left":[0,0,0,0,0,0,0,0,0,0,0,0,0,0,0,0,0,0,0,0,0,0,0,0,0,0,0,0,0,0,0,0,0,0,0,0,0,0,0,0,0,0,0,0,0,0,0,0,0,0,0,0,0,0,0,0,0],"id":5,"left_children":[1,3,5,7,9,11,13,15,17,19,21,23,25,27,29,-1,31,33,35,37,39,41,43,45,47,49,51,-1,53,55,-1,-1,-1,-1,-1,-1,-1,-1,-1,-1,-1,-1,-1,-1,-1,-1,-1,-1,-1,-1,-1,-1,-1,-1,-1,-1,-1],"loss_changes":[9.397094E3,1.332312E3,9.683833E2,2.8692578E2,2.6154102E2,1.1121414E2,9.857373E1,6.40918E1,2.5372192E1,1.5364014E2,7.418083E1,4.761122E1,2.2983551E1,1.2240173E1,1.6768066E1,0E0,2.072583E1,3.525783E0,1.746222E1,3.295984E1,2.0170975E1,2.2327011E1,1.3503356E1,2.3884941E1,1.8308212E1,2.578154E1,1.295993E1,0E0,1.0391113E1,2.2889404E0,0E0,0E0,0E0,0E0,0E0,0E0,0E0,0E0,0E0,0E0,0E0,0E0,0E0,0E0,0E0,0E0,0E0,0E0,0E0,0E0,0E0,0E0,0E0,0E0,0E0,0E0,0E0],"parents":[2147483647,0,0,1,1,2,2,3,3,4,4,5,5,6,6,7,7,8,8,9,9,10,10,11,11,12,12,13,13,14,14,16,16,17,17,18,18,19,19,20,20,21,21,22,22,23,23,24,24,25,25,26,26,28,28,29,29],"right_children":[2,4,6,8,10,12,14,16,18,20,22,24,26,28,30,-1,32,34,36,38,40,42,44,46,48,50,52,-1,54,56,-1,-1,-1,-1,-1,-1,-1,-1,-1,-1,-1,-1,-1,-1,-1,-1,-1,-1,-1,-1,-1,-1,-1,-1,-1,-1,-1],"split_conditions":[2.76799E0,5.4610243E0,4.469977E0,1.2741783E0,1.7796121E0,3.3416204E0,5.343389E0,4.123849E0,-7.373762E0,7.1926627E0,7.7253575E0,6.6196556E0,7.4096193E0,-8.978789E0,1.4174141E1,-1.3655326E-1,5.974065E-1,1.6603476E1,6.499606E0,7.5857836E-1,8.161548E0,6.3149323E0,-1.2364445E-1,1.2412085E1,8.211984E0,4.1786792E2,1.0589762E-1,-2.1429943E-2,4.5122385E2,1.7912386E2,9.3101054E-2,-1.16836525E-1,-9.284934E-2,1.9809062E-2,-2.1208739E-2,-6.891306E-2,-2.3429977E-2,-7.649363E-2,-5.387455E-2,-3.981841E-2,-1.5333223E-2,-2.502268E-2,1.3558188E-2,-3.6849983E-3,2.0075051E-2,-1.9253897E-2,2.2107808E-2,1.2140057E-2,3.6725726E-2,4.578569E-2,1.5935926E-2,3.984646E-2,5.9877034E-2,7.959375E-2,5.718069E-2,7.942673E-2,1.9065207E-2],"split_indices":[41,36,41,41,41,41,41,36,3,37,37,36,36,31,9,0,41,7,1,41,39,0,8,9,36,14,21,0,14,23,0,0,0,0,0,0,0,0,0,0,0,0,0,0,0,0,0,0,0,0,0,0,0,0,0,0,0],"split_type":[0,0,0,0,0,0,0,0,0,0,0,0,0,0,0,0,0,0,0,0,0,0,0,0,0,0,0,0,0,0,0,0,0,0,0,0,0,0,0,0,0,0,0,0,0,0,0,0,0,0,0,0,0,0,0,0,0],"sum_hessian":[6.638E3,3.316E3,3.322E3,1.278E3,2.038E3,1.368E3,1.954E3,8.83E2,3.95E2,1.164E3,8.74E2,5.46E2,8.22E2,4.8E2,1.474E3,2.92E2,5.91E2,1.5E1,3.8E2,7.8E2,3.84E2,6.35E2,2.39E2,1.97E2,3.49E2,3.15E2,5.07E2,3E0,4.77E2,5.15E2,9.59E2,2.76E2,3.15E2,8E0,7E0,3.53E2,2.7E1,2.96E2,4.84E2,1.29E2,2.55E2,5.97E2,3.8E1,1.03E2,1.36E2,1.55E2,4.2E1,2.36E2,1.13E2,1.17E2,1.98E2,3.8E2,1.27E2,9.1E1,3.86E2,5.11E2,4E0],"tree_param":{"num_deleted":"0","num_feature":"45","num_nodes":"57","size_leaf_vector":"1"}},{"base_weights":[1.3699925E-2,-1.1545496E0,1.0926758E0,-1.7236589E0,-5.3732777E-1,4.8367405E-1,1.5515088E0,-2.177109E0,-1.2192751E0,-7.651807E-1,-4.0423185E-2,-4.908361E-2,6.339993E-1,1.1739635E0,1.6731129E0,-2.554334E0,-1.8193015E0,-1.4455775E0,-8.514564E-1,-1.0059044E0,-4.5189968E-1,-5.209434E-1,1.031489E-1,-2.7252477E-1,3.028994E-1,3.3282205E-1,7.719669E-1,1.5047444E0,1.0422505E0,1.445459E0,1.758271E0,-1.5257134E-1,-1.1896967E-1,-1.0059229E-1,-8.089834E-2,-8.222788E-2,-6.187848E-2,-4.630058E-2,-1.2299248E-2,-6.494442E-2,-4.244351E-2,-3.213817E-2,-1.2821332E-2,-0E0,-3.6880266E-2,-6.660923E-3,1.667348E-2,-1.8625064E-2,1.3666952E-2,1.925243E-2,-2.9299203E-2,5.9747645E-3,3.027883E-2,6.415755E-2,3.4354918E-2,7.609496E-2,1.834388E-2,3.2957297E-2,5.7857502E-2,7.264238E-2,9.68993E-3,1.692812E-2,8.806225E-2],"categories":[],"categories_nodes":[],"categories_segments":[],"categories_sizes":[],"default_left":[0,0,0,0,0,0,0,0,0,0,0,0,0,0,0,0,0,0,0,0,0,0,0,0,0,0,0,0,0,0,0,0,0,0,0,0,0,0,0,0,0,0,0,0,0,0,0,0,0,0,0,0,0,0,0,0,0,0,0,0,0,0,0],"id":6,"left_children":[1,3,5,7,9,11,13,15,17,19,21,23,25,27,29,31,33,35,37,39,41,43,45,47,49,51,53,55,57,59,61,-1,-1,-1,-1,-1,-1,-1,-1,-1,-1,-1,-1,-1,-1,-1,-1,-1,-1,-1,-1,-1,-1,-1,-1,-1,-1,-1,-1,-1,-1,-1,-1],"loss_changes":[8.343333E3,1.1133208E3,9.5906445E2,3.6953076E2,1.7294177E2,1.18920746E2,8.385449E1,1.0250879E2,6.1752686E1,7.7524536E1,3.3593803E1,2.611963E1,4.719519E1,1.6301636E1,2.0669434E1,1.367749E1,7.510132E0,1.363855E1,1.3102875E1,2.3622437E1,1.661493E1,1.2586081E1,2.0568405E1,1.1393801E1,1.0076521E1,2.1180977E1,3.1474335E1,7.127075E-1,1.3332825E1,2.8654785E0,2.4765625E0,0E0,0E0,0E0,0E0,0E0,0E0,0E0,0E0,0E0,0E0,0E0,0E0,0E0,0E0,0E0,0E0,0E0,0E0,0E0,0E0,0E0,0E0,0E0,0E0,0E0,0E0,0E0,0E0,0E0,0E0,0E0,0E0],"parents":[2147483647,0,0,1,1,2,2,3,3,4,4,5,5,6,6,7,7,8,8,9,9,10,10,11,11,12,12,13,13,14,14,15,15,16,16,17,17,18,18,19,19,20,20,21,21,22,22,23,23,24,24,25,25,26,26,27,27,28,28,29,29,30,30],"right_children":[2,4,6,8,10,12,14,16,18,20,22,24,26,28,30,32,34,36,38,40,42,44,46,48,50,52,54,56,58,60,62,-1,-1,-1,-1,-1,-1,-1,-1,-1,-1,-1,-1,-1,-1,-1,-1,-1,-1,-1,-1,-1,-1,-1,-1,-1,-1,-1,-1,-1,-1,-1,-1],"split_conditions":[2.6871073E0,5.945144E0,4.469977E0,9.977539E-1,7.537999E0,6.6056194E0,5.343389E0,4.5265493E0,1.8035743E0,1.6569133E0,1.0715997E0,1.1958724E1,3.2810323E0,4.6218277E2,1.3343858E1,4.094643E0,4.9396345E-1,5.0197415E0,6.702827E0,6.114321E-1,6.6553783E0,5.5078148E1,8.102461E0,3.3689628E0,4.4239902E1,7.8195157E0,4.194741E2,2.5552745E0,8.062107E0,1.7912386E2,-4.6896958E-1,-1.5257134E-1,-1.1896967E-1,-1.0059229E-1,-8.089834E-2,-8.222788E-2,-6.187848E-2,-4.630058E-2,-1.2299248E-2,-6.494442E-2,-4.244351E-2,-3.213817E-2,-1.2821332E-2,-0E0,-3.6880266E-2,-6.660923E-3,1.667348E-2,-1.8625064E-2,1.3666952E-2,1.925243E-2,-2.9299203E-2,5.9747645E-3,3.027883E-2,6.415755E-2,3.4354918E-2,7.609496E-2,1.834388E-2,3.2957297E-2,5.7857502E-2,7.264238E-2,9.68993E-3,1.692812E-2,8.806225E-2],"split_indices":[41,36,41,41,36,36,41,36,41,41,41,10,41,13,10,39,41,38,0,41,36,23,36,41,30,36,14,17,37,23,21,0,0,0,0,0,0,0,0,0,0,0,0,0,0,0,0,0,0,0,0,0,0,0,0,0,0,0,0,0,0,0,0],"split_type":[0,0,0,0,0,0,0,0,0,0,0,0,0,0,0,0,0,0,0,0,0,0,0,0,0,0,0,0,0,0,0,0,0,0,0,0,0,0,0,0,0,0,0,0,0,0,0,0,0,0,0,0,0,0,0,0,0,0,0,0,0,0,0],"sum_hessian":[6.613E3,3.175E3,3.438E3,1.649E3,1.526E3,1.48E3,1.958E3,8.63E2,7.86E2,1.045E3,4.81E2,3.26E2,1.154E3,4.85E2,1.473E3,4.11E2,4.52E2,4.81E2,3.05E2,5.87E2,4.58E2,1.09E2,3.72E2,2E2,1.26E2,3.66E2,7.88E2,1.29E2,3.56E2,4.16E2,1.057E3,9.4E1,3.17E2,2.17E2,2.35E2,2.35E2,2.46E2,2.7E2,3.5E1,1.97E2,3.9E2,2.28E2,2.3E2,3.3E1,7.6E1,1.84E2,1.88E2,1.7E2,3E1,1.17E2,9E0,2.08E2,1.58E2,1.06E2,6.82E2,1.26E2,3E0,8.7E1,2.69E2,4.13E2,3E0,3E0,1.054E3],"tree_param":{"num_deleted":"0","num_feature":"45","num_nodes":"63","size_leaf_vector":"1"}},{"base_weights":[-4.6909726E-3,-1.0773299E0,1.0711762E0,-1.7896754E0,-5.871877E-1,5.1795775E-1,1.5053583E0,-2.1770217E0,-1.3184865E0,-8.3258057E-1,-1.2865055E-1,-2.1872051E-2,6.584383E-1,1.1590328E0,1.5942339E0,-2.6729295E0,-1.9681659E0,-1.4835166E0,-9.611318E-1,-1.1198319E0,-5.001551E-1,-5.4315436E-1,7.1490523E-3,-2.4311773E-1,3.1611198E-1,5.326259E-1,9.867071E-1,1.3102219E0,1.007362E0,1.4169351E0,1.6763698E0,-1.3461457E-1,-3.2751985E-2,-1.07792996E-1,-8.577841E-2,-7.5269885E-2,-1.30115915E-2,-5.38585E-2,-2.0249417E-2,-6.7130096E-2,-4.454633E-2,-2.7721334E-2,2.5431324E-2,-3.94143E-2,-1.3451214E-2,-7.41311E-3,1.3067807E-2,2.4397973E-2,-1.656405E-2,3.0216277E-2,-6.3705384E-3,1.5750902E-2,4.1023567E-2,6.004381E-2,3.3992685E-2,5.3966157E-3,6.6390395E-2,-1.6846418E-2,5.230677E-2,7.125813E-2,1.9126166E-2,3.085267E-2,8.4153704E-2],"categories":[],"categories_nodes":[],"categories_segments":[],"categories_sizes":[],"default_left":[0,0,0,0,0,0,0,0,0,0,0,0,0,0,0,0,0,0,0,0,0,0,0,0,0,0,0,0,0,0,0,0,0,0,0,0,0,0,0,0,0,0,0,0,0,0,0,0,0,0,0,0,0,0,0,0,0,0,0,0,0,0,0],"id":7,"left_children":[1,3,5,7,9,11,13,15,17,19,21,23,25,27,29,31,33,35,37,39,41,43,45,47,49,51,53,55,57,59,61,-1,-1,-1,-1,-1,-1,-1,-1,-1,-1,-1,-1,-1,-1,-1,-1,-1,-1,-1,-1,-1,-1,-1,-1,-1,-1,-1,-1,-1,-1,-1,-1],"loss_changes":[7.618821E3,1.1509014E3,7.8915015E2,2.3670215E2,2.204627E2,1.10371826E2,5.0969727E1,5.9776367E1,3.174707E1,1.201936E2,3.879239E1,2.2880844E1,4.5931976E1,4.7058716E0,1.3826172E1,2.5402832E0,1.3550537E1,9.756348E0,1.1643463E1,3.101654E1,3.358998E1,1.0681717E1,2.0710518E1,1.2393308E1,1.5746023E1,5.178914E1,1.81297E1,3.3168945E0,1.191777E1,2.2857666E0,3.621338E0,0E0,0E0,0E0,0E0,0E0,0E0,0E0,0E0,0E0,0E0,0E0,0E0,0E0,0E0,0E0,0E0,0E0,0E0,0E0,0E0,0E0,0E0,0E0,0E0,0E0,0E0,0E0,0E0,0E0,0E0,0E0,0E0],"parents":[2147483647,0,0,1,1,2,2,3,3,4,4,5,5,6,6,7,7,8,8,9,9,10,10,11,11,12,12,13,13,14,14,15,15,16,16,17,17,18,18,19,19,20,20,21,21,22,22,23,23,24,24,25,25,26,26,27,27,28,28,29,29,30,30],"right_children":[2,4,6,8,10,12,14,16,18,20,22,24,26,28,30,32,34,36,38,40,42,44,46,48,50,52,54,56,58,60,62,-1,-1,-1,-1,-1,-1,-1,-1,-1,-1,-1,-1,-1,-1,-1,-1,-1,-1,-1,-1,-1,-1,-1,-1,-1,-1,-1,-1,-1,-1,-1,-1],"split_conditions":[2.76799E0,5.525336E0,4.632522E0,9.3939185E-1,7.234555E0,6.6196556E0,5.343389E0,3.9497259E0,1.7630099E0,1.6569133E0,1.0715997E0,1.3480564E1,1.1114957E1,2.3808808E0,1.3876005E1,2.9938065E1,5.5240736E0,6.226201E0,1.484484E2,6.356282E0,6.5461917E0,5.2748475E0,8.102461E0,1.0456318E-1,6.446459E-1,8.338614E0,4.4810486E2,3.4772936E-2,2.442893E0,4.7449867E1,7.93398E0,-1.3461457E-1,-3.2751985E-2,-1.07792996E-1,-8.577841E-2,-7.5269885E-2,-1.30115915E-2,-5.38585E-2,-2.0249417E-2,-6.7130096E-2,-4.454633E-2,-2.7721334E-2,2.5431324E-2,-3.94143E-2,-1.3451214E-2,-7.41311E-3,1.3067807E-2,2.4397973E-2,-1.656405E-2,3.0216277E-2,-6.3705384E-3,1.5750902E-2,4.1023567E-2,6.004381E-2,3.3992685E-2,5.3966157E-3,6.6390395E-2,-1.6846418E-2,5.230677E-2,7.125813E-2,1.9126166E-2,3.085267E-2,8.4153704E-2],"split_indices":[41,36,41,41,36,36,41,36,41,41,41,11,9,18,9,16,39,3,23,36,2,11,36,26,26,36,13,25,18,34,39,0,0,0,0,0,0,0,0,0,0,0,0,0,0,0,0,0,0,0,0,0,0,0,0,0,0,0,0,0,0,0,0],"split_type":[0,0,0,0,0,0,0,0,0,0,0,0,0,0,0,0,0,0,0,0,0,0,0,0,0,0,0,0,0,0,0,0,0,0,0,0,0,0,0,0,0,0,0,0,0,0,0,0,0,0,0,0,0,0,0,0,0,0,0,0,0,0,0],"sum_hessian":[6.596E3,3.303E3,3.293E3,1.343E3,1.96E3,1.451E3,1.842E3,7.31E2,6.12E2,1.275E3,6.85E2,3E2,1.151E3,3.85E2,1.457E3,2.06E2,5.25E2,4.12E2,2E2,6.8E2,5.95E2,1.67E2,5.18E2,1.82E2,1.18E2,8.38E2,3.13E2,1.81E2,2.04E2,4.79E2,9.78E2,2.03E2,3E0,2.88E2,2.37E2,4.04E2,8E0,1.63E2,3.7E1,3.37E2,3.43E2,5.66E2,2.9E1,8.5E1,8.2E1,3.22E2,1.96E2,1.8E1,1.64E2,7.1E1,4.7E1,4.81E2,3.57E2,1.79E2,1.34E2,3E0,1.78E2,5E0,1.99E2,4.74E2,5E0,8E0,9.7E2],"tree_param":{"num_deleted":"0","num_feature":"45","num_nodes":"63","size_leaf_vector":"1"}},{"base_weights":[5.653982E-3,-1.0449085E0,9.8305357E-1,-1.5828352E0,-4.876547E-1,4.4451827E-1,1.4136361E0,-1.8866119E0,-1.0469915E0,-6.492573E-1,8.422903E-2,1.3875103E-1,6.230888E-1,1.1719238E0,1.5469062E0,-2.3375273E0,-1.6923496E0,-1.2108097E0,-7.1219575E-1,-1.1290667E0,-4.8830754E-1,-4.509612E-1,2.0387635E-1,1.199301E-2,5.1716167E-1,3.3574384E-1,7.1104497E-1,8.8744754E-1,1.2556229E0,1.3379835E0,1.6069595E0,-1.18525505E-1,-4.7249064E-2,-9.744807E-2,-7.570066E-2,-7.234285E-2,-5.0357606E-2,-1.993862E-2,-4.7984883E-2,-6.6191584E-2,-4.1739926E-2,-3.549173E-2,-1.6064808E-2,-4.170874E-2,-6.0541474E-4,-7.0985206E-3,1.627229E-2,5.2158613E-2,-1.6561061E-3,3.484233E-2,8.8743E-3,5.663616E-3,4.0891837E-2,6.562177E-2,3.30407E-2,5.2151557E-2,2.2502614E-2,6.332296E-2,1.5597415E-2,1.0160945E-3,6.8272404E-2,1.7303422E-2,8.049169E-2],"categories":[],"categories_nodes":[],"categories_segments":[],"categories_sizes":[],"default_left":[0,0,0,0,0,0,0,0,0,0,0,0,0,0,0,0,0,0,0,0,0,0,0,0,0,0,0,0,0,0,0,0,0,0,0,0,0,0,0,0,0,0,0,0,0,0,0,0,0,0,0,0,0,0,0,0,0,0,0,0,0,0,0],"id":8,"left_children":[1,3,5,7,9,11,13,15,17,19,21,23,25,27,29,31,33,35,37,39,41,43,45,47,49,51,53,55,57,59,61,-1,-1,-1,-1,-1,-1,-1,-1,-1,-1,-1,-1,-1,-1,-1,-1,-1,-1,-1,-1,-1,-1,-1,-1,-1,-1,-1,-1,-1,-1,-1,-1],"loss_changes":[6.743118E3,9.4622314E2,7.867981E2,2.5568896E2,1.4430011E2,8.2439606E1,5.5140137E1,7.733984E1,2.952478E1,9.209009E1,2.2406902E1,2.6933666E1,2.3340912E1,1.2729126E1,8.411377E0,6.727173E0,2.4025635E1,1.4179443E1,1.4308189E1,1.3834625E1,3.3102417E1,1.0648233E1,1.2139615E1,1.9976421E1,8.147404E0,2.4296923E1,1.9222809E1,9.738998E0,3.9846802E0,1.0200684E1,1.4782715E0,0E0,0E0,0E0,0E0,0E0,0E0,0E0,0E0,0E0,0E0,0E0,0E0,0E0,0E0,0E0,0E0,0E0,0E0,0E0,0E0,0E0,0E0,0E0,0E0,0E0,0E0,0E0,0E0,0E0,0E0,0E0,0E0],"parents":[2147483647,0,0,1,1,2,2,3,3,4,4,5,5,6,6,7,7,8,8,9,9,10,10,11,11,12,12,13,13,14,14,15,15,16,16,17,17,18,18,19,19,20,20,21,21,22,22,23,23,24,24,25,25,26,26,27,27,28,28,29,29,30,30],"right_children":[2,4,6,8,10,12,14,16,18,20,22,24,26,28,30,32,34,36,38,40,42,44,46,48,50,52,54,56,58,60,62,-1,-1,-1,-1,-1,-1,-1,-1,-1,-1,-1,-1,-1,-1,-1,-1,-1,-1,-1,-1,-1,-1,-1,-1,-1,-1,-1,-1,-1,-1,-1,-1],"split_conditions":[2.6871073E0,5.927221E0,4.5010505E0,1.2741783E0,7.7593822E0,3.2542589E0,1.3199107E1,4.123849E0,2.0166686E0,8.097936E-1,9.245031E-1,7.8540387E0,6.940864E0,8.602478E0,8.758128E0,2.2173762E0,4.9396345E-1,5.0722194E0,3.7016174E2,6.960881E0,6.6056194E0,1.1859117E0,-3.1095383E-1,-9.822139E0,3.3904316E0,1.516848E1,-9.6150255E0,5.9981995E2,1.0635115E0,1.3480564E1,4.994023E0,-1.18525505E-1,-4.7249064E-2,-9.744807E-2,-7.570066E-2,-7.234285E-2,-5.0357606E-2,-1.993862E-2,-4.7984883E-2,-6.6191584E-2,-4.1739926E-2,-3.549173E-2,-1.6064808E-2,-4.170874E-2,-6.0541474E-4,-7.0985206E-3,1.627229E-2,5.2158613E-2,-1.6561061E-3,3.484233E-2,8.8743E-3,5.663616E-3,4.0891837E-2,6.562177E-2,3.30407E-2,5.2151557E-2,2.2502614E-2,6.332296E-2,1.5597415E-2,1.0160945E-3,6.8272404E-2,1.7303422E-2,8.049169E-2],"split_indices":[41,36,41,41,36,41,10,36,41,41,41,36,36,36,36,4,41,38,13,36,36,6,8,3,3,11,1,13,8,11,41,0,0,0,0,0,0,0,0,0,0,0,0,0,0,0,0,0,0,0,0,0,0,0,0,0,0,0,0,0,0,0,0],"split_type":[0,0,0,0,0,0,0,0,0,0,0,0,0,0,0,0,0,0,0,0,0,0,0,0,0,0,0,0,0,0,0,0,0,0,0,0,0,0,0,0,0,0,0,0,0,0,0,0,0,0,0,0,0,0,0,0,0,0,0,0,0,0,0],"sum_hessian":[6.561E3,3.162E3,3.399E3,1.606E3,1.556E3,1.513E3,1.886E3,1.02E3,5.86E2,1.213E3,3.43E2,5.6E2,9.53E2,6.81E2,1.205E3,2.97E2,7.23E2,3.88E2,1.98E2,3E2,9.13E2,6.1E1,2.82E2,4.22E2,1.38E2,2.27E2,7.26E2,1.63E2,5.18E2,2.85E2,9.2E2,2.88E2,9E0,2.84E2,4.39E2,1.71E2,2.17E2,9.1E1,1.07E2,1.74E2,1.26E2,3.88E2,5.25E2,3.1E1,3E1,7.3E1,2.09E2,1.5E1,4.07E2,8.8E1,5E1,1.58E2,6.9E1,5E1,6.76E2,1.17E2,4.6E1,5.11E2,7E0,6E0,2.79E2,3E0,9.17E2],"tree_param":{"num_deleted":"0","num_feature":"45","num_nodes":"63","size_leaf_vector":"1"}},{"base_weights":[-1.3895248E-2,-1.0232642E0,9.391678E-1,-1.6833681E0,-6.239987E-1,3.46907E-1,1.2881106E0,-2.0461996E0,-1.1783617E0,-8.6370754E-1,-2.1014656E-1,1.0810551E-1,5.7264495E-1,9.9430084E-1,1.4556805E0,-2.6942358E0,-1.9427791E0,-1.3550442E0,-7.516684E-1,-1.0678538E0,-5.1397014E-1,-7.0560753E-1,-8.256182E-2,-4.829107E-2,5.2629685E-1,3.6053878E-1,6.75266E-1,9.098942E-1,1.2504281E0,1.1288923E0,1.4958735E0,-1.388945E-1,-5.9499998E-2,-9.755862E-2,-4.7200075E-3,-7.158745E-2,-3.8164914E-2,-5.405772E-3,-4.290837E-2,-7.3967956E-2,-4.9593803E-2,-2.8352538E-2,4.4774557E-3,-3.8222708E-2,2.3655346E-2,-8.520148E-3,1.1931221E-2,-2.2365315E-2,2.0604E-3,-1.821259E-3,3.36869E-2,-6.7989915E-3,2.2080492E-2,2.9928485E-2,4.7302432E-2,4.7660846E-2,2.4804179E-2,3.4452714E-2,6.635738E-2,5.76818E-2,-3.729748E-3,7.025645E-2,7.8816906E-2],"categories":[],"categories_nodes":[],"categories_segments":[],"categories_sizes":[],"default_left":[0,0,0,0,0,0,0,0,0,0,0,0,0,0,0,0,0,0,0,0,0,0,0,0,0,0,0,0,0,0,0,0,0,0,0,0,0,0,0,0,0,0,0,0,0,0,0,0,0,0,0,0,0,0,0,0,0,0,0,0,0,0,0],"id":9,"left_children":[1,3,5,7,9,11,13,15,17,19,21,23,25,27,29,31,33,35,37,39,41,43,45,47,49,51,53,55,57,59,61,-1,-1,-1,-1,-1,-1,-1,-1,-1,-1,-1,-1,-1,-1,-1,-1,-1,-1,-1,-1,-1,-1,-1,-1,-1,-1,-1,-1,-1,-1,-1,-1],"loss_changes":[6.405912E3,8.4896045E2,7.06324E2,2.1543774E2,1.9974023E2,6.842317E1,1.0146216E2,3.101538E1,3.5634583E1,8.9441345E1,4.6840286E1,4.0870552E1,1.3401398E1,1.3492859E1,1.25998535E1,8.855591E-1,8.830566E0,1.2887634E1,1.0453995E1,2.048816E1,1.5480858E1,1.1657379E1,1.6930328E1,1.638035E1,1.4241978E1,9.066439E0,7.222351E0,9.31839E0,5.1517944E0,5.1902313E0,1.8630371E0,0E0,0E0,0E0,0E0,0E0,0E0,0E0,0E0,0E0,0E0,0E0,0E0,0E0,0E0,0E0,0E0,0E0,0E0,0E0,0E0,0E0,0E0,0E0,0E0,0E0,0E0,0E0,0E0,0E0,0E0,0E0,0E0],"parents":[2147483647,0,0,1,1,2,2,3,3,4,4,5,5,6,6,7,7,8,8,9,9,10,10,11,11,12,12,13,13,14,14,15,15,16,16,17,17,18,18,19,19,20,20,21,21,22,22,23,23,24,24,25,25,26,26,27,27,28,28,29,29,30,30],"right_children":[2,4,6,8,10,12,14,16,18,20,22,24,26,28,30,32,34,36,38,40,42,44,46,48,50,52,54,56,58,60,62,-1,-1,-1,-1,-1,-1,-1,-1,-1,-1,-1,-1,-1,-1,-1,-1,-1,-1,-1,-1,-1,-1,-1,-1,-1,-1,-1,-1,-1,-1,-1,-1],"split_conditions":[2.6871073E0,5.3916435E0,4.182017E0,9.789829E-1,7.1340513E0,7.215503E0,5.5863447E0,4.094643E0,1.8378189E0,1.7796121E0,8.097936E-1,1.4143489E1,3.2542589E0,1.4089315E1,1.185339E1,6.071918E0,8.014378E0,5.5460815E0,1.4003585E-1,2.732913E0,1.0609701E1,3.554432E-1,8.443121E0,6.0234394E0,5.9070015E0,6.942825E0,1.0792061E1,8.802281E-1,6.9690742E0,4.7449867E1,1.6077114E1,-1.388945E-1,-5.9499998E-2,-9.755862E-2,-4.7200075E-3,-7.158745E-2,-3.8164914E-2,-5.405772E-3,-4.290837E-2,-7.3967956E-2,-4.9593803E-2,-2.8352538E-2,4.4774557E-3,-3.8222708E-2,2.3655346E-2,-8.520148E-3,1.1931221E-2,-2.2365315E-2,2.0604E-3,-1.821259E-3,3.36869E-2,-6.7989915E-3,2.2080492E-2,2.9928485E-2,4.7302432E-2,4.7660846E-2,2.4804179E-2,3.4452714E-2,6.635738E-2,5.76818E-2,-3.729748E-3,7.025645E-2,7.8816906E-2],"split_indices":[41,37,41,41,37,37,41,39,41,41,41,11,41,9,9,10,10,38,25,9,9,4,37,37,38,34,9,33,38,34,9,0,0,0,0,0,0,0,0,0,0,0,0,0,0,0,0,0,0,0,0,0,0,0,0,0,0,0,0,0,0,0,0],"split_type":[0,0,0,0,0,0,0,0,0,0,0,0,0,0,0,0,0,0,0,0,0,0,0,0,0,0,0,0,0,0,0,0,0,0,0,0,0,0,0,0,0,0,0,0,0,0,0,0,0,0,0,0,0,0,0,0,0,0,0,0,0,0,0],"sum_hessian":[6.653E3,3.231E3,3.422E3,1.214E3,2.017E3,1.271E3,2.151E3,7.01E2,5.13E2,1.275E3,7.42E2,6.2E2,6.51E2,7.89E2,1.362E3,8.6E1,6.15E2,3.58E2,1.55E2,8.01E2,4.74E2,1.49E2,5.93E2,4.53E2,1.67E2,2.17E2,4.34E2,6.04E2,1.85E2,1.59E2,1.203E3,7.9E1,7E0,6.12E2,3E0,3.13E2,4.5E1,2.3E1,1.32E2,1.16E2,6.85E2,4.36E2,3.8E1,1.43E2,6E0,4.67E2,1.26E2,8.1E1,3.72E2,3.5E1,1.32E2,3E1,1.87E2,3.46E2,8.8E1,5.43E2,6.1E1,2.6E1,1.59E2,1.56E2,3E0,5.92E2,6.11E2],"tree_param":{"num_deleted":"0","num_feature":"45","num_nodes":"63","size_leaf_vector":"1"}},{"base_weights":[-2.5719441E-3,-9.469755E-1,8.842831E-1,-1.6455555E0,-5.923742E-1,3.340183E-1,1.2232476E0,-1.8508584E0,-1.0544752E0,-8.28692E-1,-1.4156085E-1,-1.6890675E-2,4.5330194E-1,8.6180234E-1,1.3331078E0,-2.25733E0,-1.6895924E0,-1.1860523E0,-5.8956456E-1,-1.166371E0,-6.482073E-1,-9.8560834E-1,-8.6155355E-2,1.511899E-1,-3.7374046E-1,3.158305E-1,6.113575E-1,1.1319023E0,7.175268E-1,1.1958936E0,1.4517996E0,-1.1396003E-1,-3.0506367E-2,-9.315255E-2,-7.362103E-2,-4.4804914E-3,-6.0760327E-2,1.5210125E-2,-3.6169004E-2,-6.528888E-2,-4.2123068E-2,-4.152845E-2,-2.4038764E-2,-5.607375E-2,2.2079797E-2,-1.0251272E-2,7.978941E-3,-9.9043725E-3,1.3548759E-2,-2.8714715E-2,3.6223629E-3,3.1664234E-2,3.7669202E-3,2.756503E-2,4.8981734E-2,7.219712E-3,5.8249064E-2,3.9220396E-2,9.627076E-3,2.0231446E-2,6.023111E-2,1.6103227E-2,7.2793804E-2],"categories":[],"categories_nodes":[],"categories_segments":[],"categories_sizes":[],"default_left":[0,0,0,0,0,0,0,0,0,0,0,0,0,0,0,0,0,0,0,0,0,0,0,0,0,0,0,0,0,0,0,0,0,0,0,0,0,0,0,0,0,0,0,0,0,0,0,0,0,0,0,0,0,0,0,0,0,0,0,0,0,0,0],"id":10,"left_children":[1,3,5,7,9,11,13,15,17,19,21,23,25,27,29,31,33,35,37,39,41,43,45,47,49,51,53,55,57,59,61,-1,-1,-1,-1,-1,-1,-1,-1,-1,-1,-1,-1,-1,-1,-1,-1,-1,-1,-1,-1,-1,-1,-1,-1,-1,-1,-1,-1,-1,-1,-1,-1],"loss_changes":[5.546256E3,7.912815E2,6.355847E2,1.24670166E2,2.2668427E2,5.4732758E1,8.0198E1,4.034131E1,1.515863E1,8.275275E1,3.4103786E1,2.022493E1,2.0512955E1,1.6901917E1,2.08125E1,3.3568115E0,1.3360962E1,6.5433655E0,8.9544735E0,1.8294922E1,2.6700378E1,1.0279633E1,2.0403954E1,9.749286E0,9.839345E0,4.009628E1,8.179596E0,4.884918E0,1.1211578E1,3.6673584E0,2.3345947E0,0E0,0E0,0E0,0E0,0E0,0E0,0E0,0E0,0E0,0E0,0E0,0E0,0E0,0E0,0E0,0E0,0E0,0E0,0E0,0E0,0E0,0E0,0E0,0E0,0E0,0E0,0E0,0E0,0E0,0E0,0E0,0E0],"parents":[2147483647,0,0,1,1,2,2,3,3,4,4,5,5,6,6,7,7,8,8,9,9,10,10,11,11,12,12,13,13,14,14,15,15,16,16,17,17,18,18,19,19,20,20,21,21,22,22,23,23,24,24,25,25,26,26,27,27,28,28,29,29,30,30],"right_children":[2,4,6,8,10,12,14,16,18,20,22,24,26,28,30,32,34,36,38,40,42,44,46,48,50,52,54,56,58,60,62,-1,-1,-1,-1,-1,-1,-1,-1,-1,-1,-1,-1,-1,-1,-1,-1,-1,-1,-1,-1,-1,-1,-1,-1,-1,-1,-1,-1,-1,-1,-1,-1],"split_conditions":[2.6871073E0,5.238998E0,4.182017E0,1.2455438E0,7.141657E0,6.6196556E0,5.0546994E0,3.892917E0,9.238835E0,1.0476581E0,2.5993466E-1,4.4701895E2,7.8669934E0,4.9318866E2,1.4900329E1,2.4456246E0,6.398401E-1,-6.126492E-1,1.0033614E-1,6.4884157E0,6.9032354E0,1.805494E0,8.102461E0,5.830513E0,3.3110785E0,5.130508E2,5.7385755E0,6.5921803E0,8.8363373E-1,8.023106E0,3.1880455E-3,-1.1396003E-1,-3.0506367E-2,-9.315255E-2,-7.362103E-2,-4.4804914E-3,-6.0760327E-2,1.5210125E-2,-3.6169004E-2,-6.528888E-2,-4.2123068E-2,-4.152845E-2,-2.4038764E-2,-5.607375E-2,2.2079797E-2,-1.0251272E-2,7.978941E-3,-9.9043725E-3,1.3548759E-2,-2.8714715E-2,3.6223629E-3,3.1664234E-2,3.7669202E-3,2.756503E-2,4.8981734E-2,7.219712E-3,5.8249064E-2,3.9220396E-2,9.627076E-3,2.0231446E-2,6.023111E-2,1.6103227E-2,7.2793804E-2],"split_indices":[41,36,41,41,36,36,41,36,10,41,41,14,36,14,10,42,41,12,26,36,39,3,36,36,41,14,1,36,33,39,24,0,0,0,0,0,0,0,0,0,0,0,0,0,0,0,0,0,0,0,0,0,0,0,0,0,0,0,0,0,0,0,0],"split_type":[0,0,0,0,0,0,0,0,0,0,0,0,0,0,0,0,0,0,0,0,0,0,0,0,0,0,0,0,0,0,0,0,0,0,0,0,0,0,0,0,0,0,0,0,0,0,0,0,0,0,0,0,0,0,0,0,0,0,0,0,0,0,0],"sum_hessian":[6.616E3,3.204E3,3.412E3,1.075E3,2.129E3,1.303E3,2.109E3,7.93E2,2.82E2,1.395E3,7.34E2,3.31E2,9.72E2,4.98E2,1.611E3,2.14E2,5.79E2,2.16E2,6.6E1,4.8E2,9.15E2,4.2E1,6.92E2,2.26E2,1.05E2,5.25E2,4.47E2,1.66E2,3.32E2,7.63E2,8.48E2,2.1E2,4E0,3.09E2,2.7E2,6E0,2.1E2,8E0,5.8E1,3.29E2,1.51E2,4.32E2,4.83E2,3.9E1,3E0,4.67E2,2.25E2,5.7E1,1.69E2,7.2E1,3.3E1,2.24E2,3.01E2,3.91E2,5.6E1,6E0,1.6E2,2.93E2,3.9E1,1E1,7.53E2,4E0,8.44E2],"tree_param":{"num_deleted":"0","num_feature":"45","num_nodes":"63","size_leaf_vector":"1"}},{"base_weights":[8.319003E-3,-8.791637E-1,8.7161744E-1,-1.616462E0,-5.940979E-1,4.0094778E-1,1.2232733E0,-1.8348371E0,-1.1714681E0,-8.5920215E-1,-2.7634E-1,1.0440515E-1,5.624009E-1,1.0402868E0,1.3573858E0,-2.0172398E0,-1.5778782E0,-1.4548862E0,-9.5466435E-1,-1.0496151E0,-4.7571647E-1,-6.098323E-1,-1.2505041E-1,-2.6025074E-2,6.329868E-1,1.2950888E0,5.1743245E-1,7.940632E-1,1.1335198E0,9.266263E-1,1.3768148E0,-5.630402E-2,-1.04108535E-1,-5.961693E-2,-8.85282E-2,-7.75923E-2,-6.065726E-3,-1.959222E-4,-5.1919438E-2,-6.1413985E-2,-4.2804483E-2,-2.6903559E-2,1.2785527E-2,-4.8676416E-2,-2.2403164E-2,-1.1947822E-2,9.643252E-3,-2.9967193E-2,2.0682788E-3,-1.5179135E-3,3.7477646E-2,1.7507663E-2,6.647316E-2,1.99455E-2,3.6585353E-2,4.3579426E-2,1.7122181E-2,5.7026643E-2,8.98036E-3,-2.4224783E-3,5.1255096E-2,1.0378643E-2,6.902994E-2],"categories":[],"categories_nodes":[],"categories_segments":[],"categories_sizes":[],"default_left":[0,0,0,0,0,0,0,0,0,0,0,0,0,0,0,0,0,0,0,0,0,0,0,0,0,0,0,0,0,0,0,0,0,0,0,0,0,0,0,0,0,0,0,0,0,0,0,0,0,0,0,0,0,0,0,0,0,0,0,0,0,0,0],"id":11,"left_children":[1,3,5,7,9,11,13,15,17,19,21,23,25,27,29,31,33,35,37,39,41,43,45,47,49,51,53,55,57,59,61,-1,-1,-1,-1,-1,-1,-1,-1,-1,-1,-1,-1,-1,-1,-1,-1,-1,-1,-1,-1,-1,-1,-1,-1,-1,-1,-1,-1,-1,-1,-1,-1],"loss_changes":[5.0980444E3,6.864934E2,5.5664404E2,8.197241E1,1.9890472E2,6.9036194E1,4.2863037E1,1.8541748E1,1.4579132E1,9.261914E1,5.4339317E1,3.5546833E1,2.8647522E1,1.6137634E1,5.173584E0,1.2550293E1,1.3130981E1,1.5818665E1,1.4530075E1,2.6372498E1,2.0234833E1,1.8376541E1,2.7266022E1,1.6164248E1,8.027187E0,1.2453461E-1,2.1537857E1,7.31604E0,3.227234E0,5.7198677E0,3.6225586E0,0E0,0E0,0E0,0E0,0E0,0E0,0E0,0E0,0E0,0E0,0E0,0E0,0E0,0E0,0E0,0E0,0E0,0E0,0E0,0E0,0E0,0E0,0E0,0E0,0E0,0E0,0E0,0E0,0E0,0E0,0E0,0E0],"parents":[2147483647,0,0,1,1,2,2,3,3,4,4,5,5,6,6,7,7,8,8,9,9,10,10,11,11,12,12,13,13,14,14,15,15,16,16,17,17,18,18,19,19,20,20,21,21,22,22,23,23,24,24,25,25,26,26,27,27,28,28,29,29,30,30],"right_children":[2,4,6,8,10,12,14,16,18,20,22,24,26,28,30,32,34,36,38,40,42,44,46,48,50,52,54,56,58,60,62,-1,-1,-1,-1,-1,-1,-1,-1,-1,-1,-1,-1,-1,-1,-1,-1,-1,-1,-1,-1,-1,-1,-1,-1,-1,-1,-1,-1,-1,-1,-1,-1],"split_conditions":[2.7483234E0,5.061666E0,4.5010505E0,1.0274867E0,6.6873703E0,7.0344024E0,1.4001962E1,4.3609586E0,4.533561E0,1.8611197E0,1.1216707E0,1.516848E1,-9.666227E0,5.0546994E0,7.6246777E0,-1.9523147E-1,1.462259E0,9.706897E0,7.721867E-2,1.0476581E0,6.7283998E0,3.512456E-1,8.102461E0,9.439848E0,5.9621935E0,-2.0925643E-1,8.526863E0,8.604705E-1,4.7449867E1,1.5530661E1,-4.6896958E-1,-5.630402E-2,-1.04108535E-1,-5.961693E-2,-8.85282E-2,-7.75923E-2,-6.065726E-3,-1.959222E-4,-5.1919438E-2,-6.1413985E-2,-4.2804483E-2,-2.6903559E-2,1.2785527E-2,-4.8676416E-2,-2.2403164E-2,-1.1947822E-2,9.643252E-3,-2.9967193E-2,2.0682788E-3,-1.5179135E-3,3.7477646E-2,1.7507663E-2,6.647316E-2,1.99455E-2,3.6585353E-2,4.3579426E-2,1.7122181E-2,5.7026643E-2,8.98036E-3,-2.4224783E-3,5.1255096E-2,1.0378643E-2,6.902994E-2],"split_indices":[41,36,41,41,36,36,9,36,37,41,41,11,2,41,37,20,18,9,26,41,2,41,36,11,36,21,36,33,34,11,21,0,0,0,0,0,0,0,0,0,0,0,0,0,0,0,0,0,0,0,0,0,0,0,0,0,0,0,0,0,0,0,0],"split_type":[0,0,0,0,0,0,0,0,0,0,0,0,0,0,0,0,0,0,0,0,0,0,0,0,0,0,0,0,0,0,0,0,0,0,0,0,0,0,0,0,0,0,0,0,0,0,0,0,0,0,0,0,0,0,0,0,0,0,0,0,0,0,0],"sum_hessian":[6.648E3,3.278E3,3.37E3,9.1E2,2.368E3,1.444E3,1.926E3,6.04E2,3.06E2,1.288E3,1.08E3,5.11E2,9.33E2,8.26E2,1.1E3,3.41E2,2.63E2,1.25E2,1.81E2,8.57E2,4.31E2,3.34E2,7.46E2,4.12E2,9.9E1,4.9E1,8.84E2,2.35E2,5.91E2,5.4E1,1.046E3,2.7E1,3.14E2,9.5E1,1.68E2,1.16E2,9E0,1.5E1,1.66E2,4.37E2,4.2E2,3.98E2,3.3E1,9.8E1,2.36E2,5.5E2,1.96E2,4.1E1,3.71E2,1.5E1,8.4E1,3E0,4.6E1,5.75E2,3.09E2,1.98E2,3.7E1,5.86E2,5E0,5E0,4.9E1,4E0,1.042E3],"tree_param":{"num_deleted":"0","num_feature":"45","num_nodes":"63","size_leaf_vector":"1"}},{"base_weights":[-7.4884854E-3,-8.2914054E-1,8.233498E-1,-1.2633486E0,-3.7558043E-1,3.5206923E-1,1.1186081E0,-1.5941792E0,-8.816254E-1,-5.9668183E-1,-8.060654E-2,1.8930301E-1,5.866577E-1,8.3373076E-1,1.233682E0,-2.062024E0,-1.4383867E0,-1.0269116E0,-4.854609E-1,-8.186768E-1,-2.628003E-1,-1.3026306E-1,5.7570964E-1,7.96854E-2,5.3687376E-1,4.8656493E-1,8.193849E-1,6.5815926E-2,7.788676E-1,1.1385014E0,1.3505113E0,-1.3691984E-2,-1.0412494E-1,-7.747356E-2,-5.892381E-2,-6.1794937E-2,-4.505307E-2,-1.6744738E-2,-4.2157333E-2,-5.6486674E-2,-3.615705E-2,-1.6880436E-2,7.4449033E-3,-7.0856477E-4,-1.5427845E-2,3.900639E-2,-2.5312405E-3,-1.9899705E-2,7.4429363E-3,2.8731529E-2,-4.1750725E-2,3.240712E-2,1.5332602E-2,4.7440536E-2,8.441993E-3,1.6190493E-2,4.065647E-2,1.2723061E-2,5.7255812E-2,6.773213E-2,1.1377978E-2],"categories":[],"categories_nodes":[],"categories_segments":[],"categories_sizes":[],"default_left":[0,0,0,0,0,0,0,0,0,0,0,0,0,0,0,0,0,0,0,0,0,0,0,0,0,0,0,0,0,0,0,0,0,0,0,0,0,0,0,0,0,0,0,0,0,0,0,0,0,0,0,0,0,0,0,0,0,0,0,0,0],"id":12,"left_children":[1,3,5,7,9,11,13,15,17,19,21,23,25,27,29,31,33,35,37,39,41,43,45,47,49,51,53,-1,55,57,59,-1,-1,-1,-1,-1,-1,-1,-1,-1,-1,-1,-1,-1,-1,-1,-1,-1,-1,-1,-1,-1,-1,-1,-1,-1,-1,-1,-1,-1,-1],"loss_changes":[4.5321797E3,6.557964E2,4.580039E2,2.107268E2,1.0655173E2,4.8310852E1,6.3189453E1,5.7006104E1,4.4283875E1,6.8548645E1,2.3156654E1,2.8689709E1,1.0809677E1,1.2415192E1,1.1128662E1,6.1084595E0,1.4228638E1,1.1726318E1,1.08832855E1,1.4005432E1,1.1811514E1,1.3574185E1,6.5931377E0,1.9317577E1,1.0788887E1,1.0122253E1,1.2205635E1,0E0,7.5155945E0,3.734253E0,1.835083E0,0E0,0E0,0E0,0E0,0E0,0E0,0E0,0E0,0E0,0E0,0E0,0E0,0E0,0E0,0E0,0E0,0E0,0E0,0E0,0E0,0E0,0E0,0E0,0E0,0E0,0E0,0E0,0E0,0E0,0E0],"parents":[2147483647,0,0,1,1,2,2,3,3,4,4,5,5,6,6,7,7,8,8,9,9,10,10,11,11,12,12,13,13,14,14,15,15,16,16,17,17,18,18,19,19,20,20,21,21,22,22,23,23,24,24,25,25,26,26,28,28,29,29,30,30],"right_children":[2,4,6,8,10,12,14,16,18,20,22,24,26,28,30,32,34,36,38,40,42,44,46,48,50,52,54,-1,56,58,60,-1,-1,-1,-1,-1,-1,-1,-1,-1,-1,-1,-1,-1,-1,-1,-1,-1,-1,-1,-1,-1,-1,-1,-1,-1,-1,-1,-1,-1,-1],"split_conditions":[2.76799E0,5.9951806E0,4.297479E0,1.0274867E0,1.7796121E0,7.699504E0,5.343389E0,3.9372344E0,2.0575206E0,7.2334476E0,8.792422E0,1.4399856E1,1.1079081E1,3.9651254E2,1.6077114E1,2.3143604E-2,7.009284E-1,4.8333383E0,4.4497934E2,2.034587E0,1.9317697E-1,3.133941E0,7.3339534E-1,6.0234394E0,4.7076935E1,5.2548665E-1,3.1418118E-1,6.5815926E-2,-8.5073847E-1,7.6246777E0,9.9087757E-1,-1.3691984E-2,-1.0412494E-1,-7.747356E-2,-5.892381E-2,-6.1794937E-2,-4.505307E-2,-1.6744738E-2,-4.2157333E-2,-5.6486674E-2,-3.615705E-2,-1.6880436E-2,7.4449033E-3,-7.0856477E-4,-1.5427845E-2,3.900639E-2,-2.5312405E-3,-1.9899705E-2,7.4429363E-3,2.8731529E-2,-4.1750725E-2,3.240712E-2,1.5332602E-2,4.7440536E-2,8.441993E-3,1.6190493E-2,4.065647E-2,1.2723061E-2,5.7255812E-2,6.773213E-2,1.1377978E-2],"split_indices":[41,37,41,41,41,37,41,37,41,37,37,11,11,14,9,25,41,37,14,42,5,2,44,37,30,33,40,0,44,37,26,0,0,0,0,0,0,0,0,0,0,0,0,0,0,0,0,0,0,0,0,0,0,0,0,0,0,0,0,0,0],"split_type":[0,0,0,0,0,0,0,0,0,0,0,0,0,0,0,0,0,0,0,0,0,0,0,0,0,0,0,0,0,0,0,0,0,0,0,0,0,0,0,0,0,0,0,0,0,0,0,0,0,0,0,0,0,0,0,0,0,0,0,0,0],"sum_hessian":[6.633E3,3.335E3,3.298E3,1.701E3,1.634E3,1.273E3,2.025E3,9.06E2,7.95E2,9.32E2,7.02E2,7.55E2,5.18E2,5.9E2,1.435E3,2.17E2,6.89E2,5.78E2,2.17E2,5.57E2,3.75E2,6.55E2,4.7E1,5.77E2,1.78E2,3.69E2,1.49E2,5.3E1,5.37E2,8.09E2,6.26E2,3E0,2.14E2,4.72E2,2.17E2,2.07E2,3.71E2,1.57E2,6E1,1.23E2,4.34E2,3.18E2,5.7E1,3.99E2,2.56E2,3.5E1,1.2E1,7.1E1,5.06E2,1.75E2,3E0,1.9E2,1.79E2,1.23E2,2.6E1,4E1,4.97E2,7E0,8.02E2,6.23E2,3E0],"tree_param":{"num_deleted":"0","num_feature":"45","num_nodes":"61","size_leaf_vector":"1"}},{"base_weights":[7.503059E-4,-7.3025376E-1,8.638609E-1,-1.3042998E0,-3.667898E-1,5.3648937E-1,1.1560674E0,-1.5965731E0,-9.21967E-1,-6.548524E-1,-1.2897244E-1,3.2566705E-1,7.191353E-1,9.267695E-1,1.2014819E0,-1.8444861E0,-1.3335408E0,-1.0233253E0,-4.8052594E-1,-8.974591E-1,-3.1537184E-1,-2.68195E-1,1.2847792E-1,1.3471602E-1,4.432706E-1,1.0413333E0,6.467395E-1,9.445936E-1,-7.5636036E-3,1.1218519E0,1.2777508E0,-1.1585175E-1,-8.619594E-2,-6.968557E-2,-4.084447E-2,-5.4086E-2,-3.5286862E-2,-1.0522733E-2,-3.7138935E-2,-5.4704882E-2,-3.6161978E-2,-4.788193E-2,-1.1581908E-2,-1.7992029E-2,1.3870408E-2,-5.5274568E-3,1.12677775E-2,-1.3925694E-2,1.6688803E-2,5.5312123E-2,1.9951649E-2,-1.2928595E-2,5.4385494E-2,2.3739118E-2,3.8539194E-2,6.7407987E-3,4.8673283E-2,5.7013005E-2,3.4967657E-2,1.6844057E-2,6.4019434E-2],"categories":[],"categories_nodes":[],"categories_segments":[],"categories_sizes":[],"default_left":[0,0,0,0,0,0,0,0,0,0,0,0,0,0,0,0,0,0,0,0,0,0,0,0,0,0,0,0,0,0,0,0,0,0,0,0,0,0,0,0,0,0,0,0,0,0,0,0,0,0,0,0,0,0,0,0,0,0,0,0,0],"id":13,"left_children":[1,3,5,7,9,11,13,15,17,19,21,23,25,27,29,31,33,35,37,39,41,43,45,47,49,51,53,55,-1,57,59,-1,-1,-1,-1,-1,-1,-1,-1,-1,-1,-1,-1,-1,-1,-1,-1,-1,-1,-1,-1,-1,-1,-1,-1,-1,-1,-1,-1,-1,-1],"loss_changes":[4.15789E3,7.4284326E2,2.870547E2,1.4976465E2,1.4962845E2,5.429477E1,1.3045898E1,4.3101074E1,2.5489075E1,8.048392E1,4.323635E1,1.4808922E1,1.5631714E1,5.830597E0,3.4763184E0,1.0003662E1,8.45636E0,6.618347E0,7.8641186E0,1.7142853E1,2.1641582E1,3.9409367E1,9.904522E0,2.1671375E1,1.0637764E1,9.06517E0,1.2258331E1,5.8781586E0,0E0,2.642334E0,1.6235352E-1,0E0,0E0,0E0,0E0,0E0,0E0,0E0,0E0,0E0,0E0,0E0,0E0,0E0,0E0,0E0,0E0,0E0,0E0,0E0,0E0,0E0,0E0,0E0,0E0,0E0,0E0,0E0,0E0,0E0,0E0],"parents":[2147483647,0,0,1,1,2,2,3,3,4,4,5,5,6,6,7,7,8,8,9,9,10,10,11,11,12,12,13,13,14,14,15,15,16,16,17,17,18,18,19,19,20,20,21,21,22,22,23,23,24,24,25,25,26,26,27,27,29,29,30,30],"right_children":[2,4,6,8,10,12,14,16,18,20,22,24,26,28,30,32,34,36,38,40,42,44,46,48,50,52,54,56,-1,58,60,-1,-1,-1,-1,-1,-1,-1,-1,-1,-1,-1,-1,-1,-1,-1,-1,-1,-1,-1,-1,-1,-1,-1,-1,-1,-1,-1,-1,-1,-1],"split_conditions":[3.0621834E0,5.594347E0,5.0546994E0,9.789829E-1,1.6569133E0,3.852739E0,1.185339E1,4.453365E0,9.238835E0,6.999572E0,7.367452E0,7.0344024E0,4.2931818E2,4.7071465E1,1.6077114E1,3.8988924E0,3.6086878E-1,-4.809549E0,6.679894E-2,8.4257215E-1,2.5993466E-1,1.0403999E1,-2.9816636E-1,1.0475241E1,4.194741E2,-5.6609297E-1,8.118593E0,-5.427286E-1,-7.5636036E-3,2.4324557E-1,7.5787635E0,-1.1585175E-1,-8.619594E-2,-6.968557E-2,-4.084447E-2,-5.4086E-2,-3.5286862E-2,-1.0522733E-2,-3.7138935E-2,-5.4704882E-2,-3.6161978E-2,-4.788193E-2,-1.1581908E-2,-1.7992029E-2,1.3870408E-2,-5.5274568E-3,1.12677775E-2,-1.3925694E-2,1.6688803E-2,5.5312123E-2,1.9951649E-2,-1.2928595E-2,5.4385494E-2,2.3739118E-2,3.8539194E-2,6.7407987E-3,4.8673283E-2,5.7013005E-2,3.4967657E-2,1.6844057E-2,6.4019434E-2],"split_indices":[41,36,41,41,41,41,9,36,10,36,36,36,14,34,9,39,12,31,12,41,41,10,8,10,14,12,36,12,0,20,39,0,0,0,0,0,0,0,0,0,0,0,0,0,0,0,0,0,0,0,0,0,0,0,0,0,0,0,0,0,0],"split_type":[0,0,0,0,0,0,0,0,0,0,0,0,0,0,0,0,0,0,0,0,0,0,0,0,0,0,0,0,0,0,0,0,0,0,0,0,0,0,0,0,0,0,0,0,0,0,0,0,0,0,0,0,0,0,0,0,0,0,0,0,0],"sum_hessian":[6.584E3,3.565E3,3.019E3,1.379E3,2.186E3,1.428E3,1.591E3,7.76E2,6.03E2,9.86E2,1.2E3,6.67E2,7.61E2,2.74E2,1.317E3,3.9E2,3.86E2,4.87E2,1.16E2,5.72E2,4.14E2,7.79E2,4.21E2,2.57E2,4.1E2,1.32E2,6.29E2,2.7E2,4E0,6.68E2,6.49E2,6.8E1,3.22E2,3.41E2,4.5E1,4.05E2,8.2E1,6E1,5.6E1,2.61E2,3.11E2,4.4E1,3.7E2,6.68E2,1.11E2,1.21E2,3E2,8.3E1,1.74E2,2.1E1,3.89E2,4E0,1.28E2,2.7E2,3.59E2,1E1,2.6E2,6.35E2,3.3E1,3E0,6.46E2],"tree_param":{"num_deleted":"0","num_feature":"45","num_nodes":"61","size_leaf_vector":"1"}},{"base_weights":[2.6408518E-3,-7.917464E-1,7.0757186E-1,-1.1849074E0,-3.6266837E-1,2.6711467E-1,1.0075157E0,-1.5375583E0,-9.298295E-1,-4.5718098E-1,1.100669E-1,-2.1154194E-1,3.420161E-1,7.539101E-1,1.1256882E0,-1.6521426E0,-1.0266272E0,-1.1201521E0,-6.808627E-1,-7.9891396E-1,-3.448637E-1,8.200833E-1,2.6480056E-2,-1.0235485E-2,-6.66531E-1,2.6703957E-1,5.536963E-1,1.2100494E0,7.0099974E-1,1.0467292E0,1.2209964E0,-1.0759719E-1,-7.7838324E-2,-5.4633744E-2,1.10899685E-2,-3.294787E-3,-5.6685973E-2,-2.3565814E-2,-4.330254E-2,-4.9094535E-2,-2.9335205E-2,-3.159339E-4,-1.9872217E-2,-1.5582795E-3,5.1598787E-2,-2.7505636E-2,7.2470764E-3,-1.5126504E-2,1.4476358E-2,-3.7692297E-2,8.014678E-3,5.8532543E-3,2.6844857E-2,1.3917126E-2,3.2527495E-2,2.1451851E-2,6.260076E-2,2.4786033E-2,3.9487075E-2,5.25656E-2,9.601184E-3,6.1234303E-2,1.0782226E-2],"categories":[],"categories_nodes":[],"categories_segments":[],"categories_sizes":[],"default_left":[0,0,0,0,0,0,0,0,0,0,0,0,0,0,0,0,0,0,0,0,0,0,0,0,0,0,0,0,0,0,0,0,0,0,0,0,0,0,0,0,0,0,0,0,0,0,0,0,0,0,0,0,0,0,0,0,0,0,0,0,0,0,0],"id":14,"left_children":[1,3,5,7,9,11,13,15,17,19,21,23,25,27,29,31,33,35,37,39,41,43,45,47,49,51,53,55,57,59,61,-1,-1,-1,-1,-1,-1,-1,-1,-1,-1,-1,-1,-1,-1,-1,-1,-1,-1,-1,-1,-1,-1,-1,-1,-1,-1,-1,-1,-1,-1,-1,-1],"loss_changes":[3.6779946E3,5.194916E2,4.588164E2,1.402893E2,6.635594E1,5.0924934E1,5.927246E1,3.3927124E1,4.2167664E1,4.6461487E1,1.4627856E1,1.7589157E1,1.8900513E1,1.3361877E1,6.512329E0,1.5463135E1,1.1615845E1,7.222412E0,1.478479E1,9.880234E0,1.6595932E1,4.8862705E0,1.5635395E1,1.2267875E1,4.6813164E0,3.6575333E1,7.8179703E0,3.5084534E-1,9.71817E0,2.364441E0,1.3560181E0,0E0,0E0,0E0,0E0,0E0,0E0,0E0,0E0,0E0,0E0,0E0,0E0,0E0,0E0,0E0,0E0,0E0,0E0,0E0,0E0,0E0,0E0,0E0,0E0,0E0,0E0,0E0,0E0,0E0,0E0,0E0,0E0],"parents":[2147483647,0,0,1,1,2,2,3,3,4,4,5,5,6,6,7,7,8,8,9,9,10,10,11,11,12,12,13,13,14,14,15,15,16,16,17,17,18,18,19,19,20,20,21,21,22,22,23,23,24,24,25,25,26,26,27,27,28,28,29,29,30,30],"right_children":[2,4,6,8,10,12,14,16,18,20,22,24,26,28,30,32,34,36,38,40,42,44,46,48,50,52,54,56,58,60,62,-1,-1,-1,-1,-1,-1,-1,-1,-1,-1,-1,-1,-1,-1,-1,-1,-1,-1,-1,-1,-1,-1,-1,-1,-1,-1,-1,-1,-1,-1,-1,-1],"split_conditions":[2.5717824E0,5.945144E0,4.182017E0,4.7273355E0,7.9654703E0,6.1904993E0,5.343389E0,6.6533284E0,6.276644E0,8.097936E-1,6.9773517E2,4.3314297E2,8.338614E0,3.982593E2,1.6077114E1,4.0192084E0,2.1070273E0,5.6699765E-1,4.0803677E2,1.6017038E1,-3.766507E0,7.826519E0,7.133836E2,1.3216492E1,8.006843E0,1.0727765E1,2.7147913E-1,-1.5452322E1,7.930969E0,1.7035864E1,9.9087757E-1,-1.0759719E-1,-7.7838324E-2,-5.4633744E-2,1.10899685E-2,-3.294787E-3,-5.6685973E-2,-2.3565814E-2,-4.330254E-2,-4.9094535E-2,-2.9335205E-2,-3.159339E-4,-1.9872217E-2,-1.5582795E-3,5.1598787E-2,-2.7505636E-2,7.2470764E-3,-1.5126504E-2,1.4476358E-2,-3.7692297E-2,8.014678E-3,5.8532543E-3,2.6844857E-2,1.3917126E-2,3.2527495E-2,2.1451851E-2,6.260076E-2,2.4786033E-2,3.9487075E-2,5.25656E-2,9.601184E-3,6.1234303E-2,1.0782226E-2],"split_indices":[41,36,41,36,36,36,41,9,9,41,14,14,36,14,9,39,41,34,14,7,1,38,13,11,2,9,33,1,37,10,26,0,0,0,0,0,0,0,0,0,0,0,0,0,0,0,0,0,0,0,0,0,0,0,0,0,0,0,0,0,0,0,0],"split_type":[0,0,0,0,0,0,0,0,0,0,0,0,0,0,0,0,0,0,0,0,0,0,0,0,0,0,0,0,0,0,0,0,0,0,0,0,0,0,0,0,0,0,0,0,0,0,0,0,0,0,0,0,0,0,0,0,0,0,0,0,0,0,0],"sum_hessian":[6.562E3,3.085E3,3.477E3,1.607E3,1.478E3,1.411E3,2.066E3,6.68E2,9.39E2,1.232E3,2.46E2,1.9E2,1.221E3,6.64E2,1.402E3,5.4E2,1.28E2,5.26E2,4.13E2,3E2,9.32E2,2.3E1,2.23E2,1.34E2,5.6E1,9.07E2,3.14E2,6.2E1,6.02E2,7.87E2,6.15E2,7.6E1,4.64E2,1.22E2,6E0,7E0,5.19E2,1.99E2,2.14E2,1.55E2,1.45E2,1.26E2,8.06E2,5E0,1.8E1,3.6E1,1.87E2,6.8E1,6.6E1,5.1E1,5E0,5.86E2,3.21E2,8.5E1,2.29E2,5E0,5.7E1,1.88E2,4.14E2,7.82E2,5E0,6.12E2,3E0],"tree_param":{"num_deleted":"0","num_feature":"45","num_nodes":"63","size_leaf_vector":"1"}},{"base_weights":[-1.4494806E-5,-7.566684E-1,6.7697453E-1,-1.1918337E0,-4.195627E-1,2.1574713E-1,9.5576507E-1,-1.527139E0,-9.315812E-1,-6.100965E-1,-1.15224734E-1,-1.331486E-1,3.3068845E-1,7.602318E-1,1.0796113E0,-1.891655E0,-1.389343E0,-1.0703033E0,-6.738793E-1,-7.7817357E-1,-3.6192608E-1,-2.0348303E-1,2.652855E-1,-3.4328002E-1,1.1876884E-1,7.793587E-1,2.7663165E-1,4.987954E-1,8.189124E-1,9.393275E-1,1.1363835E0,-1.00058414E-1,-5.5677515E-2,-7.9005085E-2,-6.130999E-2,-7.9594806E-2,-5.016343E-2,-3.7145328E-2,-1.3455771E-2,-4.7403816E-2,-3.2679006E-2,-3.5339128E-3,-2.4000421E-2,-1.7072374E-2,1.8794036E-3,-1.2670176E-2,2.2081576E-2,-3.5697974E-2,-9.688445E-3,1.3419292E-2,-1.4671849E-2,5.0147988E-2,2.3337394E-2,3.8368383E-4,1.8852321E-2,-2.2413363E-3,2.9393543E-2,-1.3118978E-2,4.1320607E-2,4.9633436E-2,3.20802E-2,1.846616E-2,5.6960132E-2],"categories":[],"categories_nodes":[],"categories_segments":[],"categories_sizes":[],"default_left":[0,0,0,0,0,0,0,0,0,0,0,0,0,0,0,0,0,0,0,0,0,0,0,0,0,0,0,0,0,0,0,0,0,0,0,0,0,0,0,0,0,0,0,0,0,0,0,0,0,0,0,0,0,0,0,0,0,0,0,0,0,0,0],"id":15,"left_children":[1,3,5,7,9,11,13,15,17,19,21,23,25,27,29,31,33,35,37,39,41,43,45,47,49,51,53,55,57,59,61,-1,-1,-1,-1,-1,-1,-1,-1,-1,-1,-1,-1,-1,-1,-1,-1,-1,-1,-1,-1,-1,-1,-1,-1,-1,-1,-1,-1,-1,-1,-1,-1],"loss_changes":[3.4213018E3,4.6102014E2,4.5252954E2,1.1547424E2,1.0304883E2,5.3568428E1,5.053235E1,2.1723877E1,2.5617554E1,4.4715454E1,2.3328163E1,1.7719442E1,2.3574059E1,1.1867004E1,7.2382812E0,6.2113647E0,7.7246094E0,1.2536438E1,7.178009E0,1.1740601E1,1.525042E1,1.876058E1,1.2336964E1,9.580767E0,9.669725E0,5.8580475E0,2.4259476E1,8.171646E0,6.375366E0,4.325897E0,6.130371E-1,0E0,0E0,0E0,0E0,0E0,0E0,0E0,0E0,0E0,0E0,0E0,0E0,0E0,0E0,0E0,0E0,0E0,0E0,0E0,0E0,0E0,0E0,0E0,0E0,0E0,0E0,0E0,0E0,0E0,0E0,0E0,0E0],"parents":[2147483647,0,0,1,1,2,2,3,3,4,4,5,5,6,6,7,7,8,8,9,9,10,10,11,11,12,12,13,13,14,14,15,15,16,16,17,17,18,18,19,19,20,20,21,21,22,22,23,23,24,24,25,25,26,26,27,27,28,28,29,29,30,30],"right_children":[2,4,6,8,10,12,14,16,18,20,22,24,26,28,30,32,34,36,38,40,42,44,46,48,50,52,54,56,58,60,62,-1,-1,-1,-1,-1,-1,-1,-1,-1,-1,-1,-1,-1,-1,-1,-1,-1,-1,-1,-1,-1,-1,-1,-1,-1,-1,-1,-1,-1,-1,-1,-1],"split_conditions":[2.5717824E0,5.594347E0,4.106334E0,6.840755E-1,7.141657E0,6.518456E0,5.6359596E0,4.403006E0,1.569812E0,1.6569133E0,8.374483E0,1.1298936E1,4.0424445E2,-6.256805E-1,1.4001962E1,1.5736183E0,2.764996E-1,3.8130193E0,-4.772958E0,7.5857836E-1,-9.157399E0,1.7796121E0,1.9122925E-1,-8.09337E0,7.0572853E-1,4.355672E0,7.215503E0,4.297479E0,-8.978789E0,7.775607E2,7.93398E0,-1.00058414E-1,-5.5677515E-2,-7.9005085E-2,-6.130999E-2,-7.9594806E-2,-5.016343E-2,-3.7145328E-2,-1.3455771E-2,-4.7403816E-2,-3.2679006E-2,-3.5339128E-3,-2.4000421E-2,-1.7072374E-2,1.8794036E-3,-1.2670176E-2,2.2081576E-2,-3.5697974E-2,-9.688445E-3,1.3419292E-2,-1.4671849E-2,5.0147988E-2,2.3337394E-2,3.8368383E-4,1.8852321E-2,-2.2413363E-3,2.9393543E-2,-1.3118978E-2,4.1320607E-2,4.9633436E-2,3.20802E-2,1.846616E-2,5.6960132E-2],"split_indices":[41,36,41,41,36,36,41,39,41,41,36,10,13,44,9,17,41,37,31,41,22,41,25,4,26,5,37,41,31,13,39,0,0,0,0,0,0,0,0,0,0,0,0,0,0,0,0,0,0,0,0,0,0,0,0,0,0,0,0,0,0,0,0],"split_type":[0,0,0,0,0,0,0,0,0,0,0,0,0,0,0,0,0,0,0,0,0,0,0,0,0,0,0,0,0,0,0,0,0,0,0,0,0,0,0,0,0,0,0,0,0,0,0,0,0,0,0,0,0,0,0,0,0,0,0,0,0,0,0],"sum_hessian":[6.673E3,3.151E3,3.522E3,1.372E3,1.779E3,1.329E3,2.193E3,5.93E2,7.79E2,1.092E3,6.87E2,3.29E2,1E3,8.59E2,1.334E3,1.52E2,4.41E2,5E2,2.79E2,6.47E2,4.45E2,5.59E2,1.28E2,1.79E2,1.5E2,1.03E2,8.97E2,1.63E2,6.96E2,4E2,9.34E2,1.29E2,2.3E1,1.91E2,2.5E2,4.9E1,4.51E2,2.36E2,4.3E1,2.65E2,3.82E2,1.3E2,3.15E2,3.55E2,2.04E2,3.2E1,9.6E1,4.8E1,1.31E2,1.11E2,3.9E1,5.6E1,4.7E1,2.45E2,6.52E2,2.3E1,1.4E2,4E0,6.92E2,3.33E2,6.7E1,5E0,9.29E2],"tree_param":{"num_deleted":"0","num_feature":"45","num_nodes":"63","size_leaf_vector":"1"}},{"base_weights":[6.529243E-3,-6.7997885E-1,6.71557E-1,-1.0892532E0,-3.211383E-1,3.020043E-1,9.437918E-1,-1.4703506E0,-8.4790355E-1,-4.3184856E-1,8.96735E-2,-4.082267E-2,3.8902354E-1,6.744433E-1,1.009895E0,-1.6066897E0,-1.1805707E0,-1.2391351E0,-7.462157E-1,-5.5676335E-1,-6.894074E-2,-2.9166704E-1,2.1935204E-1,-2.952302E-1,1.8618065E-1,8.0788785E-1,3.2982585E-1,4.1112617E-1,7.4170953E-1,7.703594E-1,1.0521432E0,-8.212205E-2,-3.4517605E-2,-6.2866606E-2,-2.8537547E-2,-6.4120196E-2,-8.809835E-3,-4.345953E-2,-2.5849313E-2,-3.7366115E-2,-2.1786947E-2,2.8469864E-2,-5.408434E-3,-3.2827955E-2,-4.722413E-3,1.3156659E-2,-4.589741E-2,2.6575735E-2,-1.7574202E-2,2.5562814E-2,-6.7250617E-4,-1.3127063E-2,4.189035E-2,7.891252E-3,2.4105398E-2,2.6646605E-2,-6.9531547E-3,3.818914E-2,-1.1877357E-2,4.0180404E-2,-3.3893462E-3,3.5070058E-2,5.3000588E-2],"categories":[],"categories_nodes":[],"categories_segments":[],"categories_sizes":[],"default_left":[0,0,0,0,0,0,0,0,0,0,0,0,0,0,0,0,0,0,0,0,0,0,0,0,0,0,0,0,0,0,0,0,0,0,0,0,0,0,0,0,0,0,0,0,0,0,0,0,0,0,0,0,0,0,0,0,0,0,0,0,0,0,0],"id":16,"left_children":[1,3,5,7,9,11,13,15,17,19,21,23,25,27,29,31,33,35,37,39,41,43,45,47,49,51,53,55,57,59,61,-1,-1,-1,-1,-1,-1,-1,-1,-1,-1,-1,-1,-1,-1,-1,-1,-1,-1,-1,-1,-1,-1,-1,-1,-1,-1,-1,-1,-1,-1,-1,-1],"loss_changes":[3.041515E3,4.802306E2,3.3946826E2,1.3675403E2,7.9787766E1,4.3041336E1,3.2454224E1,1.730127E1,3.458319E1,6.2381165E1,1.8679632E1,1.7154701E1,2.7577225E1,5.9308624E0,1.3142944E1,9.207153E0,7.026428E0,7.9147644E0,1.9852753E1,2.256665E1,9.078178E0,6.6473684E0,1.4650777E1,7.0535135E0,1.025894E1,5.2010727E0,2.6214699E1,6.09214E0,7.276062E0,7.0644684E0,1.2226562E0,0E0,0E0,0E0,0E0,0E0,0E0,0E0,0E0,0E0,0E0,0E0,0E0,0E0,0E0,0E0,0E0,0E0,0E0,0E0,0E0,0E0,0E0,0E0,0E0,0E0,0E0,0E0,0E0,0E0,0E0,0E0,0E0],"parents":[2147483647,0,0,1,1,2,2,3,3,4,4,5,5,6,6,7,7,8,8,9,9,10,10,11,11,12,12,13,13,14,14,15,15,16,16,17,17,18,18,19,19,20,20,21,21,22,22,23,23,24,24,25,25,26,26,27,27,28,28,29,29,30,30],"right_children":[2,4,6,8,10,12,14,16,18,20,22,24,26,28,30,32,34,36,38,40,42,44,46,48,50,52,54,56,58,60,62,-1,-1,-1,-1,-1,-1,-1,-1,-1,-1,-1,-1,-1,-1,-1,-1,-1,-1,-1,-1,-1,-1,-1,-1,-1,-1,-1,-1,-1,-1,-1,-1],"split_conditions":[2.7483234E0,5.786744E0,4.5010505E0,6.840755E-1,7.7593822E0,6.5921803E0,1.1603293E1,4.7472234E0,4.412933E0,2.153395E0,1.3594065E1,1.1223047E1,4.194741E2,8.5640335E0,8.241971E0,8.7452304E-1,1E0,3.00437E-1,7.8098383E0,6.469649E0,-9.198404E0,7.932981E0,3.2988015E-1,3.8066697E0,3.6781778E2,6.7525253E0,7.8669934E0,8.1905866E-1,3.0234701E1,3.4422326E0,1.2510811E1,-8.212205E-2,-3.4517605E-2,-6.2866606E-2,-2.8537547E-2,-6.4120196E-2,-8.809835E-3,-4.345953E-2,-2.5849313E-2,-3.7366115E-2,-2.1786947E-2,2.8469864E-2,-5.408434E-3,-3.2827955E-2,-4.722413E-3,1.3156659E-2,-4.589741E-2,2.6575735E-2,-1.7574202E-2,2.5562814E-2,-6.7250617E-4,-1.3127063E-2,4.189035E-2,7.891252E-3,2.4105398E-2,2.6646605E-2,-6.9531547E-3,3.818914E-2,-1.1877357E-2,4.0180404E-2,-3.3893462E-3,3.5070058E-2,5.3000588E-2],"split_indices":[41,36,41,41,36,36,10,36,37,41,30,10,14,36,37,44,32,21,10,36,4,38,21,30,14,39,36,24,16,15,11,0,0,0,0,0,0,0,0,0,0,0,0,0,0,0,0,0,0,0,0,0,0,0,0,0,0,0,0,0,0,0,0],"split_type":[0,0,0,0,0,0,0,0,0,0,0,0,0,0,0,0,0,0,0,0,0,0,0,0,0,0,0,0,0,0,0,0,0,0,0,0,0,0,0,0,0,0,0,0,0,0,0,0,0,0,0,0,0,0,0,0,0,0,0,0,0,0,0],"sum_hessian":[6.656E3,3.275E3,3.381E3,1.527E3,1.748E3,1.437E3,1.944E3,5.86E2,9.41E2,1.377E3,3.71E2,2.91E2,1.146E3,3.9E2,1.554E3,3.89E2,1.97E2,1.87E2,7.54E2,1.023E3,3.54E2,9.3E1,2.78E2,1.37E2,1.54E2,1.37E2,1.009E3,8.4E1,3.06E2,2.42E2,1.312E3,3.72E2,1.7E1,1.72E2,2.5E1,1.79E2,8E0,4.85E2,2.69E2,3.91E2,6.32E2,1.8E1,3.36E2,3E1,6.3E1,2.7E2,8E0,7E0,1.3E2,5.7E1,9.7E1,3E0,1.34E2,4.77E2,5.32E2,6.9E1,1.5E1,3E2,6E0,2.33E2,9E0,3.5E1,1.277E3],"tree_param":{"num_deleted":"0","num_feature":"45","num_nodes":"63","size_leaf_vector":"1"}},{"base_weights":[5.6517418E-3,-5.800718E-1,7.121007E-1,-1.0739871E0,-2.8768635E-1,3.9202675E-1,9.115917E-1,-1.4487468E0,-8.6093843E-1,-4.495254E-1,4.6690456E-3,1.8690673E-1,4.9651825E-1,7.4845994E-1,9.851829E-1,-1.8767408E0,-1.3149835E0,-9.556205E-1,-4.0613952E-1,-6.0518074E-1,-1.8227752E-1,-1.11570805E-1,1.9842955E-1,-4.600338E-3,4.5754802E-1,8.0998886E-1,4.0123636E-1,8.728462E-1,6.2372696E-1,-3.5882313E-4,9.87617E-1,-9.6043795E-2,-7.099175E-3,-5.7434347E-2,-8.351227E-2,-6.107487E-2,-4.2942986E-2,4.1801292E-2,-2.3660665E-2,-3.833244E-2,-2.3585077E-2,-1.2558817E-2,1.0945986E-2,3.5792507E-2,-8.003081E-3,-8.87946E-3,1.40108885E-2,-5.5293083E-2,1.6501322E-3,3.0114353E-2,6.101813E-3,4.5098487E-2,1.3287619E-2,9.866211E-3,2.697204E-2,3.173545E-2,4.8956465E-2,2.3661511E-2,4.0980432E-2,5.048999E-2,4.023902E-2],"categories":[],"categories_nodes":[],"categories_segments":[],"categories_sizes":[],"default_left":[0,0,0,0,0,0,0,0,0,0,0,0,0,0,0,0,0,0,0,0,0,0,0,0,0,0,0,0,0,0,0,0,0,0,0,0,0,0,0,0,0,0,0,0,0,0,0,0,0,0,0,0,0,0,0,0,0,0,0,0,0],"id":17,"left_children":[1,3,5,7,9,11,13,15,17,19,21,23,25,27,29,31,33,35,37,39,41,43,45,47,49,51,53,55,57,-1,59,-1,-1,-1,-1,-1,-1,-1,-1,-1,-1,-1,-1,-1,-1,-1,-1,-1,-1,-1,-1,-1,-1,-1,-1,-1,-1,-1,-1,-1,-1],"loss_changes":[2.7686382E3,5.27202E2,1.924602E2,1.0453259E2,1.0896883E2,2.473021E1,2.0015991E1,2.0215088E1,3.6335144E1,6.123938E1,1.8611279E1,2.0783499E1,2.1991898E1,7.4175415E0,3.201538E0,7.3209534E0,1.6530457E1,1.5193481E1,1.4147985E1,1.8942993E1,1.5371296E1,2.0991268E1,9.693263E0,1.0031114E1,7.768299E0,8.02462E0,1.6487755E1,5.2888184E0,7.757347E0,0E0,2.5437012E0,0E0,0E0,0E0,0E0,0E0,0E0,0E0,0E0,0E0,0E0,0E0,0E0,0E0,0E0,0E0,0E0,0E0,0E0,0E0,0E0,0E0,0E0,0E0,0E0,0E0,0E0,0E0,0E0,0E0,0E0],"parents":[2147483647,0,0,1,1,2,2,3,3,4,4,5,5,6,6,7,7,8,8,9,9,10,10,11,11,12,12,13,13,14,14,15,15,16,16,17,17,18,18,19,19,20,20,21,21,22,22,23,23,24,24,25,25,26,26,27,27,28,28,30,30],"right_children":[2,4,6,8,10,12,14,16,18,20,22,24,26,28,30,32,34,36,38,40,42,44,46,48,50,52,54,56,58,-1,60,-1,-1,-1,-1,-1,-1,-1,-1,-1,-1,-1,-1,-1,-1,-1,-1,-1,-1,-1,-1,-1,-1,-1,-1,-1,-1,-1,-1,-1,-1],"split_conditions":[3.0621834E0,5.5652947E0,4.632522E0,5.974065E-1,2.1762557E0,7.215503E0,5.776618E0,3.6405644E0,2.034292E0,7.1340513E0,7.3153934E0,1.3898533E1,5.362527E2,2.3808808E0,-4.6896958E-1,7.9814067E0,-1.1283916E0,4.259545E0,3.219552E2,1.0715997E0,8.443121E0,3.393322E2,1.8370654E-1,6.829889E0,1.3201427E0,3.4635285E-1,8.256283E0,8.651403E0,8.820584E0,-3.5882313E-4,7.9556177E2,-9.6043795E-2,-7.099175E-3,-5.7434347E-2,-8.351227E-2,-6.107487E-2,-4.2942986E-2,4.1801292E-2,-2.3660665E-2,-3.833244E-2,-2.3585077E-2,-1.2558817E-2,1.0945986E-2,3.5792507E-2,-8.003081E-3,-8.87946E-3,1.40108885E-2,-5.5293083E-2,1.6501322E-3,3.0114353E-2,6.101813E-3,4.5098487E-2,1.3287619E-2,9.866211E-3,2.697204E-2,3.173545E-2,4.8956465E-2,2.3661511E-2,4.0980432E-2,5.048999E-2,4.023902E-2],"split_indices":[41,37,41,41,41,37,41,37,41,37,37,11,14,18,21,11,5,37,14,41,37,14,25,9,17,40,37,39,38,0,14,0,0,0,0,0,0,0,0,0,0,0,0,0,0,0,0,0,0,0,0,0,0,0,0,0,0,0,0,0,0],"split_type":[0,0,0,0,0,0,0,0,0,0,0,0,0,0,0,0,0,0,0,0,0,0,0,0,0,0,0,0,0,0,0,0,0,0,0,0,0,0,0,0,0,0,0,0,0,0,0,0,0,0,0,0,0,0,0,0,0,0,0,0,0],"sum_hessian":[6.685E3,3.655E3,3.03E3,1.356E3,2.299E3,1.167E3,1.863E3,4.85E2,8.71E2,1.479E3,8.2E2,3.97E2,7.7E2,5.9E2,1.273E3,1.06E2,3.79E2,7.18E2,1.53E2,9.32E2,5.47E2,5.13E2,3.07E2,2.34E2,1.63E2,1.74E2,5.96E2,2.86E2,3.04E2,3E0,1.27E3,1.03E2,3E0,2.67E2,1.12E2,1.82E2,5.36E2,6E0,1.47E2,4.15E2,5.17E2,4.68E2,7.9E1,2.6E1,4.87E2,5.4E1,2.53E2,5E0,2.29E2,1.12E2,5.1E1,1.47E2,2.7E1,2.44E2,3.52E2,9.5E1,1.91E2,1.78E2,1.26E2,1.12E3,1.5E2],"tree_param":{"num_deleted":"0","num_feature":"45","num_nodes":"61","size_leaf_vector":"1"}},{"base_weights":[8.894873E-3,-6.3359827E-1,5.7474774E-1,-1.1525502E0,-4.1057658E-1,2.2884184E-1,8.258988E-1,-1.3790693E0,-9.3229175E-1,-6.56111E-1,-2.0296836E-1,2.2487793E-2,3.6622328E-1,6.631277E-1,9.46322E-1,-1.8570776E0,-1.2796532E0,-1.3491312E0,-8.2169E-1,-9.1833013E-1,-5.0205714E-1,-5.4028153E-1,-1.1922473E-1,-7.1795925E-2,5.1173776E-1,1.0162824E0,3.246535E-1,1.0248837E0,6.038132E-1,1.941951E-4,9.486611E-1,-1.4184966E-2,-9.562523E-2,-6.900265E-2,-4.6944033E-2,-2.5023052E-2,-7.200597E-2,-4.526451E-2,-1.6368851E-2,-4.7224183E-2,1.40425265E-2,-1.0850783E-2,-2.9884705E-2,-3.6793623E-2,-9.477779E-3,-8.651642E-3,1.39758205E-2,-2.7415995E-2,-4.6995506E-4,2.9585868E-2,-6.695573E-3,5.4486778E-2,-3.7529499E-3,1.0588758E-2,2.4877885E-2,5.3570326E-2,1.6693553E-2,1.8130522E-2,3.3906255E-2,4.4748217E-2,5.112477E-2],"categories":[],"categories_nodes":[],"categories_segments":[],"categories_sizes":[],"default_left":[0,0,0,0,0,0,0,0,0,0,0,0,0,0,0,0,0,0,0,0,0,0,0,0,0,0,0,0,0,0,0,0,0,0,0,0,0,0,0,0,0,0,0,0,0,0,0,0,0,0,0,0,0,0,0,0,0,0,0,0,0],"id":18,"left_children":[1,3,5,7,9,11,13,15,17,19,21,23,25,27,29,31,33,35,37,39,41,43,45,47,49,51,53,55,57,-1,59,-1,-1,-1,-1,-1,-1,-1,-1,-1,-1,-1,-1,-1,-1,-1,-1,-1,-1,-1,-1,-1,-1,-1,-1,-1,-1,-1,-1,-1,-1],"loss_changes":[2.4067405E3,3.5721045E2,3.0512634E2,4.231201E1,1.1028317E2,4.2035004E1,3.7904175E1,1.4036926E1,1.8632843E1,3.8628296E1,3.312974E1,2.7692818E1,2.2953415E1,1.6798737E1,2.4597168E0,4.344391E0,9.018982E0,5.056793E0,1.5021576E1,1.2278198E1,1.6785294E1,1.5541115E1,2.0538637E1,1.4884759E1,5.2924576E0,4.515293E0,1.604638E1,2.6119308E0,1.2798584E1,0E0,1.6658936E0,0E0,0E0,0E0,0E0,0E0,0E0,0E0,0E0,0E0,0E0,0E0,0E0,0E0,0E0,0E0,0E0,0E0,0E0,0E0,0E0,0E0,0E0,0E0,0E0,0E0,0E0,0E0,0E0,0E0,0E0],"parents":[2147483647,0,0,1,1,2,2,3,3,4,4,5,5,6,6,7,7,8,8,9,9,10,10,11,11,12,12,13,13,14,14,15,15,16,16,17,17,18,18,19,19,20,20,21,21,22,22,23,23,24,24,25,25,26,26,27,27,28,28,30,30],"right_children":[2,4,6,8,10,12,14,16,18,20,22,24,26,28,30,32,34,36,38,40,42,44,46,48,50,52,54,56,58,-1,60,-1,-1,-1,-1,-1,-1,-1,-1,-1,-1,-1,-1,-1,-1,-1,-1,-1,-1,-1,-1,-1,-1,-1,-1,-1,-1,-1,-1,-1,-1],"split_conditions":[2.5717824E0,5.061666E0,4.297479E0,6.840755E-1,6.3722343E0,6.977735E0,1.352832E1,4.0192084E0,4.123849E0,1.0476581E0,6.583522E-1,1.516848E1,4.194741E2,-9.7709675E0,-4.6896958E-1,-3.256626E0,2.3287695E1,1.5090181E-1,4.407648E0,6.798966E-1,4.0803677E2,7.8022614E-2,8.374483E0,9.344703E0,1.5782048E-1,8.9077E-1,8.338614E0,6.9881096E0,8.466246E0,1.941951E-4,1.7658754E1,-1.4184966E-2,-9.562523E-2,-6.900265E-2,-4.6944033E-2,-2.5023052E-2,-7.200597E-2,-4.526451E-2,-1.6368851E-2,-4.7224183E-2,1.40425265E-2,-1.0850783E-2,-2.9884705E-2,-3.6793623E-2,-9.477779E-3,-8.651642E-3,1.39758205E-2,-2.7415995E-2,-4.6995506E-4,2.9585868E-2,-6.695573E-3,5.4486778E-2,-3.7529499E-3,1.0588758E-2,2.4877885E-2,5.3570326E-2,1.6693553E-2,1.8130522E-2,3.3906255E-2,4.4748217E-2,5.112477E-2],"split_indices":[41,36,41,41,36,36,10,39,36,41,41,11,14,1,21,15,7,26,2,40,14,12,36,11,20,44,36,18,36,0,10,0,0,0,0,0,0,0,0,0,0,0,0,0,0,0,0,0,0,0,0,0,0,0,0,0,0,0,0,0,0],"split_type":[0,0,0,0,0,0,0,0,0,0,0,0,0,0,0,0,0,0,0,0,0,0,0,0,0,0,0,0,0,0,0,0,0,0,0,0,0,0,0,0,0,0,0,0,0,0,0,0,0,0,0,0,0,0,0,0,0,0,0,0,0],"sum_hessian":[6.614E3,3.097E3,3.517E3,9.27E2,2.17E3,1.482E3,2.035E3,4.49E2,4.78E2,9.91E2,1.179E3,5.94E2,8.88E2,8.74E2,1.161E3,6.8E1,3.81E2,9.3E1,3.85E2,3.61E2,6.3E2,2.31E2,9.48E2,5E2,9.4E1,4.9E1,8.39E2,1.16E2,7.58E2,3E0,1.158E3,3E0,6.5E1,2.87E2,9.4E1,1.1E1,8.2E1,3.27E2,5.8E1,3.54E2,7E0,1.61E2,4.69E2,1.46E2,8.5E1,8.37E2,1.11E2,5.5E1,4.45E2,8.4E1,1E1,4.6E1,3E0,5.12E2,3.27E2,1.07E2,9E0,1.83E2,5.75E2,6.94E2,4.64E2],"tree_param":{"num_deleted":"0","num_feature":"45","num_nodes":"61","size_leaf_vector":"1"}},{"base_weights":[7.84802E-4,-5.986043E-1,5.4029715E-1,-1.1590014E0,-3.9740565E-1,2.754728E-1,8.036874E-1,-1.5141706E0,-1.0306413E0,-5.9053874E-1,-1.8005338E-1,8.799987E-3,4.4345328E-1,2.6371148E-1,8.573292E-1,-1.5330052E0,-3.9034279E-3,-1.1593794E0,-7.181322E-1,-7.475341E-1,-2.005036E-1,2.0399788E-1,-2.5166586E-1,-6.468892E-2,3.280183E-1,2.544772E-1,5.431871E-1,-5.2134794E-1,3.726433E-1,6.992922E-1,9.1037685E-1,-4.6361774E-2,-7.9946645E-2,-2.8766079E-2,-6.006646E-2,-0E0,-4.0137168E-2,-1.4675813E-2,-3.9228793E-2,1.6372005E-2,-1.3812425E-2,-1.093773E-2,1.8320221E-2,-1.9788275E-2,-5.763587E-4,8.936492E-3,-9.356447E-3,2.1660017E-2,-1.9070257E-2,7.5184065E-3,2.8781055E-2,1.914802E-2,3.1444006E-2,-2.4782214E-4,-5.3894587E-2,7.886836E-3,4.2646207E-2,4.1076392E-2,2.3700526E-2,6.229281E-3,4.5699004E-2],"categories":[],"categories_nodes":[],"categories_segments":[],"categories_sizes":[],"default_left":[0,0,0,0,0,0,0,0,0,0,0,0,0,0,0,0,0,0,0,0,0,0,0,0,0,0,0,0,0,0,0,0,0,0,0,0,0,0,0,0,0,0,0,0,0,0,0,0,0,0,0,0,0,0,0,0,0,0,0,0,0],"id":19,"left_children":[1,3,5,7,9,11,13,15,17,19,21,23,25,27,29,31,-1,33,35,37,39,41,43,45,47,49,51,53,55,57,59,-1,-1,-1,-1,-1,-1,-1,-1,-1,-1,-1,-1,-1,-1,-1,-1,-1,-1,-1,-1,-1,-1,-1,-1,-1,-1,-1,-1,-1,-1],"loss_changes":[2.1517502E3,3.5385425E2,2.4350006E2,3.294873E1,9.7160614E1,7.8380585E1,5.0014526E1,5.268219E0,2.2258179E1,7.471179E1,3.0356926E1,1.6042114E1,1.9747528E1,1.4507387E1,1.129248E1,3.7263184E0,0E0,8.382385E0,1.1433144E1,1.3916779E1,1.4542333E1,1.2201675E1,3.202339E1,1.6642504E1,1.0052032E1,1.227235E1,8.787521E0,5.9109716E0,1.4461575E1,1.0102722E1,2.9041138E0,0E0,0E0,0E0,0E0,0E0,0E0,0E0,0E0,0E0,0E0,0E0,0E0,0E0,0E0,0E0,0E0,0E0,0E0,0E0,0E0,0E0,0E0,0E0,0E0,0E0,0E0,0E0,0E0,0E0,0E0],"parents":[2147483647,0,0,1,1,2,2,3,3,4,4,5,5,6,6,7,7,8,8,9,9,10,10,11,11,12,12,13,13,14,14,15,15,17,17,18,18,19,19,20,20,21,21,22,22,23,23,24,24,25,25,26,26,27,27,28,28,29,29,30,30],"right_children":[2,4,6,8,10,12,14,16,18,20,22,24,26,28,30,32,-1,34,36,38,40,42,44,46,48,50,52,54,56,58,60,-1,-1,-1,-1,-1,-1,-1,-1,-1,-1,-1,-1,-1,-1,-1,-1,-1,-1,-1,-1,-1,-1,-1,-1,-1,-1,-1,-1,-1,-1],"split_conditions":[4.246572E0,4.9064293E0,1.193505E1,3.8130193E0,6.3722343E0,7.8540387E0,6.960881E0,9.768528E-1,6.524998E0,7.8884206E0,-3.530516E0,6.6309547E0,8.279672E0,-5.08985E-1,8.466246E0,-1.878773E0,-3.9034279E-3,-2.0351349E-1,1.1068253E-1,-4.269074E0,3.393322E2,8.132776E0,1.6893412E-1,-5.643268E0,1.7111E1,4.4946947E0,1.736871E1,3.7229624E-1,1.591542E1,4.6445505E2,2.5314352E-1,-4.6361774E-2,-7.9946645E-2,-2.8766079E-2,-6.006646E-2,-0E0,-4.0137168E-2,-1.4675813E-2,-3.9228793E-2,1.6372005E-2,-1.3812425E-2,-1.093773E-2,1.8320221E-2,-1.9788275E-2,-5.763587E-4,8.936492E-3,-9.356447E-3,2.1660017E-2,-1.9070257E-2,7.5184065E-3,2.8781055E-2,1.914802E-2,3.1444006E-2,-2.4782214E-4,-5.3894587E-2,7.886836E-3,4.2646207E-2,4.1076392E-2,2.3700526E-2,6.229281E-3,4.5699004E-2],"split_indices":[42,36,9,37,36,36,36,26,9,10,0,1,9,8,36,15,0,20,24,0,14,7,4,1,22,1,34,24,11,13,30,0,0,0,0,0,0,0,0,0,0,0,0,0,0,0,0,0,0,0,0,0,0,0,0,0,0,0,0,0,0],"split_type":[0,0,0,0,0,0,0,0,0,0,0,0,0,0,0,0,0,0,0,0,0,0,0,0,0,0,0,0,0,0,0,0,0,0,0,0,0,0,0,0,0,0,0,0,0,0,0,0,0,0,0,0,0,0,0,0,0,0,0,0,0],"sum_hessian":[6.648E3,3.149E3,3.499E3,8.28E2,2.321E3,1.748E3,1.751E3,2.11E2,6.17E2,1.226E3,1.095E3,6.77E2,1.071E3,1.6E2,1.591E3,2.08E2,3E0,4.31E2,1.86E2,8.72E2,3.54E2,1.71E2,9.24E2,5.52E2,1.25E2,3.74E2,6.97E2,1.8E1,1.42E2,4.11E2,1.18E3,2.5E1,1.83E2,3.2E1,3.99E2,2E1,1.66E2,6.8E1,8.04E2,4.3E1,3.11E2,4.7E1,1.24E2,5.76E2,3.48E2,1.84E2,3.68E2,1.1E2,1.5E1,2.86E2,8.8E1,2.49E2,4.48E2,1.1E1,7E0,1.01E2,4.1E1,2.61E2,1.5E2,6E0,1.174E3],"tree_param":{"num_deleted":"0","num_feature":"45","num_nodes":"61","size_leaf_vector":"1"}},{"base_weights":[3.2599606E-3,-6.1130124E-1,4.874039E-1,-8.8937056E-1,-2.882924E-1,1.0246928E-1,7.0377874E-1,-1.0623386E0,-5.5018485E-1,-3.6268586E-1,8.969264E-2,-2.38733E-1,1.7745093E-1,5.199117E-1,8.376914E-1,-1.2984939E0,-9.094755E-1,-7.3411596E-1,-4.0535852E-1,-6.5858555E-1,-2.9270047E-1,2.212093E-1,-2.7528894E-1,-7.555564E-2,-6.6250235E-1,8.887164E-2,3.0139637E-1,-4.209174E-2,5.3200895E-1,7.715881E-1,9.1271454E-1,-3.9631307E-2,-6.817477E-2,-4.8386693E-2,-2.6694847E-2,-3.2279667E-2,-6.670374E-2,-2.8202834E-3,-2.461058E-2,-4.1323394E-2,-1.8573923E-2,-1.9341126E-2,-6.1837602E-3,-4.8375367E-3,1.9183686E-2,3.7097648E-2,-2.0382365E-2,3.4251973E-2,-7.155704E-3,-9.7982595E-3,-4.801088E-2,-2.0336073E-3,1.55744245E-2,3.7665498E-2,1.2565217E-2,4.1478205E-2,2.3982173E-2,-1.8481513E-3,3.891961E-2,6.1277077E-3,4.5852203E-2],"categories":[],"categories_nodes":[],"categories_segments":[],"categories_sizes":[],"default_left":[0,0,0,0,0,0,0,0,0,0,0,0,0,0,0,0,0,0,0,0,0,0,0,0,0,0,0,0,0,0,0,0,0,0,0,0,0,0,0,0,0,0,0,0,0,0,0,0,0,0,0,0,0,0,0,0,0,0,0,0,0],"id":20,"left_children":[1,3,5,7,9,11,13,15,17,19,21,23,25,27,29,31,33,35,37,39,41,43,45,47,49,51,53,-1,55,57,59,-1,-1,-1,-1,-1,-1,-1,-1,-1,-1,-1,-1,-1,-1,-1,-1,-1,-1,-1,-1,-1,-1,-1,-1,-1,-1,-1,-1,-1,-1],"loss_changes":[1.9797941E3,2.6246167E2,3.0970905E2,9.04292E1,3.8395683E1,3.448015E1,5.720752E1,3.3743652E1,1.3324585E1,2.289302E1,1.1025542E1,1.6579372E1,1.1990452E1,1.7983673E1,4.527893E0,9.727905E0,1.2325317E1,9.592834E0,9.196606E0,9.322212E0,1.453717E1,8.818464E0,9.087004E0,9.437773E0,8.625853E0,1.8752518E1,9.699482E0,0E0,1.433493E1,4.2865295E0,1.7004395E0,0E0,0E0,0E0,0E0,0E0,0E0,0E0,0E0,0E0,0E0,0E0,0E0,0E0,0E0,0E0,0E0,0E0,0E0,0E0,0E0,0E0,0E0,0E0,0E0,0E0,0E0,0E0,0E0,0E0,0E0],"parents":[2147483647,0,0,1,1,2,2,3,3,4,4,5,5,6,6,7,7,8,8,9,9,10,10,11,11,12,12,13,13,14,14,15,15,16,16,17,17,18,18,19,19,20,20,21,21,22,22,23,23,24,24,25,25,26,26,28,28,29,29,30,30],"right_children":[2,4,6,8,10,12,14,16,18,20,22,24,26,28,30,32,34,36,38,40,42,44,46,48,50,52,54,-1,56,58,60,-1,-1,-1,-1,-1,-1,-1,-1,-1,-1,-1,-1,-1,-1,-1,-1,-1,-1,-1,-1,-1,-1,-1,-1,-1,-1,-1,-1,-1,-1],"split_conditions":[2.4112902E0,5.945144E0,3.852739E0,1.2741783E0,7.9654703E0,6.171379E0,5.525883E0,4.3609586E0,5.0722194E0,6.114321E-1,4.0633747E-1,4.3965717E2,7.65121E0,6.0468388E0,1.6077114E1,-2.0829153E0,2.2387602E0,2.4883492E0,6.157037E0,3.5820182E-2,7.0928297E0,-1.6096146E-1,-3.2741656E0,1.5910883E1,1.06679325E1,1.0546517E1,5.796897E2,-4.209174E-2,4.194741E2,7.65121E0,-7.715961E-1,-3.9631307E-2,-6.817477E-2,-4.8386693E-2,-2.6694847E-2,-3.2279667E-2,-6.670374E-2,-2.8202834E-3,-2.461058E-2,-4.1323394E-2,-1.8573923E-2,-1.9341126E-2,-6.1837602E-3,-4.8375367E-3,1.9183686E-2,3.7097648E-2,-2.0382365E-2,3.4251973E-2,-7.155704E-3,-9.7982595E-3,-4.801088E-2,-2.0336073E-3,1.55744245E-2,3.7665498E-2,1.2565217E-2,4.1478205E-2,2.3982173E-2,-1.8481513E-3,3.891961E-2,6.1277077E-3,4.5852203E-2],"split_indices":[41,36,41,41,36,36,41,36,38,41,43,14,37,37,9,15,15,18,7,20,36,8,2,23,11,10,14,0,14,37,40,0,0,0,0,0,0,0,0,0,0,0,0,0,0,0,0,0,0,0,0,0,0,0,0,0,0,0,0,0,0],"split_type":[0,0,0,0,0,0,0,0,0,0,0,0,0,0,0,0,0,0,0,0,0,0,0,0,0,0,0,0,0,0,0,0,0,0,0,0,0,0,0,0,0,0,0,0,0,0,0,0,0,0,0,0,0,0,0,0,0,0,0,0,0],"sum_hessian":[6.648E3,2.929E3,3.719E3,1.571E3,1.358E3,1.34E3,2.379E3,1.036E3,5.35E2,1.135E3,2.23E2,2.4E2,1.1E3,1.009E3,1.37E3,3.98E2,6.38E2,2.3E2,3.05E2,2.12E2,9.23E2,1.65E2,5.8E1,1.76E2,6.4E1,6.45E2,4.55E2,7E0,1.002E3,7.47E2,6.23E2,5E1,3.48E2,5.48E2,9E1,2.06E2,2.4E1,6.2E1,2.43E2,1.3E2,8.2E1,5.9E2,3.33E2,5.6E1,1.09E2,5E0,5.3E1,1.2E1,1.64E2,2.7E1,3.7E1,4.09E2,2.36E2,4.1E1,4.14E2,1.43E2,8.59E2,6E0,7.41E2,4E0,6.19E2],"tree_param":{"num_deleted":"0","num_feature":"45","num_nodes":"61","size_leaf_vector":"1"}},{"base_weights":[-7.991247E-3,-5.5222225E-1,5.0962263E-1,-8.706298E-1,-2.950234E-1,1.4697474E-1,6.705181E-1,-1.1723135E0,-6.6870296E-1,-4.8046628E-1,-8.20713E-2,-8.820303E-2,1.9880965E-1,4.941172E-1,7.7975136E-1,-1.5030711E0,-1.0476516E0,-1.0190241E0,-5.9084797E-1,-6.2528086E-1,-2.4331512E-1,-1.7227335E-1,1.7478664E-1,-2.3630278E-1,3.534107E-1,1.2507275E-1,3.3347845E-1,9.156982E-2,5.247113E-1,5.652649E-1,8.0919063E-1,-1.3054474E-2,-7.788454E-2,-5.6692988E-2,-3.802982E-2,-5.578173E-2,-7.5582997E-3,-3.2607134E-2,-1.0185475E-2,-3.772443E-2,-2.0729935E-2,-1.4446178E-2,1.805508E-2,-1.0930713E-2,4.6968884E-3,1.432579E-2,-9.474432E-3,5.4690726E-3,-1.9311495E-2,-1.7993009E-2,2.8327316E-2,1.4039668E-2,-1.7027554E-4,3.9084577E-3,2.218677E-2,2.4700595E-2,-8.727424E-3,1.292412E-2,2.9123798E-2,3.008294E-2,-2.3703133E-3,8.04117E-3,4.069464E-2],"categories":[],"categories_nodes":[],"categories_segments":[],"categories_sizes":[],"default_left":[0,0,0,0,0,0,0,0,0,0,0,0,0,0,0,0,0,0,0,0,0,0,0,0,0,0,0,0,0,0,0,0,0,0,0,0,0,0,0,0,0,0,0,0,0,0,0,0,0,0,0,0,0,0,0,0,0,0,0,0,0,0,0],"id":21,"left_children":[1,3,5,7,9,11,13,15,17,19,21,23,25,27,29,31,33,35,37,39,41,43,45,47,49,51,53,55,57,59,61,-1,-1,-1,-1,-1,-1,-1,-1,-1,-1,-1,-1,-1,-1,-1,-1,-1,-1,-1,-1,-1,-1,-1,-1,-1,-1,-1,-1,-1,-1,-1,-1],"loss_changes":[1.8671211E3,2.637126E2,1.9783203E2,8.530786E1,7.0592316E1,1.2839228E1,4.403711E1,1.8688477E1,2.1788605E1,3.232289E1,1.9505798E1,1.2730774E1,8.36887E0,1.0976791E1,7.627136E0,8.773499E0,7.7900696E0,1.2279373E1,1.660115E1,1.5059937E1,1.0450249E1,7.7473564E0,9.085915E0,7.669404E0,8.0814495E0,1.12543745E1,8.344933E0,7.5732427E0,1.24283905E1,4.2660255E0,3.366516E0,0E0,0E0,0E0,0E0,0E0,0E0,0E0,0E0,0E0,0E0,0E0,0E0,0E0,0E0,0E0,0E0,0E0,0E0,0E0,0E0,0E0,0E0,0E0,0E0,0E0,0E0,0E0,0E0,0E0,0E0,0E0,0E0],"parents":[2147483647,0,0,1,1,2,2,3,3,4,4,5,5,6,6,7,7,8,8,9,9,10,10,11,11,12,12,13,13,14,14,15,15,16,16,17,17,18,18,19,19,20,20,21,21,22,22,23,23,24,24,25,25,26,26,27,27,28,28,29,29,30,30],"right_children":[2,4,6,8,10,12,14,16,18,20,22,24,26,28,30,32,34,36,38,40,42,44,46,48,50,52,54,56,58,60,62,-1,-1,-1,-1,-1,-1,-1,-1,-1,-1,-1,-1,-1,-1,-1,-1,-1,-1,-1,-1,-1,-1,-1,-1,-1,-1,-1,-1,-1,-1,-1,-1],"split_conditions":[2.6871073E0,6.4457436E0,3.852739E0,6.840755E-1,1.6370782E0,6.2108064E0,5.343389E0,4.4660273E0,4.259545E0,7.1340513E0,8.589293E0,8.006843E0,7.470837E-2,-8.584402E0,1.1656966E1,-1.7350311E0,2.2661766E1,2.0433675E-1,9.238835E0,1.8620522E1,9.0869E0,2.7655735E0,6.012567E-1,-7.9069614E0,1E0,4.2570263E-1,2.8804496E-1,7.4842834E0,1.8750252E-1,1.4787345E1,7.970012E0,-1.3054474E-2,-7.788454E-2,-5.6692988E-2,-3.802982E-2,-5.578173E-2,-7.5582997E-3,-3.2607134E-2,-1.0185475E-2,-3.772443E-2,-2.0729935E-2,-1.4446178E-2,1.805508E-2,-1.0930713E-2,4.6968884E-3,1.432579E-2,-9.474432E-3,5.4690726E-3,-1.9311495E-2,-1.7993009E-2,2.8327316E-2,1.4039668E-2,-1.7027554E-4,3.9084577E-3,2.218677E-2,2.4700595E-2,-8.727424E-3,1.292412E-2,2.9123798E-2,3.008294E-2,-2.3703133E-3,8.04117E-3,4.069464E-2],"split_indices":[41,39,41,41,41,37,41,39,37,37,39,2,21,31,10,1,7,21,10,7,11,6,43,2,29,33,33,38,26,11,39,0,0,0,0,0,0,0,0,0,0,0,0,0,0,0,0,0,0,0,0,0,0,0,0,0,0,0,0,0,0,0,0],"split_type":[0,0,0,0,0,0,0,0,0,0,0,0,0,0,0,0,0,0,0,0,0,0,0,0,0,0,0,0,0,0,0,0,0,0,0,0,0,0,0,0,0,0,0,0,0,0,0,0,0,0,0,0,0,0,0,0,0,0,0,0,0,0,0],"sum_hessian":[6.622E3,3.228E3,3.394E3,1.439E3,1.789E3,1.045E3,2.349E3,5.71E2,8.68E2,9.54E2,8.35E2,1.88E2,8.57E2,9.05E2,1.444E3,1.47E2,4.24E2,1.51E2,7.17E2,5.89E2,3.65E2,6.19E2,2.16E2,1.42E2,4.6E1,5.58E2,2.99E2,6.5E1,8.4E2,1.82E2,1.262E3,7E0,1.4E2,3.19E2,1.05E2,1.35E2,1.6E1,6.17E2,1E2,3.6E2,2.29E2,3.41E2,2.4E1,5.28E2,9.1E1,1.66E2,5E1,4.3E1,9.9E1,1E1,3.6E1,2.51E2,3.07E2,9.2E1,2.07E2,2.5E1,4E1,1.53E2,6.87E2,1.72E2,1E1,1E1,1.252E3],"tree_param":{"num_deleted":"0","num_feature":"45","num_nodes":"63","size_leaf_vector":"1"}},{"base_weights":[8.199387E-3,-5.20131E-1,4.7233346E-1,-7.4464655E-1,-1.519876E-1,2.401484E-1,7.4220985E-1,-1.0616755E0,-5.979606E-1,-4.5068115E-1,-5.977051E-2,-7.030269E-2,3.1987303E-1,5.712268E-1,7.7216834E-1,-9.4253355E-1,-1.3065331E0,-1.0760921E0,-5.490085E-1,-6.5683615E-1,-1.9613862E-1,-2.4385777E-1,4.9458124E-2,-1.8152463E-1,2.884744E-1,6.7236143E-1,2.761377E-1,7.573445E-1,4.0772524E-1,7.260538E-1,4.185743E-2,-5.0012834E-2,-2.0541577E-2,-2.0335412E-2,-6.773619E-2,-5.804796E-2,-5.424672E-3,-3.3653215E-2,-2.0444278E-2,-3.636357E-2,1.6626174E-2,2.6703758E-2,-1.540668E-2,-4.8906845E-3,-2.4207102E-2,2.5290126E-2,-5.198621E-4,5.406422E-3,-1.6029699E-2,-2.4606893E-2,1.753706E-2,2.7089778E-2,4.848915E-2,9.0572955E-3,2.3646234E-2,4.4764884E-2,2.2020362E-2,5.5237826E-5,2.5785951E-2,3.70544E-2,1.9076904E-2],"categories":[],"categories_nodes":[],"categories_segments":[],"categories_sizes":[],"default_left":[0,0,0,0,0,0,0,0,0,0,0,0,0,0,0,0,0,0,0,0,0,0,0,0,0,0,0,0,0,0,0,0,0,0,0,0,0,0,0,0,0,0,0,0,0,0,0,0,0,0,0,0,0,0,0,0,0,0,0,0,0],"id":22,"left_children":[1,3,5,7,9,11,13,15,17,19,21,23,25,27,29,31,33,35,37,39,41,43,45,47,49,51,53,55,57,59,-1,-1,-1,-1,-1,-1,-1,-1,-1,-1,-1,-1,-1,-1,-1,-1,-1,-1,-1,-1,-1,-1,-1,-1,-1,-1,-1,-1,-1,-1,-1],"loss_changes":[1.6181779E3,2.5464081E2,2.194961E2,8.703052E1,3.2178017E1,4.6945312E1,6.856079E0,1.3642822E1,2.8890259E1,1.4011368E1,1.8152462E1,1.5669013E1,2.2580353E1,6.6864777E0,2.1314697E0,1.1393707E1,6.366577E0,9.26712E0,1.9943268E1,1.1287529E1,1.093898E1,1.1590683E1,1.5552729E1,1.216952E1,5.0240755E0,4.641205E0,2.483857E1,3.7116318E0,6.1821804E0,3.3177795E0,0E0,0E0,0E0,0E0,0E0,0E0,0E0,0E0,0E0,0E0,0E0,0E0,0E0,0E0,0E0,0E0,0E0,0E0,0E0,0E0,0E0,0E0,0E0,0E0,0E0,0E0,0E0,0E0,0E0,0E0,0E0],"parents":[2147483647,0,0,1,1,2,2,3,3,4,4,5,5,6,6,7,7,8,8,9,9,10,10,11,11,12,12,13,13,14,14,15,15,16,16,17,17,18,18,19,19,20,20,21,21,22,22,23,23,24,24,25,25,26,26,27,27,28,28,29,29],"right_children":[2,4,6,8,10,12,14,16,18,20,22,24,26,28,30,32,34,36,38,40,42,44,46,48,50,52,54,56,58,60,-1,-1,-1,-1,-1,-1,-1,-1,-1,-1,-1,-1,-1,-1,-1,-1,-1,-1,-1,-1,-1,-1,-1,-1,-1,-1,-1,-1,-1,-1,-1],"split_conditions":[2.5717824E0,6.3722343E0,5.0546994E0,5.974065E-1,8.097936E-1,6.6056194E0,1.1656966E1,-1.2103595E0,4.123849E0,1.7398226E1,7.8110943E0,6.524041E0,4.194741E2,-1.5606727E-1,1.7038763E1,8.039844E-1,-9.036352E-1,1.6853597E0,6.6533284E0,3.554432E-1,1.05182886E-1,3.6574984E0,-3.6064732E0,-7.780748E0,1.1291634E-1,7.5229487E0,8.506473E0,7.8799677E0,2.413591E-1,2.4324557E-1,4.185743E-2,-5.0012834E-2,-2.0541577E-2,-2.0335412E-2,-6.773619E-2,-5.804796E-2,-5.424672E-3,-3.3653215E-2,-2.0444278E-2,-3.636357E-2,1.6626174E-2,2.6703758E-2,-1.540668E-2,-4.8906845E-3,-2.4207102E-2,2.5290126E-2,-5.198621E-4,5.406422E-3,-1.6029699E-2,-2.4606893E-2,1.753706E-2,2.7089778E-2,4.848915E-2,9.0572955E-3,2.3646234E-2,4.4764884E-2,2.2020362E-2,5.5237826E-5,2.5785951E-2,3.70544E-2,1.9076904E-2],"split_indices":[41,36,41,41,41,36,10,5,36,7,39,4,14,43,9,44,43,17,9,4,24,18,2,2,17,36,36,42,25,20,0,0,0,0,0,0,0,0,0,0,0,0,0,0,0,0,0,0,0,0,0,0,0,0,0,0,0,0,0,0,0],"split_type":[0,0,0,0,0,0,0,0,0,0,0,0,0,0,0,0,0,0,0,0,0,0,0,0,0,0,0,0,0,0,0,0,0,0,0,0,0,0,0,0,0,0,0,0,0,0,0,0,0,0,0,0,0,0,0,0,0,0,0,0,0],"sum_hessian":[6.593E3,3.083E3,3.51E3,1.913E3,1.17E3,1.89E3,1.62E3,5.99E2,1.314E3,2.73E2,8.97E2,3.86E2,1.504E3,2.51E2,1.369E3,4.13E2,1.86E2,1.16E2,1.198E3,1.48E2,1.25E2,3.33E2,5.64E2,2.96E2,9E1,1.61E2,1.343E3,1.12E2,1.39E2,8.23E2,5.46E2,3.7E2,4.3E1,1.1E1,1.75E2,1.06E2,1E1,6.29E2,5.69E2,1.39E2,9E0,1.5E1,1.1E2,2.1E2,1.23E2,6.3E1,5.01E2,9.6E1,2E2,5E0,8.5E1,1.18E2,4.3E1,9.1E2,4.33E2,7.4E1,3.8E1,3E1,1.09E2,7.85E2,3.8E1],"tree_param":{"num_deleted":"0","num_feature":"45","num_nodes":"61","size_leaf_vector":"1"}},{"base_weights":[-1.8116563E-3,-5.206714E-1,4.472785E-1,-7.772099E-1,-2.766485E-1,1.5766846E-1,6.449973E-1,-1.0479833E0,-6.2841445E-1,-4.6561223E-1,-1.7545816E-1,2.5007963E-2,2.8455067E-1,5.2675587E-1,7.452732E-1,-1.4937592E0,-9.6190804E-1,-1.1347804E0,-5.855652E-1,5.1847912E-2,-5.154012E-1,-5.3917426E-1,-1.22069694E-1,-1.3824768E-1,1.7990252E-1,-1.0112423E-1,3.148034E-1,2.8158474E-1,5.928589E-1,-9.423307E-3,7.483221E-1,-7.8604855E-2,-9.334079E-3,-3.134894E-2,-5.2392192E-2,1.6980028E-3,-6.027296E-2,-3.0283732E-2,1.3186951E-2,-3.0845914E-2,1.312705E-2,-2.836077E-2,-9.921312E-4,3.168805E-2,-2.9098282E-2,-9.310955E-3,3.8360895E-3,-2.3336686E-2,-3.1029182E-3,-4.102733E-2,9.757179E-3,-2.890485E-2,9.398889E-3,1.0457605E-2,2.0411512E-2,3.4843057E-2,6.07733E-3,3.0244118E-2,-1.9741194E-2,3.3657573E-2,3.9343085E-2],"categories":[],"categories_nodes":[],"categories_segments":[],"categories_sizes":[],"default_left":[0,0,0,0,0,0,0,0,0,0,0,0,0,0,0,0,0,0,0,0,0,0,0,0,0,0,0,0,0,0,0,0,0,0,0,0,0,0,0,0,0,0,0,0,0,0,0,0,0,0,0,0,0,0,0,0,0,0,0,0,0],"id":23,"left_children":[1,3,5,7,9,11,13,15,17,19,21,23,25,27,29,31,33,35,37,39,41,43,45,47,49,51,53,55,57,-1,59,-1,-1,-1,-1,-1,-1,-1,-1,-1,-1,-1,-1,-1,-1,-1,-1,-1,-1,-1,-1,-1,-1,-1,-1,-1,-1,-1,-1,-1,-1],"loss_changes":[1.5523516E3,1.9275006E2,2.0409491E2,5.849292E1,3.0074547E1,2.440496E1,2.3843323E1,1.574176E1,1.9076263E1,1.4348137E1,1.9931396E1,1.8133991E1,8.774319E0,1.5358978E1,3.7246094E0,7.1351624E0,1.0871246E1,6.2701416E0,1.60383E1,7.6365867E0,1.2848724E1,7.7265816E0,1.1671205E1,8.594694E0,6.0290623E0,8.087072E0,6.4830017E0,1.3952972E1,9.905304E0,0E0,1.5588989E0,0E0,0E0,0E0,0E0,0E0,0E0,0E0,0E0,0E0,0E0,0E0,0E0,0E0,0E0,0E0,0E0,0E0,0E0,0E0,0E0,0E0,0E0,0E0,0E0,0E0,0E0,0E0,0E0,0E0,0E0],"parents":[2147483647,0,0,1,1,2,2,3,3,4,4,5,5,6,6,7,7,8,8,9,9,10,10,11,11,12,12,13,13,14,14,15,15,16,16,17,17,18,18,19,19,20,20,21,21,22,22,23,23,24,24,25,25,26,26,27,27,28,28,30,30],"right_children":[2,4,6,8,10,12,14,16,18,20,22,24,26,28,30,32,34,36,38,40,42,44,46,48,50,52,54,56,58,-1,60,-1,-1,-1,-1,-1,-1,-1,-1,-1,-1,-1,-1,-1,-1,-1,-1,-1,-1,-1,-1,-1,-1,-1,-1,-1,-1,-1,-1,-1,-1],"split_conditions":[2.5406082E0,5.835249E0,4.182017E0,5.974065E-1,1.1216707E0,7.215503E0,1.3876005E1,4.094643E0,3.8130193E0,1.9560534E1,6.6924996E0,1.0546517E1,-8.6424774E-1,8.256283E0,6.2531643E0,6.071918E0,-7.22318E-1,1.3134323E0,6.5754976E0,1.3201923E1,3.554432E-1,3.368939E2,8.804545E0,5.9762187E0,4.9730926E0,4.9244566E0,4.9749523E-1,-8.974634E0,4.7449867E1,-9.423307E-3,1.5820648E1,-7.8604855E-2,-9.334079E-3,-3.134894E-2,-5.2392192E-2,1.6980028E-3,-6.027296E-2,-3.0283732E-2,1.3186951E-2,-3.0845914E-2,1.312705E-2,-2.836077E-2,-9.921312E-4,3.168805E-2,-2.9098282E-2,-9.310955E-3,3.8360895E-3,-2.3336686E-2,-3.1029182E-3,-4.102733E-2,9.757179E-3,-2.890485E-2,9.398889E-3,1.0457605E-2,2.0411512E-2,3.4843057E-2,6.07733E-3,3.0244118E-2,-1.9741194E-2,3.3657573E-2,3.9343085E-2],"split_indices":[41,37,41,41,41,37,9,39,37,23,39,10,43,37,37,10,0,42,0,30,4,14,39,37,37,42,26,1,34,0,9,0,0,0,0,0,0,0,0,0,0,0,0,0,0,0,0,0,0,0,0,0,0,0,0,0,0,0,0,0,0],"split_type":[0,0,0,0,0,0,0,0,0,0,0,0,0,0,0,0,0,0,0,0,0,0,0,0,0,0,0,0,0,0,0,0,0,0,0,0,0,0,0,0,0,0,0,0,0,0,0,0,0,0,0,0,0,0,0,0,0,0,0,0,0],"sum_hessian":[6.656E3,3.088E3,3.568E3,1.502E3,1.586E3,1.45E3,2.118E3,5.26E2,9.76E2,5.49E2,1.037E3,7.11E2,7.39E2,9.81E2,1.137E3,7.7E1,4.49E2,7E1,9.06E2,4.8E1,5.01E2,1.29E2,9.08E2,3.46E2,3.65E2,5.3E1,6.86E2,2.12E2,7.69E2,3E0,1.134E3,7.2E1,5E0,9.7E1,3.52E2,4E0,6.6E1,8.86E2,2E1,1E1,3.8E1,4.53E2,4.8E1,3E0,1.26E2,6.87E2,2.21E2,6.2E1,2.84E2,3E0,3.62E2,1.9E1,3.4E1,3.27E2,3.59E2,5.6E1,1.56E2,7.61E2,8E0,4.04E2,7.3E2],"tree_param":{"num_deleted":"0","num_feature":"45","num_nodes":"61","size_leaf_vector":"1"}},{"base_weights":[-4.14502E-3,-4.026112E-1,5.082954E-1,-7.567719E-1,-1.809807E-1,3.164541E-1,6.6406506E-1,-9.964616E-1,-5.6047666E-1,-3.0714813E-1,1.7495116E-2,1.9563267E-1,4.056673E-1,6.180545E-1,3.7960984E-2,-1.5787631E0,-9.3366283E-1,-6.679437E-1,-2.9655543E-1,-4.43047E-1,-1.5356888E-1,-2.664058E-3,6.962056E-1,-1.894868E-1,2.2970174E-1,-3.9499156E-2,4.1866443E-1,3.756052E-1,6.3368213E-1,-8.1680395E-2,-1.349857E-2,-4.7585372E-2,8.3632636E-5,-4.6818104E-2,-2.947254E-2,-1.9967789E-2,4.893925E-3,-1.4289185E-2,-2.9128894E-2,-2.6571108E-2,-4.5356816E-3,2.33112E-2,-1.7704817E-3,-1.1800936E-2,4.264665E-2,-2.2827214E-2,2.0364454E-2,5.186037E-3,1.6868532E-2,3.0256385E-2,1.6087584E-2,2.423809E-2,-1.5061376E-2,3.5563942E-2,2.84546E-2],"categories":[],"categories_nodes":[],"categories_segments":[],"categories_sizes":[],"default_left":[0,0,0,0,0,0,0,0,0,0,0,0,0,0,0,0,0,0,0,0,0,0,0,0,0,0,0,0,0,0,0,0,0,0,0,0,0,0,0,0,0,0,0,0,0,0,0,0,0,0,0,0,0,0,0],"id":24,"left_children":[1,3,5,7,9,11,13,15,17,19,21,23,25,27,-1,29,31,33,35,37,39,41,43,45,47,-1,49,51,53,-1,-1,-1,-1,-1,-1,-1,-1,-1,-1,-1,-1,-1,-1,-1,-1,-1,-1,-1,-1,-1,-1,-1,-1,-1,-1],"loss_changes":[1.3541802E3,2.92352E2,8.596228E1,6.568555E1,5.7614746E1,1.3778992E1,5.4507446E0,1.8803162E1,2.1886108E1,2.9081177E1,1.2334208E1,7.4952927E0,1.2578987E1,3.3301086E0,0E0,2.6498108E0,1.0007019E1,1.0053436E1,9.716726E0,1.5739334E1,1.5586952E1,1.3410495E1,4.464348E0,8.053313E0,6.8636227E0,0E0,1.2731644E1,5.9235992E0,3.7848816E0,0E0,0E0,0E0,0E0,0E0,0E0,0E0,0E0,0E0,0E0,0E0,0E0,0E0,0E0,0E0,0E0,0E0,0E0,0E0,0E0,0E0,0E0,0E0,0E0,0E0,0E0],"parents":[2147483647,0,0,1,1,2,2,3,3,4,4,5,5,6,6,7,7,8,8,9,9,10,10,11,11,12,12,13,13,15,15,16,16,17,17,18,18,19,19,20,20,21,21,22,22,23,23,24,24,26,26,27,27,28,28],"right_children":[2,4,6,8,10,12,14,16,18,20,22,24,26,28,-1,30,32,34,36,38,40,42,44,46,48,-1,50,52,54,-1,-1,-1,-1,-1,-1,-1,-1,-1,-1,-1,-1,-1,-1,-1,-1,-1,-1,-1,-1,-1,-1,-1,-1,-1,-1],"split_conditions":[3.1734142E0,5.6112547E0,5.0546994E0,5.024218E0,2.1762557E0,3.852739E0,1.7038763E1,4.0192084E0,1.8241924E0,6.917534E0,9.7471803E-1,7.721867E-2,6.0468388E0,8.062107E0,3.7960984E-2,1.6068023E0,9.5649475E-1,4.8130455E0,7.671916E-1,-6.6521983E0,3.857363E-1,-9.45114E0,3.7576349E0,8.062107E0,-1.4843279E-1,-3.9499156E-2,1.3685036E0,7.961523E-1,6.5717926E2,-8.1680395E-2,-1.349857E-2,-4.7585372E-2,8.3632636E-5,-4.6818104E-2,-2.947254E-2,-1.9967789E-2,4.893925E-3,-1.4289185E-2,-2.9128894E-2,-2.6571108E-2,-4.5356816E-3,2.33112E-2,-1.7704817E-3,-1.1800936E-2,4.264665E-2,-2.2827214E-2,2.0364454E-2,5.186037E-3,1.6868532E-2,3.0256385E-2,1.6087584E-2,2.423809E-2,-1.5061376E-2,3.5563942E-2,2.84546E-2],"split_indices":[41,37,41,9,41,41,9,39,41,37,25,26,37,37,0,0,26,39,26,31,41,4,42,37,15,0,17,24,13,0,0,0,0,0,0,0,0,0,0,0,0,0,0,0,0,0,0,0,0,0,0,0,0,0,0],"split_type":[0,0,0,0,0,0,0,0,0,0,0,0,0,0,0,0,0,0,0,0,0,0,0,0,0,0,0,0,0,0,0,0,0,0,0,0,0,0,0,0,0,0,0,0,0,0,0,0,0,0,0,0,0,0,0],"sum_hessian":[6.626E3,3.728E3,2.898E3,1.432E3,2.296E3,1.303E3,1.595E3,6.39E2,7.93E2,1.403E3,8.93E2,5.58E2,7.45E2,1.091E3,5.04E2,5.5E1,5.84E2,5.6E2,2.33E2,7.41E2,6.62E2,8.7E2,2.3E1,4.4E1,5.14E2,6E0,7.39E2,7.1E1,1.02E3,5.2E1,3E0,5.73E2,1.1E1,1.19E2,4.41E2,1.85E2,4.8E1,3.53E2,3.88E2,9.1E1,5.71E2,5.4E1,8.16E2,3E0,2E1,3.1E1,1.3E1,2.4E2,2.74E2,2.47E2,4.92E2,6.2E1,9E0,4.49E2,5.71E2],"tree_param":{"num_deleted":"0","num_feature":"45","num_nodes":"55","size_leaf_vector":"1"}},{"base_weights":[-3.896762E-3,-4.0407985E-1,4.7134948E-1,-6.777286E-1,-1.560791E-1,2.438759E-1,6.014772E-1,-9.9040556E-1,-5.444044E-1,-4.8149323E-1,-8.036631E-2,6.94223E-2,3.0646205E-1,5.056625E-1,6.7803115E-1,-1.2036675E0,-8.292735E-1,-6.835908E-1,-3.8728184E-1,-6.9377035E-1,-2.6417363E-1,-1.4208205E-1,1.9730721E-1,-5.470696E-2,1.0944781E-1,5.516431E-1,2.4845159E-1,6.692684E-1,4.540262E-1,2.7165225E-1,6.846072E-1,-2.8305044E-2,-6.362341E-2,-4.328769E-2,-1.0004666E-3,-4.15789E-2,-2.6393045E-2,-1.6075836E-2,-3.912746E-2,-8.270322E-3,-4.053567E-2,-7.119035E-3,-3.6835123E-2,-9.246501E-3,1.7825153E-2,2.9312938E-2,4.8934123E-3,-1.1522924E-3,1.6269213E-2,3.152607E-2,-2.9265832E-3,1.9932631E-2,6.0228473E-3,3.4389768E-2,-1.0400827E-3,3.856488E-3,2.4750039E-2,2.1010006E-2,-1.5895437E-2,6.675258E-3,3.4339827E-2],"categories":[],"categories_nodes":[],"categories_segments":[],"categories_sizes":[],"default_left":[0,0,0,0,0,0,0,0,0,0,0,0,0,0,0,0,0,0,0,0,0,0,0,0,0,0,0,0,0,0,0,0,0,0,0,0,0,0,0,0,0,0,0,0,0,0,0,0,0,0,0,0,0,0,0,0,0,0,0,0,0],"id":25,"left_children":[1,3,5,7,9,11,13,15,17,19,21,23,25,27,29,31,33,35,37,39,41,43,45,-1,47,49,51,53,55,57,59,-1,-1,-1,-1,-1,-1,-1,-1,-1,-1,-1,-1,-1,-1,-1,-1,-1,-1,-1,-1,-1,-1,-1,-1,-1,-1,-1,-1,-1,-1],"loss_changes":[1.252746E3,2.4228491E2,8.8602844E1,6.905591E1,4.6147182E1,1.1919716E1,1.2884949E1,1.4121307E1,2.5298157E1,1.5685104E1,2.6280785E1,1.3999567E1,1.1015282E1,6.258255E0,2.1631165E0,6.8667603E0,8.627548E0,1.3089203E1,1.395182E1,1.04366455E1,9.956535E0,2.6948917E1,1.0550327E1,0E0,8.292471E0,7.4836044E0,1.2492481E1,2.666603E0,1.0097946E1,2.3377013E0,8.916321E-1,0E0,0E0,0E0,0E0,0E0,0E0,0E0,0E0,0E0,0E0,0E0,0E0,0E0,0E0,0E0,0E0,0E0,0E0,0E0,0E0,0E0,0E0,0E0,0E0,0E0,0E0,0E0,0E0,0E0,0E0],"parents":[2147483647,0,0,1,1,2,2,3,3,4,4,5,5,6,6,7,7,8,8,9,9,10,10,11,11,12,12,13,13,14,14,15,15,16,16,17,17,18,18,19,19,20,20,21,21,22,22,24,24,25,25,26,26,27,27,28,28,29,29,30,30],"right_children":[2,4,6,8,10,12,14,16,18,20,